[{"problem": "ToyProblem", "trial": 0, "n_qubits": 2, "ansatz": "2-layer HEA", "cost": "local", "optimizer": "SGD_lr=1", "error_threshold": 0.0016, "noise_model": null, "TTS": 11.05669617652893, "STS": 25, "final_EAD": 0.0012906784786667525, "EAD_history": [0.1422238627685014, 0.09799794578584042, 0.06126690148170276, 0.03697161377853845, 0.02115684087497996, 0.011322360392342646, 0.004931679875852687, 0.0017200084696698888, 0.0012906784786667525], "cost_history": [0.49733727319094256, 0.04884484491276975, 0.0409204587377105, 0.03508456843234575, 0.030116553104669208, 0.025840239074445437, 0.022129863637976588, 0.018893633418963884, 0.01606321887344725, 0.013586638888725022, 0.011423266949736888, 0.009540237094915638, 0.007909835847918989, 0.006507638114197134, 0.005311236069171887, 0.0042994520663774405, 0.0034519404426716638, 0.0027490840989867205, 0.002172091035818946, 0.0017032005154997143, 0.0013259207520003868, 0.001025238845110632, 0.0007877656595976501, 0.0006017995118445252, 0.00045730969709784075], "model_weights": [0.629705872836393, 0.6301481037598419, 0.018265790671163955, 0.01720340205724331, 0.8745993676413096, 0.8749345900297503, -0.0014099366390674468, 0.0010002617315610198, 0.0002981197026333352, 0.000821808560672831, 4.387057940306806e-05, 5.262513513496692e-05, 0.0012175142929313765, -3.564597305041043e-05, -9.99851229639721e-05, 0.001035896933322054, 0.00047448175780228816, -0.00011903881006221337, 0.00017498949256827107, -0.002266326951950156], "init_weights": [0.0014385087723946576, 0.0027457869190696863, 0.001362867152735559, -1.197081909684253e-05, 0.001012627902143208, 0.0006948524839041135, -0.0014099366390674468, 0.0010002617315610198, 0.0002981197026333352, 0.000821808560672831, 4.387057940306806e-05, 5.262513513496692e-05, 0.0012175142929313765, -3.564597305041043e-05, -9.99851229639721e-05, 0.001035896933322054, 0.00047448175780228816, -0.00011903881006221337, 0.00017498949256827107, -0.002266326951950156]},{"problem": "ToyProblem", "trial": 1, "n_qubits": 2, "ansatz": "2-layer HEA", "cost": "local", "optimizer": "SGD_lr=1", "error_threshold": 0.0016, "noise_model": null, "TTS": 9.80631971359253, "STS": 25, "final_EAD": 0.0011011197469682832, "EAD_history": [0.14776817330702893, 0.10326450579414687, 0.06318724472481059, 0.03704103165980415, 0.02080018489626285, 0.010640589956610335, 0.004956929785886973, 0.0030565524835245357, 0.0011011197469682832], "cost_history": [0.49971113090965125, 0.04890834206897615, 0.041062260305673726, 0.03521156161932004, 0.03023212668862424, 0.025946619228088164, 0.022228486229922684, 0.018985378269165576, 0.016148574358424872, 0.013665826686110438, 0.011496342260841785, 0.009607171560236494, 0.007970585618741144, 0.0065621970331767865, 0.0053596730744652765, 0.004341932335158394, 0.0034887309657737897, 0.002780545818029445, 0.002198660900446847, 0.001725367493391694, 0.0013441998182959214, 0.001040146368366135, 0.000799798608082658, 0.0006114197934384835, 0.00046493394639718355], "model_weights": [-0.6277469652225989, -0.6294722269550315, -0.016652914602077455, -0.01926529874124445, -0.8772587198708498, -0.8737201777968653, -0.0018810527205294534, -3.845911412562696e-05, 0.0004772693844335481, -0.0009235657144110971, -0.00044764552046494294, -0.0009056683234661757, 0.0013637772571186697, 0.00017373842758729508, -0.00020535162310930324, -0.000485723644777521, 0.0003247303468484418, -0.0020780120314629097, 8.240143124936892e-06, 1.0899877599339588e-05], "init_weights": [0.0005091238627509943, -0.0009408111060281867, -0.0003792136300091217, -0.0006308302317737653, -0.0006515526341829791, 0.0013075593974396422, -0.0018810527205294534, -3.845911412562696e-05, 0.0004772693844335481, -0.0009235657144110971, -0.00044764552046494294, -0.0009056683234661757, 0.0013637772571186697, 0.00017373842758729508, -0.00020535162310930324, -0.000485723644777521, 0.0003247303468484418, -0.0020780120314629097, 8.240143124936892e-06, 1.0899877599339588e-05]},{"problem": "ToyProblem", "trial": 2, "n_qubits": 2, "ansatz": "2-layer HEA", "cost": "local", "optimizer": "SGD_lr=1", "error_threshold": 0.0016, "noise_model": null, "TTS": 9.344855070114136, "STS": 25, "final_EAD": 0.001100863198685821, "EAD_history": [0.156309728405728, 0.0993172267850734, 0.061939091931015794, 0.035484873346192256, 0.02029128260067775, 0.012269406399801983, 0.005643485223724537, 0.0022163893287372094, 0.001100863198685821], "cost_history": [0.4999961629775361, 0.04881577383153074, 0.041013860237925304, 0.035177046267300505, 0.03020872023737331, 0.025932229904737536, 0.022221442504068267, 0.018984284360919923, 0.016152222267645178, 0.01367314507458478, 0.011506370080984263, 0.009619048114416995, 0.0079835506915375, 0.006575595902824527, 0.005372962168371964, 0.004354682340075577, 0.003500625403058899, 0.002791374353096565, 0.0022083077947965823, 0.0017337964520734994, 0.0013514369309429175, 0.0010462628846361621, 0.000804895014326068, 0.0006156122017540455, 0.000468343307452157], "model_weights": [0.6272303100409009, 0.6278615041523624, 0.01790314931002663, 0.018263715561979553, 0.8767147122556282, 0.8758457682197599, 0.00066484976422105, -0.0006084762122739957, 0.0013142050690697676, 0.0005772479307238377, 0.0009651011366341265, 0.0006898976798249289, -0.0013576459511383, 0.0008538776537938978, 0.0009516249112096811, 0.0003859715209066259, -0.00018106755765377134, -0.0008863617812503319, -0.0007316910304821603, 0.00022996805109981214], "init_weights": [-0.0005292527056107483, -0.0007370310049423223, 0.0007680747113297446, -0.00026528334019642935, 0.0012826909689932595, -0.0005087617824471998, 0.00066484976422105, -0.0006084762122739957, 0.0013142050690697676, 0.0005772479307238377, 0.0009651011366341265, 0.0006898976798249289, -0.0013576459511383, 0.0008538776537938978, 0.0009516249112096811, 0.0003859715209066259, -0.00018106755765377134, -0.0008863617812503319, -0.0007316910304821603, 0.00022996805109981214]},{"problem": "ToyProblem", "trial": 3, "n_qubits": 2, "ansatz": "2-layer HEA", "cost": "local", "optimizer": "SGD_lr=1", "error_threshold": 0.0016, "noise_model": null, "TTS": 9.265337944030762, "STS": 25, "final_EAD": 0.0008328571803824982, "EAD_history": [0.14371074415623544, 0.09955202655938626, 0.06284125772405082, 0.03810186274041075, 0.02256688159803144, 0.010087391330224486, 0.00543182515121693, 0.0018747477479479002, 0.0008328571803824982], "cost_history": [0.49908542324209454, 0.048889437361049115, 0.041033277086094944, 0.035193735439082996, 0.03022328557014553, 0.025945077445358733, 0.02223286069631386, 0.018994479754670668, 0.016161343916126558, 0.013681301963557435, 0.011513644065343609, 0.009625503742276387, 0.007989242658516249, 0.006580574526446614, 0.005377277108445155, 0.004358384751802502, 0.003503768742925961, 0.0027940141167348553, 0.0022105005133352673, 0.0017355982852830243, 0.001352902164512726, 0.0010474425728319026, 0.0008058359244916824, 0.0006163561320375321, 0.00046892677818893835], "model_weights": [-0.6275754336600868, -0.6273944295628067, -0.018365210704529726, -0.017831157539491473, -0.8760178165091792, -0.876576593150382, -0.002680399051405243, -0.0004579242881588303, -0.00032894783773192046, 0.0006858236891923147, 0.00041142649591997246, -0.0010803686626106495, -4.2479982982238905e-06, 9.17168290335182e-05, -0.0013723193792358002, 0.0002554802518776799, -0.0009737531499064875, -0.0006865444833049161, 0.00019293579001485506, 0.0011348501167793468], "init_weights": [0.0006315384361524866, -0.00013165815212252732, -0.0008953860822371411, -0.0011120076433915884, 4.106160449869011e-05, -0.0010211993852394766, -0.002680399051405243, -0.0004579242881588303, -0.00032894783773192046, 0.0006858236891923147, 0.00041142649591997246, -0.0010803686626106495, -4.2479982982238905e-06, 9.17168290335182e-05, -0.0013723193792358002, 0.0002554802518776799, -0.0009737531499064875, -0.0006865444833049161, 0.00019293579001485506, 0.0011348501167793468]},{"problem": "ToyProblem", "trial": 4, "n_qubits": 2, "ansatz": "2-layer HEA", "cost": "local", "optimizer": "SGD_lr=1", "error_threshold": 0.0016, "noise_model": null, "TTS": 9.575654983520508, "STS": 25, "final_EAD": 0.0007708876562833981, "EAD_history": [0.15172488208923246, 0.09728317469167086, 0.06243213456461099, 0.03616111415719681, 0.021573560218274588, 0.011803414958086256, 0.004644168511267178, 0.0036202913066104418, 0.0007708876562833981], "cost_history": [0.4984049838443694, 0.04881354810207461, 0.04093507918651301, 0.03509399076052433, 0.030121812833360073, 0.02584213264191082, 0.022129034049035823, 0.018890626475870587, 0.016058515541703566, 0.013580672609345423, 0.011416431088344892, 0.009532886044804956, 0.007902282488040313, 0.006500149844834158, 0.005304031232126194, 0.0042926980774374845, 0.003445754405209611, 0.0027435360857858138, 0.0021672097121362977, 0.0016989804125225327, 0.0013223303302545286, 0.0010222285062408965, 0.0007852750252605456, 0.0005997635230032827, 0.0004556633306826985], "model_weights": [0.6301970116549029, 0.6306268352721197, 0.017982843589101724, 0.01736798740609791, 0.8744030707486651, 0.8744276725800413, -0.0018503036256524552, -0.0024522422716037055, -0.001574221711596141, 0.0003000025061405487, -8.938783349791064e-05, -0.0001413994691816095, -0.0005704996898562304, -0.0011247777696515402, -0.0004780606159642651, 9.375247812396833e-05, -0.0005921300239104117, 0.00021889767676922035, -0.001010052359078163, -0.0007744429095079062], "init_weights": [0.002029572958434593, 0.0018359847616077273, 0.0008150655180350232, -0.0009068799963473595, 0.0011223675241980129, -0.0005576530620712205, -0.0018503036256524552, -0.0024522422716037055, -0.001574221711596141, 0.0003000025061405487, -8.938783349791064e-05, -0.0001413994691816095, -0.0005704996898562304, -0.0011247777696515402, -0.0004780606159642651, 9.375247812396833e-05, -0.0005921300239104117, 0.00021889767676922035, -0.001010052359078163, -0.0007744429095079062]},{"problem": "ToyProblem", "trial": 0, "n_qubits": 3, "ansatz": "2-layer HEA", "cost": "local", "optimizer": "SGD_lr=1", "error_threshold": 0.0016, "noise_model": null, "TTS": 19.602664947509766, "STS": 22, "final_EAD": 0.0013909133185728054, "EAD_history": [0.7015675625878839, 0.2789297824477896, 0.03850517570740067, 0.013216376953773352, 0.005993598858080983, 0.004014997917893995, 0.0035639079381792216, 0.0013909133185728054], "cost_history": [0.4998300335587694, 0.2803034923360119, 0.2391611256554273, 0.20820277467064036, 0.16943423496491655, 0.11934054293329721, 0.06399043709470975, 0.029328573298782856, 0.01680082346185452, 0.011628512409992298, 0.009042952341069277, 0.007467481792861108, 0.006353679314393457, 0.005491828731568615, 0.004790403183401959, 0.004203114516315665, 0.0037029784435666513, 0.003272342182692678, 0.00289866528350613, 0.002572524758792105, 0.002286574818326892, 0.002034937442133733], "model_weights": [-0.5642754273591059, -0.48046715863385625, -0.5447650786989838, -0.2113957536086426, -0.014057442382472524, 0.10754444388087353, -0.04122795015320181, -0.8068848131044039, -0.14468030420524203, -1.024030570899053, -0.9823103265691379, -0.0013370771901637156, -0.001000531495906714, 0.0011186272426374206, 0.00032458661638700554, 0.0013745952611077105, 0.0008611802405555394, -0.0011133093404740928, -0.0006079175501442851, 0.0005012784840347169, -0.001125844609407662, 0.0005726667041952613, -0.001217406967473931, 0.0012963231952314218, -0.0020885848232830035, 0.001961530070465736, -0.001555466920818345, 0.00044447280326263345, 0.000787093258821753, -0.0009157605378897816], "init_weights": [0.0002820476603019035, 0.001207075644126972, 0.00029823216077062115, -0.0002273669851587349, 0.0010546439089475404, -0.0017669144495765306, -2.00016632418446e-05, -0.0011289051217291705, -0.0010753172979653738, -0.000850903154162138, 0.0012080997209688055, -0.0013370771901637156, -0.001000531495906714, 0.0011186272426374206, 0.00032458661638700554, 0.0013745952611077105, 0.0008611802405555394, -0.0011133093404740928, -0.0006079175501442851, 0.0005012784840347169, -0.001125844609407662, 0.0005726667041952613, -0.001217406967473931, 0.0012963231952314218, -0.0020885848232830035, 0.001961530070465736, -0.001555466920818345, 0.00044447280326263345, 0.000787093258821753, -0.0009157605378897816]},{"problem": "ToyProblem", "trial": 1, "n_qubits": 3, "ansatz": "2-layer HEA", "cost": "local", "optimizer": "SGD_lr=1", "error_threshold": 0.0016, "noise_model": null, "TTS": 19.146016120910645, "STS": 22, "final_EAD": 0.0015677895601112495, "EAD_history": [0.7157540476861188, 0.2649592755328992, 0.038108221213058166, 0.011095307980783075, 0.006615702978945723, 0.005171804141747322, 0.002760167252282347, 0.0015677895601112495], "cost_history": [0.4999202193817008, 0.2803291838950525, 0.23917720696072048, 0.20823174870829808, 0.16947178648910383, 0.11936855910794364, 0.06397377291970074, 0.029287202344888907, 0.016776825591026556, 0.011618029135589125, 0.009039625818458963, 0.0074672780558054375, 0.006354371891181487, 0.0054922826204789055, 0.00479009623814497, 0.004201858487363375, 0.003700761300929778, 0.003269239877216501, 0.0028947931627221757, 0.0025680109076910984, 0.002281546097919751, 0.0020295123751267186], "model_weights": [-0.5646358647676339, -0.4833583667677293, -0.5464442184474084, -0.20812257157964847, -0.015214057773615277, 0.10761875809858443, -0.04068409706455833, -0.8097531745344935, -0.14430369040362084, -1.0206797691669403, -0.9811746620093703, 0.0003111455199607513, -0.0011022318079369374, -0.001079364387639192, 0.0009588231277634835, 0.0003540543565364175, -0.000323991688519387, -0.0006951386823258498, 0.0002868427066363696, 0.000613344020813954, -0.000305036664527144, 2.5565376254495056e-05, -0.0006193805683094124, -0.0003423228701498999, -0.0015455073629984703, -5.748499388330192e-05, -0.000847321699369488, -0.0004989523294756388, 0.0004554232601126145, 0.0006873894813958912], "init_weights": [0.0006300412514852096, -0.0011087303540792586, 4.112878663793643e-05, 0.00029049216669494533, -0.0004816268434206233, -4.626800086207393e-05, -0.0004888997763837448, -0.0019064722549774963, -0.0001065791993664037, 0.0013610732835094646, 0.0013375698465594424, 0.0003111455199607513, -0.0011022318079369374, -0.001079364387639192, 0.0009588231277634835, 0.0003540543565364175, -0.000323991688519387, -0.0006951386823258498, 0.0002868427066363696, 0.000613344020813954, -0.000305036664527144, 2.5565376254495056e-05, -0.0006193805683094124, -0.0003423228701498999, -0.0015455073629984703, -5.748499388330192e-05, -0.000847321699369488, -0.0004989523294756388, 0.0004554232601126145, 0.0006873894813958912]},{"problem": "ToyProblem", "trial": 2, "n_qubits": 3, "ansatz": "2-layer HEA", "cost": "local", "optimizer": "SGD_lr=1", "error_threshold": 0.0016, "noise_model": null, "TTS": 52.71407389640808, "STS": 61, "final_EAD": 0.0013688107972343855, "EAD_history": [0.7078667966115421, 0.23394468630164553, 0.16150907989424193, 0.11911278950450332, 0.08107589440604372, 0.059123353898260074, 0.041997441905858884, 0.03215907594718414, 0.022378709283377693, 0.013197164531205861, 0.012390477335348453, 0.008522443047617439, 0.007691003322094814, 0.005586911294674656, 0.006334272023870638, 0.003210138979988785, 0.0029039251456445, 0.0023839013729736796, 0.0020810069323889784, 0.0019390459281190618, 0.0013688107972343855], "cost_history": [0.49954435898086375, 0.1930088059091461, 0.072369889472092, 0.04812820485519004, 0.037129638945549936, 0.03059242650242633, 0.02608324191701189, 0.02266990117798967, 0.01993402704419517, 0.017662190798042154, 0.015732692511284285, 0.014069178752387945, 0.012619870454804616, 0.01134748494098009, 0.010223955423578512, 0.009227448652573356, 0.008340556460204984, 0.007549127159736602, 0.006841469299814329, 0.0062077863648127285, 0.005639763340615334, 0.005130258242795893, 0.00467306907259174, 0.004262756498216169, 0.0038945084237875793, 0.0035640363127890096, 0.0032674956181284465, 0.0030014244378224197, 0.002762695836270035, 0.002548480296707789, 0.002356215585942123, 0.002183581967944437, 0.0020284812297304278, 0.0018890184027181012, 0.0017634853921795202, 0.001650345980427237, 0.0015482218586366225, 0.0014558794791257323, 0.0013722176148404097, 0.0012962555749990723, 0.0012271220633316426, 0.001164044684851262, 0.0011063401141475082, 0.0010534049371438425, 0.0010047071724346712, 0.0009597784701567136, 0.0009182069775259816, 0.0008796308518329576, 0.0008437323944529562, 0.0008102327736735915, 0.0007788872999052177, 0.0007494812141340956, 0.0007218259491009182, 0.0006957558224491844, 0.0006711251218231573, 0.0006478055432975194, 0.0006256839465110242, 0.0006046603921807114, 0.0005846464302187715, 0.0005655636093120919, 0.0005473421814728985], "model_weights": [0.5828919910869403, 0.49232051673054683, 0.5742981667093048, 0.24253330004094903, 0.0020985415835505588, -0.17782221668295745, 0.05828914257513441, 0.7503970126780874, 0.10029194659491737, 1.082819204413167, 0.9241474554642835, -6.305631691483239e-05, 0.001341164146723803, 0.0006778263355646469, -0.00015589313382217295, 0.0015485095494850052, -0.0008574633709961827, -0.0008207680001690596, -0.0015158306702664922, -0.002090003595792518, 0.000717678228142008, 0.00020592091768810658, 0.0006919519596972878, -0.0010307169821536523, -0.0009449684653172841, 0.0006874197823279457, -0.001617970242567905, -0.00045841032239505843, 0.0005327023048688126, 0.0014158231617147727], "init_weights": [0.0001641319402800871, 0.0003690506757368762, -0.0007430559917982109, 9.72982886822974e-05, 0.0017284209051101967, 0.0007211678359671091, -0.0005664408840841547, -0.0009233402333169478, 5.852157377642695e-05, 0.001560037602928008, 0.00027057469386526693, -6.305631691483239e-05, 0.001341164146723803, 0.0006778263355646469, -0.00015589313382217295, 0.0015485095494850052, -0.0008574633709961827, -0.0008207680001690596, -0.0015158306702664922, -0.002090003595792518, 0.000717678228142008, 0.00020592091768810658, 0.0006919519596972878, -0.0010307169821536523, -0.0009449684653172841, 0.0006874197823279457, -0.001617970242567905, -0.00045841032239505843, 0.0005327023048688126, 0.0014158231617147727]},{"problem": "ToyProblem", "trial": 3, "n_qubits": 3, "ansatz": "2-layer HEA", "cost": "local", "optimizer": "SGD_lr=1", "error_threshold": 0.0016, "noise_model": null, "TTS": 60.35773205757141, "STS": 70, "final_EAD": 0.0012881813659416969, "EAD_history": [0.7087829180799258, 0.2506501035466423, 0.15894000264928912, 0.11637049070258078, 0.08322492296919955, 0.05410843020607546, 0.042144312385956395, 0.030097605644837846, 0.02177386024515427, 0.016738751939312374, 0.011903891969152838, 0.007417721918982135, 0.006140384517809546, 0.005207431565606408, 0.004085186134450531, 0.0022463482435942437, 0.004688437841549427, 0.0027277607134646303, 0.002296155494837104, 0.0023759518956321143, 0.0018344371681119722, 0.0021826674868633666, 0.0019366061162871006, 0.0012881813659416969], "cost_history": [0.4996921816012609, 0.19289549173563747, 0.07225101821125696, 0.048078236288368326, 0.03710373732384736, 0.03057624706270895, 0.026071697294431595, 0.022660828751610185, 0.0199263404223316, 0.01765526509169041, 0.01572613602336337, 0.0140627377010894, 0.01261338329082956, 0.01134085663582729, 0.01021714054700934, 0.009220438806350206, 0.008333370243983285, 0.007541801894539291, 0.006834054163622372, 0.006200336765720682, 0.005632336413734063, 0.0051229093714268426, 0.004665849330884764, 0.004255710904782384, 0.0038876748895984026, 0.003557445164553308, 0.0032611695808164587, 0.002995378966703377, 0.0027569396989260975, 0.0025430163179174237, 0.0023510414820299697, 0.0021786912112174983, 0.0020238638971303846, 0.0018846619752510008, 0.0017593754825871444, 0.0016464669757615402, 0.0015445574718243593, 0.0014524132093147735, 0.0013689331204818633, 0.0012931369664443415, 0.0012241541234110365, 0.001161213026725394, 0.0011036312858655473, 0.0010508064820051177, 0.0010022076535998181, 0.0009573674670974586, 0.0009158750609764565, 0.0008773695429319384, 0.0008415341128594767, 0.0008080907785650293, 0.0007767956270061105, 0.0007474346112437136, 0.0007198198120048627, 0.0006937861326186123, 0.0006691883868948922, 0.0006458987410060679, 0.0006238044724825587, 0.0006028060117964085, 0.0005828152345984661, 0.0005637539753580723, 0.0005455527358275147, 0.0005281495643627565, 0.0005114890846340536, 0.0004955216546010388, 0.00048020263880199643, 0.0004654917790050117, 0.00045135265008167114, 0.00043775218960107054, 0.00042466029110072023, 0.000412049452301555], "model_weights": [0.58694730527392, 0.4966847180554072, 0.5754076998639123, 0.23164386262532688, -0.010734658391742893, -0.1590161619446951, 0.051587491479009547, 0.7606887371315766, 0.08841221645710438, 1.0941259321130727, 0.9344470276896945, 0.0002802715553150137, -0.0002414947902047593, 0.0009578178702105876, -0.0017569903112957573, -0.0012141094611609474, 6.229980740455643e-05, 0.00019728640331834868, -5.230792342124372e-05, 0.0002058204555327281, -0.0004642273847947692, 0.0003917535330338281, 0.0001544995342648702, -0.0010491718933205078, -0.0019996248623054104, -8.811794319189957e-05, -0.0014259947972187531, 0.00038204063180223043, 0.0013623428507629402, -0.0004221971521186398], "init_weights": [0.00038980105955977465, -0.0004243908914850217, 0.0011281092254740424, -0.0005811292648077779, 5.5545333845325974e-05, 0.0005306507706356789, -0.0014193195000663042, 0.0006659044272893606, 0.000598925119354196, 0.0015496053886458426, -0.0006459223289647177, 0.0002802715553150137, -0.0002414947902047593, 0.0009578178702105876, -0.0017569903112957573, -0.0012141094611609474, 6.229980740455643e-05, 0.00019728640331834868, -5.230792342124372e-05, 0.0002058204555327281, -0.0004642273847947692, 0.0003917535330338281, 0.0001544995342648702, -0.0010491718933205078, -0.0019996248623054104, -8.811794319189957e-05, -0.0014259947972187531, 0.00038204063180223043, 0.0013623428507629402, -0.0004221971521186398]},{"problem": "ToyProblem", "trial": 4, "n_qubits": 3, "ansatz": "2-layer HEA", "cost": "local", "optimizer": "SGD_lr=1", "error_threshold": 0.0016, "noise_model": null, "TTS": 57.852092266082764, "STS": 67, "final_EAD": 0.0012340894299143707, "EAD_history": [0.7023313771680763, 0.23359971916683853, 0.1596812644312451, 0.10856353737470525, 0.08411913664226905, 0.05666937953260799, 0.040301796718361656, 0.03199930258656944, 0.02342451341237478, 0.016776252960332357, 0.012348960731179321, 0.009621953033406091, 0.006175418934918971, 0.005409117613302357, 0.004683751959364094, 0.0033115683140403822, 0.00254317212496598, 0.0029422488693457713, 0.00201113491805348, 0.002648968401517271, 0.0017770756954778339, 0.001677933862752784, 0.0012340894299143707], "cost_history": [0.4999961080149731, 0.19328177377438294, 0.07224941854735245, 0.04804628606129663, 0.03707134127513878, 0.0305469826182328, 0.026045407831915057, 0.022637004643717706, 0.0199045937228568, 0.01763534418339302, 0.01570788331147077, 0.014046054302424837, 0.012598205618506886, 0.011327141353244141, 0.010204854685712361, 0.009209553064999765, 0.008323854361304506, 0.00753362149191017, 0.006827168715273391, 0.006194698481386429, 0.00562788987458962, 0.005119591781845234, 0.00466359125610688, 0.004254437368569841, 0.0038873067115138826, 0.003557900425699978, 0.003262365119863997, 0.0029972318240412688, 0.002759368444568644, 0.002545942216971575, 0.0023543894688953237, 0.002182390659254463, 0.00202784918363047, 0.0018888728518666742, 0.0017637572688604664, 0.0016509705982069023, 0.0015491393735135306, 0.0014570351554769045, 0.0013735619247360331, 0.001297744160324632, 0.0012287155892540813, 0.0011657086110359316, 0.001108044407263975, 0.0010551237449425432, 0.0010064184763354245, 0.00096146373006889, 0.000919850779647513, 0.0008812205675310381, 0.00084525785605849, 0.0008116859711059243, 0.0007802621004968091, 0.0007507731067888934, 0.0007230318129630708, 0.0006968737195649499, 0.0006721541127547859, 0.0006487455243271989, 0.0006265355068461598, 0.0006054246894795501, 0.0005853250827174694, 0.0005661586028681276, 0.0005478557898997427, 0.0005303546948207116, 0.000513599915266727, 0.0004975417603140242, 0.00048213552769893475, 0.0004673408786062261, 0.0004531212969984266], "model_weights": [0.5855052064191044, 0.4960266894623932, 0.5760667906782868, 0.23516963815015468, -0.006996586983199886, -0.16518892340384603, 0.05591376598100417, 0.7576327088983408, 0.0905039951908925, 1.091846453447633, 0.9284799421614236, -0.0010307196962522234, -0.0011387865639527212, 0.0008272674474402933, -0.00121618959408118, -0.00016099170018468942, -0.0008515389754686201, -0.000632810195753886, -8.857465548084892e-05, -0.0004177862656601124, -0.0014398923691780808, -0.0011773258348445426, 0.0013395260131575022, -0.0013684641539763662, -0.0024004664008312675, 0.001297235206547984, 0.00038782779579555937, -0.0016565901006194285, 0.00041758538305411, 0.0009624094835104873], "init_weights": [-0.0016339316571490263, 0.00172851728726697, 0.0013121833188406778, -0.00014825984787344328, 0.0005564174284034933, -0.0019401101578738506, 0.0010628331849385222, -0.0008882579149076097, -0.0007745310534115638, 0.0009144645091761516, -0.00016394765310026732, -0.0010307196962522234, -0.0011387865639527212, 0.0008272674474402933, -0.00121618959408118, -0.00016099170018468942, -0.0008515389754686201, -0.000632810195753886, -8.857465548084892e-05, -0.0004177862656601124, -0.0014398923691780808, -0.0011773258348445426, 0.0013395260131575022, -0.0013684641539763662, -0.0024004664008312675, 0.001297235206547984, 0.00038782779579555937, -0.0016565901006194285, 0.00041758538305411, 0.0009624094835104873]},{"problem": "ToyProblem", "trial": 0, "n_qubits": 4, "ansatz": "2-layer HEA", "cost": "local", "optimizer": "SGD_lr=1", "error_threshold": 0.0016, "noise_model": null, "TTS": 240.5025999546051, "STS": 115, "final_EAD": 0.0011681093151339587, "EAD_history": [1.4294728254545006, 0.476455296461068, 0.3038162014218242, 0.23062027761355183, 0.16402769205520046, 0.13168600713985962, 0.1065935530458419, 0.08045908809122694, 0.06966102001701995, 0.04998609503343596, 0.04148584724856105, 0.033785943624311594, 0.028094004654663062, 0.025139704495578646, 0.020585887366428794, 0.019474999360775826, 0.012245971892604806, 0.011828748774727029, 0.01327089435764406, 0.00848191073391486, 0.007976702683068226, 0.005711758650889802, 0.005247014392871907, 0.006032918699248041, 0.005097324123747463, 0.0052314534414646865, 0.00582416801398009, 0.0037919965688429603, 0.0038228359781493, 0.003106008204458746, 0.00391432625854063, 0.002310067471074845, 0.003321724622850281, 0.0025075757362495316, 0.002308493587342987, 0.0033375412323645827, 0.003386690010626592, 0.0019718610185961998, 0.0011681093151339587], "cost_history": [0.4993632176591038, 0.26515990352144847, 0.1270869824844335, 0.07139767203982078, 0.0497734793072373, 0.038784602165709225, 0.03182042344756475, 0.026855205976318408, 0.02308750596737502, 0.02012272136442378, 0.01773329064521062, 0.01577342313305774, 0.01414309352986548, 0.012770483307019076, 0.011602389027514926, 0.010598510937724959, 0.00972782261042715, 0.008966144112931618, 0.008294453857575934, 0.0076976762853100955, 0.007163788782408975, 0.006683150385119407, 0.006247989282504973, 0.005852006960414158, 0.005490069847539691, 0.005157967716331147, 0.004852223669606359, 0.004569944366587642, 0.004308701841538254, 0.004066440228509383, 0.003841402165324359, 0.00363207075984201, 0.0034371238598341902, 0.0032553980399721016, 0.0030858602505614563, 0.002927585494896967, 0.002779739238935486, 0.0026415635261480275, 0.002512365985567755, 0.0023915110928982575, 0.002278413181595107, 0.002172530809905815, 0.0020733621764090215, 0.0019804413451079417, 0.0018933350951479966, 0.001811640252696256, 0.0017349813957325266, 0.0016630088484214656, 0.0015953969018094871, 0.0015318422131181397, 0.0014720623478013395, 0.0014157944376426146, 0.0013627939350454032, 0.001312833448869899, 0.0012657016510337904, 0.0012212022459615057, 0.0011791529970460735, 0.0011393848057989486, 0.001101740840417198, 0.001066075711237957, 0.001032254691038792, 0.001000152978457014, 0.0009696550029983375, 0.0009406537702011386, 0.000913050245577085, 0.0008867527759460203, 0.0008616765467845955, 0.000837743074165398, 0.0008148797298579424, 0.0007930192981177031, 0.0007720995626921412, 0.0007520629225462039, 0.0007328560348207613, 0.0007144294835431109, 0.0006967374726235542, 0.0006797375417045837, 0.00066339030346102, 0.0006476592009855842, 0.0006325102839514485, 0.0006179120022806739, 0.0006038350161111095, 0.0005902520209081774, 0.0005771375866228667, 0.0005644680098602084, 0.000552221178077239, 0.000540376444893742, 0.0005289145156451291, 0.0005178173423808219, 0.0005070680275425787, 0.0004966507356307104, 0.00048655061220120865, 0.00047675370959371355, 0.00046724691882760183, 0.00045801790715116475, 0.00044905506076958757, 0.0004403474323108614, 0.000431884692625506, 0.00042365708655162093, 0.00041565539230342674, 0.00040787088417354456, 0.00040029529825907906, 0.0003929208009563756, 0.00038573995997998045, 0.00037874571769086485, 0.00037193136653351777, 0.00036529052639955317, 0.0003588171237535187, 0.00035250537236697355, 0.0003463497555256656, 0.00034034500958324276, 0.00033448610874470264, 0.0003287682509797718, 0.0003231868449669606, 0.00031773749798574835, 0.0003124160046725777], "model_weights": [0.5761883803586894, 0.4346201534695861, 0.4349260521122292, 0.5775334190569901, 0.2691292052590998, -0.017841690594915662, -0.0184923258898085, 0.2680565556080807, -0.1438444658360472, -0.14256126730437058, 0.7396629496947897, 0.11478565765266373, 0.11591879465332047, 0.7394612931313717, 1.1293033970140638, 1.1275424389442334, -0.001168545035289543, -0.003218986596439468, 7.285332462699117e-05, 0.0004798790939571298, -0.0008401545651036539, 0.0006710895979008366, -0.0017625337159917463, -0.0006662733800061487, -0.0011950691806113447, -0.0004697435597881272, 0.0021116792292560464, 0.0009879498636258374, 0.0009244333275110491, -9.922305109954487e-05, 0.0010705372713899583, -0.0011200704551629869, 0.0008713576171585454, -0.0019662018578969842, 0.00023681265612829296, -0.00012916710549051684, 0.0004259799486657823, -0.0001548436955317891, 0.0006154711601983638, -0.0006253267741818491], "init_weights": [-0.0015728754449734605, 0.0006554146170477966, 0.00013016113761886113, 0.0011230447191384837, 0.0006970322209580996, -0.00010925336029055538, -4.375759730254399e-05, 0.000905296446754354, -0.0018078726457634487, 0.0008244883723763937, 0.00029909930716082205, 0.0007617755878645841, 0.0008539183714367958, 0.001276822800988963, 0.0007419144316765432, 0.00035906032423351733, -0.001168545035289543, -0.003218986596439468, 7.285332462699117e-05, 0.0004798790939571298, -0.0008401545651036539, 0.0006710895979008366, -0.0017625337159917463, -0.0006662733800061487, -0.0011950691806113447, -0.0004697435597881272, 0.0021116792292560464, 0.0009879498636258374, 0.0009244333275110491, -9.922305109954487e-05, 0.0010705372713899583, -0.0011200704551629869, 0.0008713576171585454, -0.0019662018578969842, 0.00023681265612829296, -0.00012916710549051684, 0.0004259799486657823, -0.0001548436955317891, 0.0006154711601983638, -0.0006253267741818491]},{"problem": "ToyProblem", "trial": 1, "n_qubits": 4, "ansatz": "2-layer HEA", "cost": "local", "optimizer": "SGD_lr=1", "error_threshold": 0.0016, "noise_model": null, "TTS": 231.49908828735352, "STS": 112, "final_EAD": 0.001323562318037095, "EAD_history": [1.4300029077841965, 0.4849434154161081, 0.31642823689546695, 0.22387144091116837, 0.17603453050617576, 0.13009629772078396, 0.10140141847624491, 0.07917215926933968, 0.06420314216855658, 0.054483871378477974, 0.04221363428183123, 0.031356440529897875, 0.02886699380389287, 0.02282267669179713, 0.020027381203161266, 0.016765273579129988, 0.012503694057601161, 0.014568383629851514, 0.010455194566824762, 0.007489836797261647, 0.0075232826082789524, 0.007048140642276654, 0.007431996045771947, 0.004121575734705389, 0.004690163891194568, 0.004741205009109177, 0.0033572677666549185, 0.004133078017744914, 0.0031320752244231227, 0.0022800191256703707, 0.004132879197699759, 0.00360974920515945, 0.002623357484869642, 0.00316374739017229, 0.0030783554178091276, 0.004466727139250082, 0.0016939332669684572, 0.001323562318037095], "cost_history": [0.49958148225107074, 0.26540046020527097, 0.12736397892977458, 0.07160358553617013, 0.04991943369244056, 0.03889299523509615, 0.03190282478804818, 0.026918708422845827, 0.023136840830451866, 0.02016116301311527, 0.017763170549433382, 0.015796450109006488, 0.01416055724166343, 0.012783384397051512, 0.01161152300162338, 0.01060452296808495, 0.009731244055630917, 0.008967417511890008, 0.008293950605930411, 0.007695709606100942, 0.007160623606426608, 0.006679011138363888, 0.006243066197987535, 0.005846461300126338, 0.0054840382813538535, 0.005151566022045362, 0.004845549869766985, 0.0045630813890510935, 0.004301719773381785, 0.00405939822176421, 0.0038343500451312185, 0.0036250503794312827, 0.0034301702413818136, 0.003248540335504424, 0.0030791225525637067, 0.0029209875220719272, 0.0027732969187054812, 0.002635289492015691, 0.0025062700043628205, 0.002385600434249402, 0.0022726929396595374, 0.002167004185446797, 0.0020680307256992214, 0.0019753052008111838, 0.001888393163271218, 0.0018068903888455168, 0.001730420563250623, 0.0016586332604573983, 0.001591202148981119, 0.0015278233781267359, 0.0014682141081383548, 0.001412111157360063, 0.0013592697464437364, 0.0013094623248712245, 0.0012624774689438678, 0.0012181188432753842, 0.0011762042199199851, 0.0011365645507752653, 0.001099043089971885, 0.0010634945636911475, 0.0010297843853475097, 0.0009977879143843182, 0.0009673897571337853, 0.0009384831082757672, 0.0009109691314948543, 0.0008847563779242895, 0.0008597602409695648, 0.0008359024460626308, 0.0008131105738874989, 0.0007913176155789903, 0.0007704615583960517, 0.0007504850003466901, 0.0007313347922573987, 0.0007129617057732296, 0.0006953201258153019, 0.0006783677660299192, 0.0006620654058140385, 0.0006463766475383603, 0.0006312676926324978, 0.0006167071352592979, 0.0006026657723545159, 0.0005891164288597261, 0.000576033797050568, 0.0005633942889070598, 0.0005511759005456529, 0.0005393580877766091, 0.0005279216519273877, 0.0005168486351127544, 0.0005061222241961039, 0.0004957266627372836, 0.00048564717027188564, 0.00047586986831527067, 0.0004663817125300507, 0.0004571704305424418, 0.000448224464922542, 0.0004395329208988219, 0.0004310855183923823, 0.0004228725480086015, 0.0004148848306406716, 0.0004071136803731612, 0.00039955087040433046, 0.0003921886017196896, 0.00038501947428459804, 0.00037803646053263806, 0.00037123288095347595, 0.00036460238159968794, 0.0003581389133432977, 0.0003518367127344768, 0.000345690284324518, 0.00033969438432657206, 0.00033384400549912874, 0.0003281343631535427], "model_weights": [0.5772759968331561, 0.43456841546497754, 0.4368800221344022, 0.5785718715691008, 0.26851450930758297, -0.015901848630941982, -0.015893932172999847, 0.26636368536785354, -0.14568668697817436, -0.14515861410161507, 0.7389542410326181, 0.11497016117439177, 0.119783277715203, 0.7399989411792558, 1.127962851988506, 1.1211656751246049, -0.0009738196897855597, 0.0005554672071108414, -0.0007219571357476885, 0.0018803530011390888, -1.2723380138120285e-05, 0.0004403903496612986, 0.0010138141094642014, -0.00036315094643502407, -0.001160862471725451, 0.001819785684575398, 0.00028000449720518955, -0.001538285029909021, 0.0009185548512509814, -0.0013328566851766891, -0.0014976782802723718, 0.0010483178930263057, -0.00026241838005105036, 0.00038082535152293056, -3.646119343657243e-05, -0.0013030207745238062, -0.0006522795383919302, 0.00048788843527270434, 0.00034931253115579714, -0.0018354666155725645], "init_weights": [0.0016332546789127455, -0.001847716722222562, 0.0005845088465193103, 0.0012525098812808378, 0.0005540260743810887, 0.0008446375756474291, 0.0017331502248046312, -0.0008520975096181157, -0.0008006369333561486, 0.0013145384386959997, 0.0005739297069617365, -0.000495617281704424, -0.0003659727941826211, 2.5667887962376954e-05, 0.0005671158724371342, -0.0013731543003773052, -0.0009738196897855597, 0.0005554672071108414, -0.0007219571357476885, 0.0018803530011390888, -1.2723380138120285e-05, 0.0004403903496612986, 0.0010138141094642014, -0.00036315094643502407, -0.001160862471725451, 0.001819785684575398, 0.00028000449720518955, -0.001538285029909021, 0.0009185548512509814, -0.0013328566851766891, -0.0014976782802723718, 0.0010483178930263057, -0.00026241838005105036, 0.00038082535152293056, -3.646119343657243e-05, -0.0013030207745238062, -0.0006522795383919302, 0.00048788843527270434, 0.00034931253115579714, -0.0018354666155725645]},{"problem": "ToyProblem", "trial": 2, "n_qubits": 4, "ansatz": "2-layer HEA", "cost": "local", "optimizer": "SGD_lr=1", "error_threshold": 0.0016, "noise_model": null, "TTS": 214.37915229797363, "STS": 106, "final_EAD": 0.001534311944023556, "EAD_history": [1.4185762473691017, 0.4744285342646956, 0.312363780167994, 0.22799135265443016, 0.16733292685106343, 0.12827884935723402, 0.1075158540436592, 0.08004323920534333, 0.06443821394187135, 0.05469905986800233, 0.04231844913243278, 0.03438044116347121, 0.03566365202562463, 0.023929885893109487, 0.017595105310259675, 0.01785302004055991, 0.013935031686240468, 0.012515378827016348, 0.01106701901507053, 0.007971087913185211, 0.010570709727627223, 0.006811080896606426, 0.006151104862489278, 0.0053727195126812895, 0.005334704548815722, 0.004745371042712473, 0.003970138831435082, 0.003872349379673026, 0.002698506447817499, 0.004083074852959971, 0.0036335794316148997, 0.0034303005486057848, 0.0029305214042716805, 0.0026967366007492337, 0.001778852933329303, 0.001534311944023556], "cost_history": [0.49979675717365646, 0.2656545671605818, 0.12747888786176714, 0.0715315122851673, 0.049816651271866075, 0.03879806349126014, 0.03182213750600238, 0.02685188968702834, 0.023082220080540783, 0.020117039031668005, 0.017728060555354752, 0.015769093360894937, 0.014139872706234569, 0.012768431615463371, 0.011601474470640971, 0.010598646204145579, 0.009728889964698562, 0.008968012315944851, 0.008296989519092635, 0.007700751226368097, 0.0071672845192083945, 0.0066869605531958975, 0.00625202061734903, 0.005856179299945308, 0.0054943155049048675, 0.005162230479341279, 0.004856457610580567, 0.004574112590021662, 0.004312775254030621, 0.004070396383385022, 0.003845224211216136, 0.0036357465062606398, 0.0034406449618388235, 0.003258759297105951, 0.0030890590111565253, 0.0029306211548087435, 0.002782612823110042, 0.0026442773416421317, 0.0025149233353950473, 0.0023939160411077243, 0.0022806703611439882, 0.0021746452660345583, 0.002075339239329288, 0.0019822865267954404, 0.0018950540059171073, 0.0018132385339829082, 0.0017364646661603977, 0.0016643826607559142, 0.0015966667088553321, 0.0015330133409735547, 0.0014731399751819474, 0.0014167835802219586, 0.0013636994339565889, 0.0013136599626592527, 0.0012664536504883306, 0.0012218840113218943, 0.001179768617206478, 0.0011399381791462049, 0.0011022356770271635, 0.0010665155361788137, 0.0010326428485730177, 0.001000492636961392, 0.0009699491604416854, 0.0009409052600521384, 0.0009132617430199219, 0.0008869268043087408, 0.0008618154840899783, 0.0008378491597365589, 0.000814955070911505, 0.0007930658762971277, 0.0007721192404945842, 0.0007520574496096555, 0.0007328270540408743, 0.0007143785369987388, 0.000696666007293345, 0.0006796469149615847, 0.0006632817883369113, 0.0006475339912008771, 0.0006323694987050432, 0.0006177566908047161, 0.0006036661619903683, 0.0005900705461672207, 0.0005769443555894149, 0.0005642638328076655, 0.0005520068146573909, 0.0005401526073642859, 0.0005286818719041908, 0.0005175765188121795, 0.0005068196116866375, 0.0004963952786843362, 0.0004862886313594661, 0.0004764856902403358, 0.0004669733165819645, 0.000457739149783698, 0.0004487715499882916, 0.00044005954543213655, 0.0004315927841317957, 0.0004233614895464144, 0.0004153564198696724, 0.0004075688306388048, 0.00039999044037891673, 0.0003926133990161951, 0.00038543025882437076, 0.00037843394768344307, 0.0003716177444523794, 0.0003649752562742692], "model_weights": [0.5764447440536224, 0.43420635084005604, 0.43527814670114795, 0.5779023508433615, 0.2719859518866748, -0.012279530029797758, -0.013085159903454385, 0.27199996149316963, -0.15113248732053391, -0.15040424655129064, 0.7360708263261974, 0.1217728217116028, 0.12270759630630734, 0.7347665318894172, 1.1210314762934273, 1.1191625502900888, 0.00018868782383283986, 0.0014966716892086324, 0.0012957637502812465, 0.0013193774632976481, 0.0015203234727276813, 0.001037448121351199, -0.0009682017696341962, 0.0010111032396486477, 0.0014991183370957608, -4.509052062808916e-06, -0.00023894745082394704, -0.0003656461438341803, -9.256311185521636e-05, -0.00041693477520148405, 0.0013236920725425854, 0.00019373772437923095, -0.0013183005745590513, 0.0007895372158924768, -0.0005360638099780234, -0.0007114166209338387, -0.0008323882841416607, -0.0005531458982175081, -0.00015083346282353718, -0.00019333271274349638], "init_weights": [0.0005571238282501739, -0.00033690689160384093, -0.0003560384472720274, 0.0007153693930089523, -0.00017626641058812398, 0.0005917720460791859, -0.0008012301701983058, -0.0008213012380143694, -0.00016135468231921082, -0.00037607372080730793, 0.00046399541643022286, 0.002151219105387635, 0.0011083465982358012, -0.0011780852480362612, 0.0011394695881870413, -0.0008940911302294045, 0.00018868782383283986, 0.0014966716892086324, 0.0012957637502812465, 0.0013193774632976481, 0.0015203234727276813, 0.001037448121351199, -0.0009682017696341962, 0.0010111032396486477, 0.0014991183370957608, -4.509052062808916e-06, -0.00023894745082394704, -0.0003656461438341803, -9.256311185521636e-05, -0.00041693477520148405, 0.0013236920725425854, 0.00019373772437923095, -0.0013183005745590513, 0.0007895372158924768, -0.0005360638099780234, -0.0007114166209338387, -0.0008323882841416607, -0.0005531458982175081, -0.00015083346282353718, -0.00019333271274349638]},{"problem": "ToyProblem", "trial": 3, "n_qubits": 4, "ansatz": "2-layer HEA", "cost": "local", "optimizer": "SGD_lr=1", "error_threshold": 0.0016, "noise_model": null, "TTS": 241.22084307670593, "STS": 115, "final_EAD": 0.001092556279999798, "EAD_history": [1.4593354015063005, 0.4713488095536595, 0.3080727107892666, 0.22351369716562358, 0.1640779004625742, 0.1307238462623006, 0.1008379624671375, 0.08491849331886574, 0.06391736340449955, 0.049277831114180395, 0.040656301662141056, 0.03242036202620635, 0.02859618646587252, 0.0234963445455558, 0.01759558650688899, 0.01709265652209516, 0.016108390628956557, 0.01017089863321418, 0.009790086544888317, 0.009461142053810568, 0.006860319688687678, 0.007480386205871916, 0.004687817027838151, 0.0058486601517312485, 0.004418922753558075, 0.006112262994851879, 0.0039369949118563865, 0.0035692606525604786, 0.002519632766169878, 0.0037925536956297952, 0.002569497673888597, 0.0029023623937602496, 0.003614034122239802, 0.004265747172072332, 0.0029267050508873962, 0.0024519354256033366, 0.002078810407196798, 0.002639682414140512, 0.001092556279999798], "cost_history": [0.4993854282454587, 0.26525728575573304, 0.12718833036503802, 0.07139434284322066, 0.04974111442764584, 0.038744487378344905, 0.0317785076099652, 0.026813631435664675, 0.02304717320527272, 0.02008404710992956, 0.017696471723092355, 0.015738539649645278, 0.014110154932528318, 0.01273945268863641, 0.011573198357870962, 0.010571071893566153, 0.009702034774768553, 0.008941901268204044, 0.00827164873541153, 0.007676204021110911, 0.007143549289626627, 0.006664049850998555, 0.006229940973404069, 0.0058349315059412765, 0.005473895149611219, 0.005142628604249688, 0.004837661397639137, 0.004556106027939932, 0.004295539752990574, 0.0040539113236709445, 0.003829467421426258, 0.0036206946729629985, 0.0034262739760123617, 0.0032450445443562015, 0.003075975613160753, 0.0029181441692168186, 0.00277071740848317, 0.0026329388932112008, 0.0025041175965573315, 0.002383619194775366, 0.002270859104312628, 0.0021652968703129716, 0.002066431599631935, 0.0019737981999770615, 0.0018869642407700615, 0.0018055272937521072, 0.001729112644519748, 0.0016573712920294192, 0.0015899781731452678, 0.0015266305647649303, 0.0014670466279333438, 0.001410964067392162, 0.0013581388868829647, 0.001308344225674496, 0.0012613692656340825, 0.0012170182010002306, 0.0011751092650817974, 0.0011354738096038819, 0.0010979554334666908, 0.001062409158401445, 0.001028700649508607, 0.0009967054789566387, 0.0009663084313153436, 0.0009374028490957143, 0.0009098900171124469, 0.0008836785842882833, 0.0008586840215106251, 0.0008348281141147273, 0.0008120384875581199, 0.000790248164807994, 0.0007693951539614052, 0.0007494220645980487, 0.0007302757513720781, 0.0007119069833567138, 0.0006942701376725369, 0.0006773229159601768, 0.0006610260822937919, 0.0006453432211647736, 0.0006302405142269984, 0.0006156865345289808, 0.0006016520570232275, 0.0005881098842004384, 0.000575034685744158, 0.0005624028511772572, 0.0005501923545113141, 0.0005383826299837358, 0.0005269544580209784, 0.0005158898606138496, 0.0005051720053586561, 0.0004947851174609275, 0.0004847143990498459, 0.0004749459552010338, 0.0004654667261110301, 0.0004562644249050396, 0.0004473274806059413, 0.00043864498582202316, 0.0004302066487574807, 0.00042200274916964764, 0.0004140240979370602, 0.0004062619999274375, 0.0003987082198780856, 0.00039135495103226337, 0.00038419478629098114, 0.00037722069166129524, 0.0003704259818065325, 0.0003638042975143141, 0.00035734958491623336, 0.00035105607631230606, 0.00034491827245786144, 0.0003389309261938589, 0.0003330890272983389, 0.0003273877884655274, 0.00032182263230723374, 0.0003163891792990481, 0.0003110832365888494], "model_weights": [-0.5780081738037219, -0.4355557785243321, -0.4359701493251823, -0.578109274159352, -0.2689201104709478, 0.019146114724983593, 0.018425809938567985, -0.26795943155428403, 0.14246942852800698, 0.14286297122526617, -0.7381933629112252, -0.11401015343581426, -0.11558560342659283, -0.7390340299822536, -1.1289896507080739, -1.1269850082792057, -0.000828182942648866, -0.0006803832682423861, -0.0013686801528053376, 0.0004099295582562048, -0.0026229643875355997, -0.0013972859456928585, 0.0007217689499306392, 0.00048659608358089367, 0.002485912907432427, 0.00016974124416366257, 0.0009907304260723887, 0.0008089505440499165, 0.0002696741906504349, 0.0017388652501281032, -0.00037760859932798593, 0.000807192400794998, -0.000647233920385219, -0.0002886623821712494, -0.0012833133061204598, -0.000296101403706189, -0.0014794183584845644, -0.00016943966082300977, 7.710275053544492e-05, -0.0017164016487741126], "init_weights": [0.0007978398223231247, -0.0014668304421366146, -0.0012265826282300888, -0.0005116634075401799, 8.317566430042146e-05, 0.0008966558924344235, -0.0001307349605653745, -0.0005246208738953235, 0.00044265717413545676, 5.573810925249297e-05, 0.0012476918357683137, -0.000564865409165686, -0.0003523060645271131, 1.4020601141940298e-05, -0.0024985942977351627, -0.0011781750573109874, -0.000828182942648866, -0.0006803832682423861, -0.0013686801528053376, 0.0004099295582562048, -0.0026229643875355997, -0.0013972859456928585, 0.0007217689499306392, 0.00048659608358089367, 0.002485912907432427, 0.00016974124416366257, 0.0009907304260723887, 0.0008089505440499165, 0.0002696741906504349, 0.0017388652501281032, -0.00037760859932798593, 0.000807192400794998, -0.000647233920385219, -0.0002886623821712494, -0.0012833133061204598, -0.000296101403706189, -0.0014794183584845644, -0.00016943966082300977, 7.710275053544492e-05, -0.0017164016487741126]},{"problem": "ToyProblem", "trial": 4, "n_qubits": 4, "ansatz": "2-layer HEA", "cost": "local", "optimizer": "SGD_lr=1", "error_threshold": 0.0016, "noise_model": null, "TTS": 272.45364212989807, "STS": 133, "final_EAD": 0.0013066375520305647, "EAD_history": [1.4184204459960947, 0.4864132925331664, 0.3071821350912298, 0.22421678237729145, 0.16950064402018994, 0.1326531408868407, 0.1068210129721423, 0.08159696587516413, 0.06364792781794096, 0.05111548164753743, 0.04239155837748586, 0.04018266208142987, 0.03093331965950022, 0.021408389076556945, 0.019839500221990377, 0.01732611522685312, 0.01077756641396178, 0.012425487667479316, 0.00936069026741675, 0.007590684232886221, 0.00721083389741307, 0.007462120318634619, 0.007488294410670799, 0.006473622469895856, 0.004479056153065472, 0.004895429274879906, 0.0030459708881753066, 0.004611474643924789, 0.0038355999605545507, 0.0035575926564833204, 0.0020734531288924686, 0.003044940050282407, 0.002601902115047912, 0.0030050418520040944, 0.0033184488417851814, 0.003167275988190512, 0.001982714051169939, 0.0024521882445413894, 0.0017151021563175536, 0.001906538017325214, 0.0026918870802669324, 0.0021061496346256436, 0.0017578846197770926, 0.0018751762851291925, 0.0013066375520305647], "cost_history": [0.4997282332939215, 0.26559766269404295, 0.12745950964435254, 0.07153356420359669, 0.04983027408448998, 0.03881808255929947, 0.03184529885981913, 0.026876287515438746, 0.023106744871958185, 0.02014103112995802, 0.017751122531081187, 0.015790989630026064, 0.014160473371320703, 0.012787678736452146, 0.01161936018635329, 0.01061519756065954, 0.009744157884336135, 0.008982063361679116, 0.008309899692094058, 0.00771260131764695, 0.007178156679713277, 0.006696935825767636, 0.006261177223857883, 0.005864591513589645, 0.005502052967762738, 0.0051693578513147265, 0.004863034458655713, 0.0045801934464063665, 0.004318409788312327, 0.004075629647482204, 0.003850096926847568, 0.003640295373222857, 0.003444902971937114, 0.0032627560435008474, 0.003092820986481115, 0.002934172033998317, 0.002785973728688995, 0.0026474670904720887, 0.002517958666703679, 0.0023968118261737947, 0.0022834397953359065, 0.002177300044109931, 0.002077889714996617, 0.0019847418575867914, 0.001897422284422745, 0.0018155269064747959, 0.001738679439593993, 0.0016665293990965613, 0.0015987503196173147, 0.0015350381528153045, 0.0014751098073393365, 0.0014187018045141997, 0.0013655690300410361, 0.0013154835671712606, 0.0012682336006434314, 0.00122362238352286, 0.0011814672611433208, 0.001141598747849859, 0.001103859653287631, 0.0010681042557115772, 0.0010341975202764475, 0.0010020143605833365, 0.0009714389419447356, 0.0009423640249317522, 0.0009146903478160495, 0.0008883260465201159, 0.0008631861106838112, 0.0008391918744268256, 0.0008162705403562676, 0.0007943547353567726, 0.0007733820966707716, 0.000753294886776279, 0.0007340396355630108, 0.0007155668083254074, 0.0006978304981001826, 0.0006807881409090499, 0.0006644002525024173, 0.0006486301852366427, 0.0006334439037659068, 0.0006188097782815483, 0.0006046983940858897, 0.0005910823763418116, 0.0005779362288983458, 0.0005652361861559485, 0.0005529600769844101, 0.0005410871997773015, 0.000529598207770654, 0.0005184750038231267, 0.0005077006438972131, 0.0004972592485416594, 0.00048713592172255904, 0.00047731667639339115, 0.00046778836625011033, 0.0004585386231495958, 0.0004495557997148403, 0.0004408289166888957, 0.0004323476146313454, 0.0004241021095865438, 0.00041608315238456095, 0.0004082819912586966, 0.0004006903374972892, 0.0003933003338652541, 0.0003861045255578177, 0.000379095833466625, 0.0003722675295592115, 0.00036561321418904225, 0.0003591267951700283, 0.00035280246846497443, 0.00034663470034812516, 0.0003406182109163547, 0.0003347479588366453, 0.00032901912721944315, 0.0003234271105323483, 0.0003179675024564954, 0.00031263608461451486, 0.00030742881609635564, 0.00030234182371446927, 0.00029737139293328774, 0.00029251395941443104, 0.0002877661011310706, 0.00028312453100570734, 0.0002785860900267889, 0.00027414774081324644, 0.0002698065615850398, 0.00026555974051489795, 0.00026140457042705956, 0.0002573384438214199, 0.0002533588481957172, 0.0002494633616471065, 0.00024564964872791917, 0.00024191545654400626, 0.00023825861107285018, 0.00023467701368762306], "model_weights": [0.5784630144135864, 0.4342794906557807, 0.43480697200337326, 0.5785394108437771, 0.2623782373453679, -0.02767951480378562, -0.028302037124889393, 0.26267584215787865, -0.12938143395594062, -0.12900898311257936, 0.7446745477177162, 0.10262148492972553, 0.1034816615066162, 0.7443817756776419, 1.1422663107561744, 1.1411861578470006, 0.0013771524750435865, 0.0005783696532420792, 0.0023210774405716516, -0.001571188359527094, -0.001494451277811718, 0.002024995001949076, 0.00027207010190936963, 0.0001350204175143601, -0.0015551929437748416, 0.0009302478291084329, -6.365954779402193e-07, 0.00048376868849820493, -0.0010596666937702655, -0.000998098992139545, 0.0021764529281482993, -0.00044364560121851497, 0.0007814492123659819, 0.0001483703792460036, -0.00023572268752865876, 0.0005204769480418718, 0.0005260503703460771, -0.0011924349230269147, -0.0008275835981370623, -0.0005889461645372276], "init_weights": [-0.00019121000911596534, 0.00017863451176975694, 0.000980541608679462, -0.0004077057399304481, 5.4616547423724196e-05, -7.810916697977436e-05, -0.0007427519048029067, 0.0006527889447575035, -0.0007280866714355423, -0.00040506824465821417, 0.00046477689824660033, 0.0017687379830841222, 0.0020833312308480077, 0.0006502147529921227, -0.0009732755722840777, -0.0011332972443624844, 0.0013771524750435865, 0.0005783696532420792, 0.0023210774405716516, -0.001571188359527094, -0.001494451277811718, 0.002024995001949076, 0.00027207010190936963, 0.0001350204175143601, -0.0015551929437748416, 0.0009302478291084329, -6.365954779402193e-07, 0.00048376868849820493, -0.0010596666937702655, -0.000998098992139545, 0.0021764529281482993, -0.00044364560121851497, 0.0007814492123659819, 0.0001483703792460036, -0.00023572268752865876, 0.0005204769480418718, 0.0005260503703460771, -0.0011924349230269147, -0.0008275835981370623, -0.0005889461645372276]},{"problem": "ToyProblem", "trial": 0, "n_qubits": 5, "ansatz": "2-layer HEA", "cost": "local", "optimizer": "SGD_lr=1", "error_threshold": 0.0016, "noise_model": null, "TTS": 1562.5134961605072, "STS": 221, "final_EAD": 0.001305214243152203, "EAD_history": [2.4920049812828284, 0.7356329777119053, 0.4116086625226722, 0.27053677887132216, 0.18770487285391182, 0.12671962334306017, 0.08292391920314127, 0.0652258900342353, 0.04669940241111773, 0.03217591031864734, 0.02572471955869408, 0.017447209140114054, 0.015002104710526487, 0.011626615867254879, 0.013559893172651171, 0.00883600932117485, 0.010003894866483268, 0.009654445995892734, 0.006938458057912867, 0.007654915517886557, 0.004108351507125273, 0.0055011072984547365, 0.005307816770799083, 0.005091973957889394, 0.004469504538742644, 0.003597100008101703, 0.00332172025832691, 0.005989612839566462, 0.0036679989346996406, 0.005409275053593991, 0.0042294744433176434, 0.0034219905610410645, 0.0033787688681130605, 0.0038326995444301513, 0.0024090968270605063, 0.0034230839730833417, 0.004021833429819566, 0.0038946230312513997, 0.0021391960428266163, 0.0037248669135266773, 0.0028372396740932353, 0.002685141649006977, 0.002970309100159341, 0.0030245005243873177, 0.001305214243152203], "cost_history": [0.49921212678197396, 0.3029878415044531, 0.1821295515148269, 0.11651020560923264, 0.08018360156999843, 0.060295392003870074, 0.048124906812711754, 0.03985225720179775, 0.03381320168323659, 0.029183958571411817, 0.025509719232544803, 0.022517503927569182, 0.020032396403728447, 0.017936338204618096, 0.01614625850051854, 0.014601704374792246, 0.013257455879456093, 0.01207890877959189, 0.011039071623376806, 0.010116545807721922, 0.009294127110176298, 0.008557813191433228, 0.007896083965490297, 0.007299369990862559, 0.006759653266482646, 0.006270163065531242, 0.005825141148252444, 0.005419658391073667, 0.005049470040035475, 0.004710900338765478, 0.0044007497503600335, 0.004116219740553595, 0.003854851344250898, 0.003614474649314192, 0.0033931670015654447, 0.003189218232397817, 0.0030011015831211685, 0.002827449281967098, 0.002667031944533993, 0.0025187411336158316, 0.0023815745424391466, 0.0022546233654465175, 0.002137061499751125, 0.0020281362831778282, 0.0019271605252718094, 0.0018335056284451978, 0.0017465956297897933, 0.0016659020214944142, 0.0015909392305587522, 0.0015212606574377396, 0.0014564551891622646, 0.0013961441158474863, 0.0013399783908044083, 0.0012876361840097883, 0.0012388206867742224, 0.001193258132267505, 0.00115069600233908, 0.001110901395915298, 0.0010736595383420977, 0.0010387724144532151, 0.0010060575109800407, 0.0009753466562941737, 0.0009464849473995729, 0.0009193297557140157, 0.0008937498044639947, 0.000869624311603201, 0.0008468421930023506, 0.000825301321376759, 0.0008049078369555263, 0.0007855755063604919, 0.0007672251265169461, 0.0007497839707101273, 0.0007331852741410128, 0.0007173677565255332, 0.0007022751794471538, 0.0006878559363067693, 0.0006740626728326538, 0.0006608519362268916, 0.000648183851109041, 0.0006360218205143098, 0.0006243322502902937, 0.0006130842953104287, 0.0006022496260053578, 0.0005918022137867407, 0.0005817181340198596, 0.0005719753852598264, 0.0005625537235606215, 0.0005534345107066629, 0.000544600575314913, 0.0005360360857994406, 0.0005277264342631316, 0.0005196581304457992, 0.0005118187049111267, 0.0005041966207117721, 0.0004967811928348054, 0.0004895625147661176, 0.0004825313915794993, 0.0004756792789819553, 0.0004689982278078264, 0.0004624808334841579, 0.00045612019003193893, 0.00044990984820075797, 0.0004438437773710002, 0.00043791633088613446, 0.00043212221450616983, 0.00042645645769867624, 0.0004209143875127386, 0.0004154916047982571, 0.0004101839625571535, 0.00040498754622853017, 0.0003998986557332551, 0.0003949137891138821, 0.0003900296276227455, 0.00038524302212378236, 0.00038055098068823234, 0.0003759506572706406, 0.0003714393413701278, 0.0003670144485788396, 0.0003626735119418578, 0.00035841417404813836, 0.00035423417979202343, 0.00035013136973433, 0.0003461036740144974, 0.0003421491067633342, 0.0003382657609656281, 0.0003344518037373678, 0.0003307054719749458, 0.0003270250683458653, 0.00032340895759086496, 0.00031985556310520913, 0.00031636336378015883, 0.00031293089107509164, 0.00030955672630800235, 0.0003062394981355743, 0.00030297788021654837, 0.00029977058903435383, 0.0002966163818701739, 0.0002935140549109594, 0.00029046244148489553, 0.0002874604104087797, 0.0002845068644423132, 0.00028160073883698455, 0.00027874099997704516, 0.0002759266440985897, 0.0002731566960866849, 0.0002704302083410548, 0.00026774625970582555, 0.00026510395445938917, 0.0002625024213582794, 0.0002599408127337277, 0.0002574183036325728, 0.00025493409100624254, 0.0002524873929354854, 0.0002500774479000656, 0.00024770351407471525, 0.0002453648686692178, 0.00024306080728853097, 0.00024079064333110134, 0.00023855370740794024, 0.00023634934679067632, 0.00023417692488253428, 0.00023203582071085194, 0.00022992542844363362, 0.00022784515692253482, 0.0002257944292167191, 0.00022377268219597735, 0.00022177936611572635, 0.00021981394422404543, 0.00021787589237959315, 0.00021596469868545576, 0.00021407986313659588, 0.00021222089727912508, 0.00021038732388439785, 0.0002085786766315434, 0.00020679449980370856, 0.00020503434799362674, 0.0002032977858198448, 0.0002015843876529977, 0.00019989373734918825, 0.00019822542799668996, 0.00019657906166636874, 0.00019495424917220783, 0.00019335060984099206, 0.00019176777128687705, 0.00019020536919511777, 0.00018866304711162574, 0.00018714045623874354, 0.00018563725523951247, 0.00018415311004599255, 0.00018268769367324467, 0.00018124068604119525, 0.00017981177379849944, 0.00017840065015567452, 0.00017700701472073144, 0.00017563057333885856, 0.00017427103794015464, 0.00017292812638797228, 0.00017160156233536616, 0.00017029107508187424, 0.000168996399437793, 0.00016771727559067307, 0.0001664534489757563, 0.00016520467015007645, 0.000163970694670168, 0.00016275128297427166, 0.00016154620026520572, 0.0001603552163998434, 0.00015917810577820157, 0.00015801464723863567, 0.0001568646239545335, 0.00015572782333178603, 0.00015460403691419655, 0.0001534930602861695, 0.00015239469298033992, 0.00015130873838853365, 0.00015023500367239428, 0.0001491732996806716, 0.0001481234408626242, 0.00014708524519030375, 0.00014605853407723135, 0.00014504313230356836], "model_weights": [0.6027129708026898, 0.4764071971343273, 0.42243808180623516, 0.48619501654022307, 0.6331348751480735, 0.20425593038539586, -0.06970278174872888, 0.08970005719622998, 0.17446592901876148, -0.06743644237644583, -0.15353007230352206, -0.13363246686247607, 0.01929466512036185, 0.7800044413122125, 0.06551993043420189, 0.12573028157554875, 0.10841843789434336, 1.1287407133662193, 1.0699260992212112, 0.9328378557271525, 0.9187961654327902, -0.0013220982302183295, 8.092517215777029e-05, -0.0005968757316460325, -0.0005056928498686561, -0.0006139737456453412, -0.000315842936849181, 0.0012095998747694726, 0.0007342776644745655, 0.00040320023502150783, -0.0005274009739451392, 0.0026836793462126918, -0.0010372641469771403, 6.884181650164631e-05, 0.0004612834892175287, -0.0011963408614934468, -6.961641065148304e-05, 0.00013787419989132717, 0.0013388583491067683, 0.0003883945789777532, -0.0009990584963292983, -0.001682115314057805, 0.0013916749759330877, -0.0004650587060385526, 9.035356181372894e-05, 0.0015299872823499195, -0.0005127727555941446, 0.0010672765431468524, -0.0015159121071266952, 0.0008003835115246024], "init_weights": [0.0007625371073891986, 0.0005892692341076438, -0.0007342566511544247, 0.0008989641039603025, 0.0004970261269787253, 0.0007813547178511188, 0.0007070552376589195, 0.00042944576129480793, 0.0012639952005848178, 0.0009711352106833573, 0.0004222564529995017, 0.0002692277488690621, 0.0013930498492992311, 0.0004805299110603667, -0.0002049364059304278, 0.0006635977077399782, -0.00047352088343792455, -0.0001449295428594987, -0.0012350033980207, -0.00011438865432776881, 0.000656344581693363, -0.0013220982302183295, 8.092517215777029e-05, -0.0005968757316460325, -0.0005056928498686561, -0.0006139737456453412, -0.000315842936849181, 0.0012095998747694726, 0.0007342776644745655, 0.00040320023502150783, -0.0005274009739451392, 0.0026836793462126918, -0.0010372641469771403, 6.884181650164631e-05, 0.0004612834892175287, -0.0011963408614934468, -6.961641065148304e-05, 0.00013787419989132717, 0.0013388583491067683, 0.0003883945789777532, -0.0009990584963292983, -0.001682115314057805, 0.0013916749759330877, -0.0004650587060385526, 9.035356181372894e-05, 0.0015299872823499195, -0.0005127727555941446, 0.0010672765431468524, -0.0015159121071266952, 0.0008003835115246024]},{"problem": "ToyProblem", "trial": 1, "n_qubits": 5, "ansatz": "2-layer HEA", "cost": "local", "optimizer": "SGD_lr=1", "error_threshold": 0.0016, "noise_model": null, "TTS": 3673.5462942123413, "STS": 346, "final_EAD": 0.0013139662482594477, "EAD_history": [2.5150860290877834, 0.7365227977507812, 0.41708209254592266, 0.2743840812101162, 0.1804724759536428, 0.12224602886832887, 0.09237864674525878, 0.06044543682623041, 0.04509356734411357, 0.036378168411088624, 0.022825049858650498, 0.01740313514950957, 0.014700566022952688, 0.012685824013247818, 0.01516202217961319, 0.0077663031623658434, 0.008411486314928105, 0.007572196595248434, 0.007109348141012142, 0.007592126655379883, 0.006612135138394433, 0.004756013228673102, 0.005527541703136385, 0.0070886398980767856, 0.006228223778457927, 0.0037048465592455144, 0.004973282791616093, 0.004419733793334869, 0.005520839162223893, 0.0035477415065472903, 0.004009803403980513, 0.005609844578548427, 0.003370812223024871, 0.004094943486358383, 0.00416497473000931, 0.004207491903095081, 0.0030678432639079335, 0.0021478314546045187, 0.004791952932838683, 0.003153142799143283, 0.004385291263778128, 0.002781423975222163, 0.003249896871152169, 0.0034231054990210004, 0.002535225586525599, 0.0032338595090525076, 0.0032290480831009506, 0.0023349115559760866, 0.003577108496870761, 0.0025629028395697667, 0.002325541809679644, 0.002358733753885372, 0.0032669331533466297, 0.0029138433101090766, 0.0021429910301829585, 0.002598413594585169, 0.0027181844850127793, 0.002981695704192397, 0.001709959777529098, 0.002390709715152222, 0.0019173446891374054, 0.0029521752144470908, 0.0025362502194837756, 0.0020176898017064443, 0.0030649661822635937, 0.0029339961426315475, 0.002742268109511098, 0.003006187436979696, 0.0020048922020907346, 0.0013139662482594477], "cost_history": [0.4992220287820535, 0.3029449948361035, 0.18187251516837744, 0.11615784892082776, 0.07990707583967377, 0.060102405868744435, 0.04798616242254172, 0.039747985111542095, 0.03373190771662321, 0.029118765221071652, 0.025456290501513767, 0.022472962360762183, 0.019994745051927276, 0.01790413836539645, 0.016118441346283763, 0.0145774557246805, 0.013236142736787915, 0.012060030744747818, 0.011022227705314247, 0.010101411102636071, 0.009280435999007186, 0.008545346961843114, 0.007884661509420132, 0.00728884068615282, 0.006749891439711719, 0.006261063620103979, 0.005816616065501268, 0.0054116338957053145, 0.005041884278724207, 0.004703701460809617, 0.004393894307740676, 0.004109671345106425, 0.0038485795344118112, 0.00360845392971898, 0.0033873760267653097, 0.0031836391118901797, 0.002995719289387744, 0.0028222511465942346, 0.0026620072300869713, 0.0025138806709594785, 0.0023768704247635886, 0.0022500686915149504, 0.0021326501598779024, 0.0020238627822858346, 0.0019230198380433272, 0.0018294930821727284, 0.0017427068110157928, 0.0016621327029786026, 0.001587285315480802, 0.0015177181380976457, 0.0014530201177513913, 0.0013928125851409567, 0.001336746522897947, 0.0012845001254472854, 0.0012357766086427135, 0.001190302234035323, 0.0011478245183859093, 0.001108110603879775, 0.0010709457685542656, 0.0010361320598542, 0.0010034870370511095, 0.000972842610618252, 0.0009440439685739488, 0.000916948581403898, 0.000891425278459812, 0.0008673533897967101, 0.0008446219482391992, 0.0008231289471909986, 0.0008027806502063362, 0.0007834909488270148, 0.000765180765514295, 0.0007477774988086106, 0.0007312145080733967, 0.000715430635371439, 0.000700369762186126, 0.000685980398829722, 0.0006722153044998458, 0.0006590311360514245, 0.0006463881236443147, 0.0006342497715179363, 0.0006225825822261943, 0.0006113558027476818, 0.0006005411909671965, 0.0005901128010934453, 0.0005800467866632353, 0.0005703212198474028, 0.0005609159258508911, 0.000551812331265833, 0.000542993325308494, 0.0005344431329357135, 0.0005261471989003175, 0.0005180920818700918, 0.0005102653577883087, 0.0005026555317222403, 0.0004952519574827341, 0.0004880447643728636, 0.0004810247904479259, 0.0004741835217373369, 0.00046751303690345525, 0.0004610059568717073, 0.0004546553989850377, 0.0004484549352923861, 0.0004423985545901621, 0.00043648062789269915, 0.0004306958770133318, 0.0004250393459789281, 0.00041950637501741994, 0.0004140925768856829, 0.0004087938153214954, 0.00040360618542428783, 0.00039852599578810155, 0.00039354975222438693, 0.0003886741429253715, 0.00038389602493921204, 0.0003792124118306983, 0.0003746204624195948, 0.0003701174704958121, 0.00036570085542464437, 0.0003613681535499236, 0.00035711701033380727, 0.0003529451731552058, 0.0003488504847113383, 0.00034483087696285386, 0.00034088436557794255, 0.0003370090448249208, 0.0003332030828739896, 0.0003294647174717502, 0.0003257922519547818, 0.0003221840515698071, 0.0003186385400741898, 0.00031515419659372546, 0.00031172955271074887, 0.00030836318976584787, 0.00030505373635436595, 0.0003017998659964882, 0.0002986002949730282, 0.00029545378030598757, 0.00029235911787661717, 0.0002893151406661576, 0.0002863207171111548, 0.0002833747495633032, 0.000280476172844657, 0.0002776239528918256, 0.00027481708548021677, 0.0002720545950250508, 0.00026933553345082073, 0.00026665897912236947, 0.0002640240358396384, 0.00026142983188215396, 0.0002588755191079706, 0.0002563602720980773, 0.0002538832873437702, 0.0002514437824761018, 0.0002490409955336337, 0.0002466741842633846, 0.00024434262545580676, 0.00024204561431229177, 0.00023978246383898894, 0.0002375525042691562, 0.0002353550825099915, 0.00023318956161527682, 0.00023105532027745124, 0.00022895175234344256, 0.00022687826634920638, 0.00022483428507297232, 0.00022281924510786366, 0.0002208325964478397, 0.00021887380209389962, 0.0002169423376719437, 0.00021503769106667736, 0.00021315936206872665, 0.00021130686203424398, 0.0002094797135571147, 0.00020767745015354278, 0.00020589961595635087, 0.00020414576542121532, 0.00020241546304189395, 0.00020070828307633404, 0.00019902380928149555, 0.00019736163465661205, 0.00019572136119538897, 0.00019410259964725007, 0.00019250496928330252, 0.00019092809767423669, 0.00018937162047100164, 0.0001878351811964718, 0.00018631843103922296, 0.0001848210286580776, 0.00018334263998975864, 0.0001818829380634268, 0.00018044160282149058, 0.0001790183209442464, 0.00017761278568134697, 0.00017622469668787666, 0.00017485375986470153, 0.00017349968720292708, 0.00017216219663707122, 0.00017084101189557277, 0.0001695358623616805, 0.00016824648293600752, 0.00016697261390130613, 0.00016571400079617993, 0.0001644703942850212, 0.00016324155003838436, 0.00016202722861374808, 0.00016082719533838663, 0.00015964122019901383, 0.00015846907773003904, 0.00015731054690948376, 0.00015616541105417658, 0.00015503345771811228, 0.0001539144785979718, 0.00015280826943431247, 0.00015171462992019658, 0.00015063336361176294, 0.00014956427783879844, 0.00014850718362013904, 0.0001474618955808471, 0.00014642823186977738, 0.0001454060140815283, 0.00014439506717944806, 0.000143395219420972, 0.00014240630228390394, 0.00014142815039552836, 0.0001404606014638876, 0.0001395034962095587, 0.0001385566783003167, 0.00013761999428707483, 0.0001366932935406573, 0.0001357764281917362, 0.00013486925307026887, 0.00013397162564882104, 0.00013308340598588986, 0.0001322044566693381, 0.0001313346427642692, 0.00013047383176006955, 0.0001296218935193938, 0.0001287787002270946, 0.0001279441263436487, 0.00012711804855569664, 0.0001263003457310785, 0.00012549089887220477, 0.00012468959107325706, 0.0001238963074763344, 0.0001231109352290427, 0.00012233336344458223, 0.0001215634831605028, 0.00012080118729912437, 0.00012004637063184331, 0.00011929892973816525, 0.00011855876297145462, 0.00011782577042379616, 0.0001170998538888024, 0.00011638091683024987, 0.00011566886434671853, 0.00011496360313983933, 0.00011426504148365213, 0.00011357308919157649, 0.00011288765758754593, 0.00011220865947647596, 0.00011153600911378847, 0.00011086962217865537, 0.00011020941574652054, 0.00010955530825956794, 0.00010890721950340687, 0.00010826507057964951, 0.00010762878388032027, 0.00010699828306343084, 0.00010637349302955457, 0.00010575433989723493, 0.000105140750980115, 0.00010453265476384477, 0.00010392998088554206, 0.00010333266010947861, 0.00010274062430909447, 0.00010215380644285066, 0.0001015721405366321, 0.00010099556166281998, 0.00010042400592036316, 9.98574104161265e-05, 9.92957132477379e-05, 9.873885348232747e-05, 9.818677114181718e-05, 9.763940718221509e-05, 9.709670348029276e-05, 9.655860281410078e-05, 9.602504884637098e-05, 9.549598611052756e-05, 9.497135999353423e-05, 9.445111672046203e-05, 9.393520334005645e-05, 9.342356770952742e-05, 9.29161584803384e-05, 9.241292508349597e-05, 9.191381771594953e-05, 9.141878732754627e-05, 9.092778560748638e-05, 9.044076497011222e-05, 8.995767854375059e-05, 8.947848015694593e-05, 8.900312432674751e-05, 8.853156624688552e-05, 8.806376177544761e-05, 8.759966742377667e-05, 8.713924034436937e-05, 8.668243832016254e-05, 8.622921975509623e-05, 8.57795436607911e-05, 8.533336964755556e-05, 8.489065791422723e-05, 8.44513692377924e-05, 8.401546496389356e-05, 8.358290699589377e-05, 8.315365778704953e-05, 8.272768033068534e-05, 8.230493815014617e-05, 8.18853952910259e-05, 8.14690163116194e-05, 8.105576627498445e-05, 8.06456107398934e-05, 8.023851575283958e-05, 7.983444783993265e-05, 7.9433373998683e-05, 7.903526169023012e-05, 7.864007883223723e-05, 7.824779379062008e-05, 7.78583753726636e-05, 7.747179281919481e-05, 7.708801579786595e-05, 7.670701439677075e-05, 7.632875911595116e-05, 7.595322086295653e-05, 7.55803709432401e-05, 7.521018105732802e-05, 7.484262329116032e-05, 7.447767011165007e-05, 7.41152943606882e-05, 7.375546924742737e-05, 7.339816834461832e-05, 7.304336558128233e-05, 7.269103523721565e-05, 7.234115193816004e-05, 7.19936906491414e-05, 7.1648626670473e-05, 7.130593563131615e-05, 7.096559348496179e-05], "model_weights": [0.6081736011719276, 0.4724172217998658, 0.419656589957117, 0.481521417375285, 0.6327110002566873, 0.19373647666750915, -0.09452094124418269, 0.06588990580477477, 0.14976037056457897, -0.03233678431923911, -0.12734017122639807, -0.09998443126702104, 0.00424682851756064, 0.7853117679414487, 0.03767222137481509, 0.10096752437299333, 0.09144720157132251, 1.15575649407962, 1.0990610961909761, 0.9497329880464896, 0.9324192374845459, 0.00040029249811766193, -0.0009563574703840852, 0.0015709918995783574, -0.002259111281567833, -0.0011970238379655827, -0.0007776526929482072, 0.0007816933576788015, -0.00043953966062151796, -0.00010561732889541877, 0.0004422835661781403, 0.0022329109571370027, -0.001368410020366543, 0.0013597868229398738, -0.0005637985887718242, 0.0009470860681765294, -0.0013673665756961952, 0.0002145072984466888, -0.00014262393452280162, 1.202694859424669e-05, 0.000700295616322428, -0.001200825854862529, -0.00025977975825811127, -0.0015889647325452781, 0.0005797037378196095, 0.0005823076926573357, 0.00030822600761856684, -0.00012953064222644454, -0.0012252395446852335, -0.000645385961360282], "init_weights": [0.00041378067991627176, 0.0008298584112617516, 0.0020751664875542056, 1.223205132241805e-05, 0.0011366198204236589, 0.0008052999528582261, -0.002367075835325677, 0.0012062727429821628, -0.0010875752945803381, 0.0012372400248804203, 0.00035646756430022505, -0.0010405917602313442, 0.00024190252334334083, 0.0010614949424217056, 0.0022694133520963127, -0.00017307847355122797, -0.0008840377010663958, 0.0004585588126285126, -0.0005164927575771395, 0.0007419433415786631, 0.0010023590083148744, 0.00040029249811766193, -0.0009563574703840852, 0.0015709918995783574, -0.002259111281567833, -0.0011970238379655827, -0.0007776526929482072, 0.0007816933576788015, -0.00043953966062151796, -0.00010561732889541877, 0.0004422835661781403, 0.0022329109571370027, -0.001368410020366543, 0.0013597868229398738, -0.0005637985887718242, 0.0009470860681765294, -0.0013673665756961952, 0.0002145072984466888, -0.00014262393452280162, 1.202694859424669e-05, 0.000700295616322428, -0.001200825854862529, -0.00025977975825811127, -0.0015889647325452781, 0.0005797037378196095, 0.0005823076926573357, 0.00030822600761856684, -0.00012953064222644454, -0.0012252395446852335, -0.000645385961360282]},{"problem": "ToyProblem", "trial": 2, "n_qubits": 5, "ansatz": "2-layer HEA", "cost": "local", "optimizer": "SGD_lr=1", "error_threshold": 0.0016, "noise_model": null, "TTS": 640.5669901371002, "STS": 76, "final_EAD": 0.0014088092395756215, "EAD_history": [2.506771297380046, 1.0581949318835853, 0.4074192930393523, 0.07219365694472198, 0.02503180817320769, 0.014892283826403837, 0.007967563996422464, 0.006045601179378041, 0.005679222178515012, 0.0036641679793263503, 0.003003391636521884, 0.004511191950702274, 0.002888178938784754, 0.003919801744052929, 0.002289980613720477, 0.0014088092395756215], "cost_history": [0.49985541279217577, 0.3071162808253521, 0.21677495988498335, 0.18976104955501105, 0.17440577736757112, 0.16217071474271627, 0.15102511342108765, 0.1400078434124839, 0.1284219599785787, 0.11561075997744863, 0.10090481456555939, 0.08377922883938366, 0.06447867037524946, 0.04518381999809262, 0.02985935816868701, 0.020377670633943357, 0.015002333446938465, 0.011776931621735487, 0.009688081605222165, 0.008242644650315933, 0.00718518823869041, 0.006375348834303629, 0.005731769749914795, 0.005204931550045699, 0.004763326789603228, 0.004386094307392008, 0.004058920025453494, 0.003771661884857447, 0.0035169227513293655, 0.0032891645414716564, 0.0030841420346582327, 0.00289853134625373, 0.0027296801994328157, 0.0025754362920704654, 0.002434026861908578, 0.0023039725099515684, 0.002184024387668959, 0.0020731176062861456, 0.001970336102870729, 0.001874885730304754, 0.0017860733431737663, 0.0017032903208875072, 0.0016259994217508456, 0.0015537241718034944, 0.001486040207642092, 0.0014225681440215854, 0.0013629676450610528, 0.0013069324557727358, 0.0012541862075303167, 0.0012044788530449768, 0.0011575836178275845, 0.001113294378718599, 0.0010714233981701793, 0.0010317993568454975, 0.0009942656379262615, 0.000958678825005943, 0.0009249073821805953, 0.0008928304902973694, 0.000862337017672743, 0.0008333246070457712, 0.0008056988634338458, 0.0007793726298662706, 0.0007542653399304489, 0.0007303024376553724, 0.0007074148566261207, 0.0006855385513049872, 0.0006646140745379392, 0.0006445861959825661, 0.0006254035569049354, 0.0006070183573528842, 0.0005893860722345767, 0.0005724651932393354, 0.0005562169939150596, 0.0005406053155303514, 0.0005255963716362388, 0.0005111585694601573], "model_weights": [-0.598490344414109, -0.4532805337980849, -0.3847897174238009, -0.4668965595192656, -0.6132230709878765, -0.1964224869605746, 0.08045548416059957, -0.07114097387294863, -0.15812683199671357, 0.034368156968161714, 0.11224934457995374, 0.08940181722872832, -0.0077897852187267455, -0.7906621793168915, -0.07699364940319317, -0.11165052065066322, -0.09401623023238552, -1.1312428970491715, -1.108175810884035, -0.9453131227832368, -0.949472259460556, 0.00011573421169251184, -0.0016489634281410305, -0.00013352227843110303, 0.0008018972231715177, -0.0021113503692784742, 0.000710364850430858, -0.00013207386009227246, -0.0002813150849576903, -0.001007209933486443, -0.0007179932799052497, -0.00016470491341553443, 0.001908729396975777, -0.0003902391406747156, -0.0009522941456217843, -7.105171504835814e-05, -0.00020466138235175453, -0.0010029267020385422, -0.0001362939537767328, 0.0018581446377086757, -0.00010792833599180968, 0.0005545073077483009, -0.00035016387603193093, 0.0020293358251443376, -0.0005127261328754896, 0.0019041201489678715, -0.00045777390680081344, -0.0020407576635904983, -0.0005623422174459623, 0.000320470281783141], "init_weights": [0.00039809101146422144, -0.0008121120624651707, -0.0020082255218299414, 0.0007838967571616068, -0.0006790875796831616, 0.0005877902377611589, 0.00019382016073515976, -7.65830901409223e-05, -0.0008052136297756467, 0.0003611112385945118, -0.000664206357237528, -7.328698153011451e-05, -0.00041208198624584396, -3.942846928359132e-05, 0.0011932403404894178, -0.00038841390998973964, 0.0005009654446618648, 0.0014415464120551323, 0.0008446813686867512, -0.001396832621286974, -0.0003955423668130719, 0.00011573421169251184, -0.0016489634281410305, -0.00013352227843110303, 0.0008018972231715177, -0.0021113503692784742, 0.000710364850430858, -0.00013207386009227246, -0.0002813150849576903, -0.001007209933486443, -0.0007179932799052497, -0.00016470491341553443, 0.001908729396975777, -0.0003902391406747156, -0.0009522941456217843, -7.105171504835814e-05, -0.00020466138235175453, -0.0010029267020385422, -0.0001362939537767328, 0.0018581446377086757, -0.00010792833599180968, 0.0005545073077483009, -0.00035016387603193093, 0.0020293358251443376, -0.0005127261328754896, 0.0019041201489678715, -0.00045777390680081344, -0.0020407576635904983, -0.0005623422174459623, 0.000320470281783141]},{"problem": "ToyProblem", "trial": 3, "n_qubits": 5, "ansatz": "2-layer HEA", "cost": "local", "optimizer": "SGD_lr=1", "error_threshold": 0.0016, "noise_model": null, "TTS": 2320.4592640399933, "STS": 326, "final_EAD": 0.001302459839541274, "EAD_history": [2.488318147119187, 0.7273346249279654, 0.4117619885003424, 0.2713889153060648, 0.18051223356320364, 0.1229057723466746, 0.08527799876604883, 0.060469128331692344, 0.05034655993632393, 0.028441621189043476, 0.027617128584642908, 0.019933618136692723, 0.01649150011596082, 0.01323760961040479, 0.009367184656489782, 0.008823852914156912, 0.008430007145925358, 0.006792960199273949, 0.007114987453650954, 0.005628712497041282, 0.0047752657424514995, 0.006679471456771216, 0.006427782028288935, 0.0035804562222912072, 0.004413453941907394, 0.004658779544937317, 0.004108323744772518, 0.004175241028339199, 0.003941395547368032, 0.004607477520229543, 0.0029226930754350537, 0.0034727772291458037, 0.0043781176400254215, 0.0027786948954352567, 0.003809003356666354, 0.002967249088767308, 0.003644250280090827, 0.004014748363943035, 0.0030105990015806246, 0.004411155177625886, 0.003386209360551722, 0.004558547601809025, 0.0023960409046481553, 0.0033309500513272884, 0.0022005641012528476, 0.002290856774745861, 0.0038492130553866486, 0.004097560892224045, 0.0035614279575080982, 0.0024758139052085174, 0.0016815829901632086, 0.0033008181306413992, 0.0026334788474867924, 0.0023921162271463886, 0.003156622885984663, 0.002328255773036024, 0.0023907831848937054, 0.002633724472736388, 0.0024741303980787, 0.002772991899944647, 0.00215106745209364, 0.0016098063064869112, 0.0019156278559064994, 0.0018954875470960897, 0.0022883948325681286, 0.001302459839541274], "cost_history": [0.49969052744516906, 0.303374085398156, 0.18226594577125532, 0.1164920673175226, 0.08011470976510654, 0.06022433657876641, 0.04806235438639289, 0.03979886682143807, 0.03376769042047856, 0.02914488405813459, 0.025475852627001694, 0.022487869713448905, 0.020006235735937183, 0.017913062113630085, 0.016125407354612264, 0.014582916186548334, 0.01324044242076483, 0.012063437815749867, 0.011024953738669574, 0.0101036246200219, 0.00928227197444198, 0.008546913731154016, 0.007886045949610399, 0.007290112203928223, 0.006751105114154998, 0.006262262726054679, 0.00581783413036574, 0.005412896395394995, 0.005043210047886715, 0.004705103872326699, 0.004395382262842362, 0.0041112501060457385, 0.0038502514250385866, 0.003610218924472497, 0.0033892322450260193, 0.003185583231879008, 0.0029977468936108753, 0.0028243570090598635, 0.002664185554042464, 0.002516125284647508, 0.002379174941626816, 0.0022524266403521898, 0.0021350550896656606, 0.002026308345675354, 0.0019254998569581683, 0.0018320015984072957, 0.001745238124302828, 0.0016646813986057052, 0.001589846283226115, 0.001520286583973296, 0.0014555915698153954, 0.001395382894452013, 0.0013393118605069532, 0.0012870569762044037, 0.0012383217624643006, 0.001192832775183117, 0.0011503378132355357, 0.0011106042875720368, 0.001073417730874271, 0.0010385804306220492, 0.0010059101712718288, 0.0009752390735888739, 0.0009464125211252616, 0.0009192881654102036, 0.000893735002737206, 0.0008696325164723184, 0.0008468698796743612, 0.0008253452134979744, 0.0008049648974089441, 0.0007856429276807964, 0.0007673003210049156, 0.000749864560329605, 0.0007332690802760444, 0.0007174527896823268, 0.000702359628967697, 0.0006879381601652135, 0.0006741411875784697, 0.0006609254071233139, 0.0006482510825187027, 0.0006360817465704272, 0.0006243839258867623, 0.0006131268874364215, 0.0006022824054448539, 0.0005918245472006367, 0.0005817294764131065, 0.0005719752728484684, 0.0005625417670278021, 0.0005534103888547581, 0.0005445640291024678, 0.0005359869127555816, 0.0005276644832704069, 0.0005195832968779568, 0.0005117309261113978, 0.0005040958717993371, 0.0004966674828240092, 0.0004894358829817258, 0.00048239190435173107, 0.00047552702660674795, 0.0004688333217577334, 0.00046230340385111646, 0.0004559303831893624, 0.0004497078246702424, 0.00044362970987843475, 0.00043769040259383774, 0.00043188461740978346, 0.0004262073911750486, 0.00042065405700725256, 0.00041522022064122144, 0.0004099017388986548, 0.00040469470008175357, 0.00039959540611961275, 0.000394600356296404, 0.00038970623242545743, 0.00038490988532652315, 0.00038020832249080483, 0.00037559869682129987, 0.000371078296348748, 0.0003666445348357583, 0.0003622949431813516, 0.0003580271615565289, 0.0003538389322020885, 0.0003497280928252411, 0.0003456925705455083, 0.00034173037633145054, 0.0003378395998920314, 0.00033401840497332413, 0.0003302650250308625, 0.000326577759236113, 0.0003229549687954747, 0.0003193950735453921, 0.0003158965488069265, 0.0003124579224684787, 0.00030907777228539324, 0.0003057547233707991, 0.0003024874458628646, 0.0002992746527574752, 0.00029611509788368684, 0.00029300757401923283, 0.0002899509111277121, 0.0002869439747122948, 0.00028398566426846017, 0.00028107491184031774, 0.00027821068065830845, 0.00027539196386516807, 0.0002726177833095589, 0.000269887188414919, 0.0002671992551092628, 0.00026455308481543316, 0.0002619478034945888, 0.0002593825607430933, 0.0002568565289333691, 0.0002543689024011031, 0.00025191889667181, 0.00024950574772691914, 0.0002471287113023912, 0.00024478706222369473, 0.0002424800937702032, 0.00024020711706723707, 0.00023796746050847029, 0.00023576046920087412, 0.00023358550443430826, 0.00023144194317487043, 0.00022932917757811921, 0.00022724661452250272, 0.00022519367516177224, 0.00022316979449604757, 0.0002211744209578148, 0.0002192070160160764, 0.00021726705379382372, 0.00021535402070027576, 0.0002134674150784388, 0.00021160674686276915, 0.00020977153725121322, 0.0002079613183890161, 0.00020617563306202236, 0.0002044140344011347, 0.00020267608560020633, 0.00020096135963809658, 0.0001992694390138272, 0.00019759991548984335, 0.0001959523898441562, 0.00019432647162853645, 0.00019272177893780995, 0.0001911379381832612, 0.00018957458387602877, 0.00018803135841527485, 0.00018650791188534743, 0.00018500390185588467, 0.00018351899319163367, 0.00018205285786621062, 0.00018060517478152294, 0.00017917562959257616, 0.00017776391453960816, 0.00017636972828211084, 0.000174992775738958, 0.00017363276793558313, 0.00017228942185126828, 0.0001709624602753701, 0.00016965161166360154, 0.00016835661000169644, 0.00016707719467123905, 0.0001658131103198235, 0.00016456410673471034, 0.00016332993872086865, 0.00016211036598035022, 0.00016090515299727048, 0.00015971406892612006, 0.0001585368874794657, 0.00015737338682453306, 0.0001562233494771803, 0.00015508656220203365, 0.00015396281591434358, 0.00015285190558433914, 0.00015175363014435783, 0.00015066779239913952, 0.00014959419893589843, 0.00014853266004111187, 0.0001474829896148666, 0.0001464450050912558, 0.00014541852735822092, 0.00014440338068122394, 0.00014339939262725254, 0.00014240639399321076, 0.00014142421873286626, 0.00014045270388896025, 0.00013949168952437363, 0.00013854101865690138, 0.00013760053719480414, 0.00013667009387435813, 0.00013574954019884844, 0.00013483873037817284, 0.00013393752127155434, 0.00013304577233097525, 0.0001321633455456661, 0.0001312901053887594, 0.00013042591876288867, 0.00012957065495217135, 0.00012872418556941767, 0.00012788638450861312, 0.00012705712789690127, 0.00012623629404862058, 0.00012542376341895256, 0.00012461941856040104, 0.0001238231440806037, 0.00012303482659742349, 0.00012225435470081258, 0.00012148161891067932, 0.00012071651163730879, 0.00011995892714528056, 0.0001192087615141113, 0.00011846591260178396, 0.00011773028000944263, 0.00011700176504736426, 0.00011628027069865432, 0.00011556570158888224, 0.00011485796394988812, 0.0001141569655922492, 0.00011346261587019679, 0.00011277482565397179, 0.00011209350729868284, 0.0001114185746165508, 0.00011074994284682171, 0.0001100875286295655, 0.00010943124997764286, 0.00010878102625078157, 0.00010813677812948619, 0.00010749842758972505, 0.00010686589787733958, 0.00010623911348561776, 0.00010561800012920397, 0.00010500248472294915, 0.00010439249535848516, 0.00010378796128140966, 0.00010318881287085802, 0.00010259498161685476, 0.000102006400099941, 0.00010142300197224507, 0.0001008447219355002, 0.00010027149572278127, 9.97032600789649e-05, 9.913995274196674e-05, 9.858151242503332e-05, 9.802787879903407e-05, 9.747899247297687e-05, 9.693479497968616e-05, 9.639522875687367e-05, 9.58602371320949e-05, 9.532976430498552e-05, 9.480375533421626e-05, 9.428215611823054e-05, 9.376491338436432e-05, 9.325197467013879e-05, 9.274328831199163e-05, 9.223880342856816e-05, 9.173846990873091e-05, 9.124223839623857e-05, 9.075006027786658e-05, 9.026188766930732e-05, 8.97776734024025e-05, 8.929737101326385e-05, 8.882093472978303e-05, 8.834831945853105e-05, 8.78794807739891e-05, 8.74143749069467e-05, 8.695295873295539e-05, 8.649518976050485e-05, 8.604102612108644e-05, 8.55904265575913e-05, 8.514335041509558e-05, 8.469975762953608e-05, 8.425960871732974e-05, 8.38228647659367e-05, 8.338948742503405e-05, 8.29594388955801e-05, 8.253268192170982e-05, 8.210917977979904e-05, 8.168889627152565e-05, 8.127179571454368e-05, 8.085784293226927e-05, 8.044700324799647e-05, 8.003924247368399e-05, 7.963452690501471e-05, 7.923282331068204e-05, 7.883409892528448e-05, 7.843832144288632e-05, 7.804545900824689e-05], "model_weights": [0.6063879487668693, 0.4712033665080266, 0.4197382771982475, 0.48275310865890664, 0.6333646691584461, 0.1949344601406231, -0.09117040888252488, 0.068971632541658, 0.15336077173106705, -0.03658746617457307, -0.13072052497834843, -0.10437569202988561, 0.0061032026427086765, 0.7857769578962338, 0.03877017312883205, 0.10664744798165302, 0.09381145245672111, 1.1560494176210663, 1.0933997705541127, 0.9464558635335035, 0.9301241584203526, 0.0003474703979517407, -0.00019197872131387884, -0.000647012015028635, -0.0001793594105660717, -0.00015646355311550882, -0.0011646122941926806, -0.001335370501577098, 0.0016420675170727963, 0.0010137218965327608, 0.0006877851734963544, -7.751134593866412e-05, -0.001324157504740217, 0.000748898464737296, 0.0014321823374557274, 0.0013309762750977948, -0.0013217251573450343, 0.0015764170280113498, -0.0021049730299469364, 7.468879302548762e-05, -0.0018046238726733839, -0.0011091376891274683, -0.0001672081534945787, 0.0002933910562791842, 0.000702726913778767, 0.0015557154707389915, 0.0009176209882588607, -0.001137898513759118, 0.0005031430915998825, -0.0007188702609695433], "init_weights": [-0.001302915178747612, 0.0004683498274182742, 0.0003281769413108584, 0.0008446122903896939, 0.001813788947323421, 0.00032830612119215863, 0.000557652234675091, -0.0001750871551897196, -0.0012525426893923077, 0.0009236762160667555, 0.0008850360645834854, -0.0015398029724291373, -0.00012652083514371384, -0.0010956994355485236, -0.00022225422854724964, 0.0007327531755274696, 0.000549244898636506, 0.0009918651206452646, -0.000673165318593031, 0.0009731274559834617, 8.613258832166333e-05, 0.0003474703979517407, -0.00019197872131387884, -0.000647012015028635, -0.0001793594105660717, -0.00015646355311550882, -0.0011646122941926806, -0.001335370501577098, 0.0016420675170727963, 0.0010137218965327608, 0.0006877851734963544, -7.751134593866412e-05, -0.001324157504740217, 0.000748898464737296, 0.0014321823374557274, 0.0013309762750977948, -0.0013217251573450343, 0.0015764170280113498, -0.0021049730299469364, 7.468879302548762e-05, -0.0018046238726733839, -0.0011091376891274683, -0.0001672081534945787, 0.0002933910562791842, 0.000702726913778767, 0.0015557154707389915, 0.0009176209882588607, -0.001137898513759118, 0.0005031430915998825, -0.0007188702609695433]},{"problem": "ToyProblem", "trial": 4, "n_qubits": 5, "ansatz": "2-layer HEA", "cost": "local", "optimizer": "SGD_lr=1", "error_threshold": 0.0016, "noise_model": null, "TTS": 1856.9859759807587, "STS": 306, "final_EAD": 0.0013479701842330882, "EAD_history": [2.4742353490195805, 0.7144336735561709, 0.41470835510458454, 0.2756511282672339, 0.18738228368634838, 0.1274645504339598, 0.09580898055823132, 0.06619703509950316, 0.04400359661962336, 0.03113469714095298, 0.023186397065027804, 0.018713205342990737, 0.01339420528648055, 0.012562125428377596, 0.012650542355966587, 0.008665110640266092, 0.010477511585209955, 0.00628281526951783, 0.008553082170579698, 0.006721513181218231, 0.008406912082036292, 0.007099649492910774, 0.005342756742680682, 0.004188855820032176, 0.006537433056297383, 0.004546924728753339, 0.004193768199489068, 0.0042737257872381635, 0.003480784517458402, 0.004849301443231719, 0.003638097139368296, 0.004212096957831177, 0.0031634533758771633, 0.002068261173112985, 0.0033415006117846627, 0.0018057171411921193, 0.003973277768998972, 0.003427024494687211, 0.0038395266823638796, 0.002789665942340999, 0.0026920049014334626, 0.00238060950845854, 0.0036356289158622065, 0.0023004044509380155, 0.002357123395263579, 0.0023020839347345817, 0.002710811960347168, 0.0025731714105376386, 0.002897673205265072, 0.0020413567276388175, 0.00386187608449994, 0.0018270637646462605, 0.002972311845548093, 0.0028102769467356005, 0.0030705000887246473, 0.00251241133265209, 0.0020247032020047477, 0.0026493974863893823, 0.0016855255308291439, 0.0028936222745766507, 0.002993784813964051, 0.0013479701842330882], "cost_history": [0.49950130182297325, 0.30317121281268467, 0.18204846788748824, 0.11633811367737329, 0.0800305065791862, 0.060178779429224505, 0.048035786441996464, 0.03978237816017133, 0.033756978582139885, 0.029137653996224366, 0.02547077452591595, 0.022484122353137292, 0.020003288313347467, 0.017910561446851103, 0.016123115145553202, 0.014580671735260897, 0.013238139145881234, 0.012061007728365936, 0.011022356753243312, 0.010100840950624024, 0.009279296582312135, 0.008543752186097098, 0.007882711297062472, 0.007286622567510559, 0.0067474818494605016, 0.0062585289964994795, 0.00581401381214508, 0.005409013242894611, 0.00503928706755602, 0.004701162864674868, 0.0043914435005340535, 0.004107332122173402, 0.0038463708902278793, 0.003606390595030373, 0.0033854689671857785, 0.003181895989522898, 0.002994144888809558, 0.0028208477664641296, 0.0026607750416159925, 0.002512818044520637, 0.002375974225975852, 0.0022493345481987004, 0.0021320727013525165, 0.002023435852533395, 0.0019227366843108107, 0.0018293465206185022, 0.0017426893710238978, 0.0016622367517672432, 0.001587503164615478, 0.0015180421334962668, 0.0014534427147213091, 0.001393326409945661, 0.0013373444222700703, 0.0012851752054182652, 0.0012365222639556528, 0.0011911121693427562, 0.001148692762339809, 0.0011090315171338183, 0.0010719140466119992, 0.0010371427316047122, 0.0010045354597587597, 0.0009739244620373677, 0.0009451552367925609, 0.0009180855529402066, 0.0008925845250735143, 0.0008685317543997151, 0.0008458165302540621, 0.0008243370876264144, 0.0008039999166966072, 0.0007847191208205095, 0.000766415819770605, 0.0007490175953239753, 0.0007324579765285444, 0.0007166759621729524, 0.0007016155781481292, 0.000687225467524144, 0.0006734585112957991, 0.000660271477840646, 0.0006476246992538348, 0.0006354817727882156, 0.0006238092857407951, 0.0006125765621852741, 0.0006017554300489225, 0.0005913200070963298, 0.0005812465044666704, 0.0005715130464808427, 0.0005620995055077294, 0.000552987350755596, 0.0005441595099130447, 0.0005356002426385453, 0.0005272950249634589, 0.0005192304437264261, 0.0005113941002274358, 0.0005037745223412937, 0.0004963610843835009, 0.0004891439340798942, 0.0004821139260297591, 0.00047526256111152243, 0.0004685819313109407, 0.00046206466949999525, 0.00045570390373156355, 0.0004494932156497433, 0.0004434266026446254, 0.0004374984434252771, 0.0004317034666902475, 0.00042603672262531145, 0.00042049355696577306, 0.0004150695873902932, 0.00040976068203263383, 0.0004045629399169193, 0.0003994726731405551, 0.0003944863906363838, 0.000389600783380184, 0.0003848127108962984, 0.0003801191889530875, 0.0003755173783277499, 0.00037100457454830593, 0.0003665781985178196, 0.0003622357879426441, 0.0003579749894874751, 0.0003537935515907642, 0.00034968931787976443, 0.0003456602211311388, 0.0003417042777245638, 0.0003378195825469166, 0.0003340043043021934, 0.00033025668119696094, 0.00032657501695831925, 0.00032295767716250534, 0.00031940308584205157, 0.00031590972234707415, 0.00031247611844015255, 0.0003091008556012631, 0.0003057825625287225, 0.0003025199128116052, 0.00029931162277097023, 0.0002961564494410873, 0.00029305318869116137, 0.000290000673467794, 0.00028699777215263067, 0.0002840433870243686, 0.00028113645281491184, 0.00027827593535489914, 0.00027546083030138835, 0.00027269016193726126, 0.00026996298204245983, 0.00026727836882833866, 0.00026463542593063716, 0.00026203328145518734, 0.00025947108707941036, 0.00025694801719539084, 0.00025446326809808184, 0.00025201605721686393, 0.0002496056223816323, 0.0002472312211260208, 0.0002448921300222673, 0.00024258764404766486, 0.00024031707598126673, 0.00023807975582401664, 0.0002358750302484669, 0.00023370226206897993, 0.00023156082973607717, 0.00022945012685149369, 0.00022736956170316125, 0.00022531855681939827, 0.00022329654853980863, 0.00022130298660327785, 0.00021933733375362197, 0.00021739906535744868, 0.00021548766903800587, 0.0002136026443230743, 0.00021174350230473982, 0.0002099097653106008, 0.0002081009665900191, 0.00020631665000647725, 0.00020455636974558988, 0.0002028196900303869, 0.0002011061848474216, 0.0001994154376798174, 0.0001977470412530824, 0.0001961005972860863, 0.00019447571625275106, 0.00019287201714762725, 0.00019128912726512626, 0.0001897266819780863, 0.00018818432453132639, 0.00018666170583542252, 0.00018515848426980952, 0.00018367432549210028, 0.00018220890225162378, 0.00018076189421084576, 0.0001793329877697314, 0.00017792187589799058, 0.00017652825796965477, 0.00017515183960453706, 0.00017379233251402226, 0.00017244945435107573, 0.00017112292856330535, 0.00016981248425329554, 0.00016851785604060643, 0.0001672387839281031, 0.00016597501317272556, 0.00016472629415920093, 0.00016349238227786334, 0.00016227303780602664, 0.0001610680257914665, 0.0001598771159415091, 0.00015870008251139822, 0.00015753670419982324, 0.00015638676404544638, 0.00015525004932526176, 0.00015412635145717335, 0.00015301546590462678, 0.00015191719208484944, 0.0001508313332764244, 0.0001497576965346359, 0.00014869609260287353, 0.00014764633583114195, 0.00014660824409512552, 0.0001455816387153086, 0.0001445663443823686, 0.00014356218908267993, 0.00014256900402065398, 0.0001415866235545682, 0.00014061488512129294, 0.00013965362917323088, 0.0001387026991085949, 0.00013776194121095653, 0.00013683120458385378, 0.00013591034109167177, 0.00013499920529913556, 0.00013409765441529942, 0.00013320554823287312, 0.00013232274907803987, 0.00013144912175444556, 0.00013058453348946397, 0.0001297288538856245, 0.00012888195486920884, 0.0001280437106419008, 0.00012721399763315766, 0.00012639269445419155, 0.00012557968185233914, 0.00012477484266715244, 0.00012397806178771065, 0.00012318922610876637, 0.00012240822449266497, 0.00012163494772571282, 0.000120869288482095, 0.00012011114128390732, 0.00011936040246413038, 0.00011861697013032524, 0.00011788074412877325, 0.00011715162600978157, 0.00011642951899376586, 0.00011571432793827663, 0.00011500595930430402, 0.00011430432112585764, 0.00011360932297871384, 0.00011292087594960698, 0.00011223889260703057, 0.00011156328697176088, 0.0001108939744894899, 0.00011023087200284776, 0.00010957389772281445, 0.00010892297120540517, 0.00010827801332202736, 0.00010763894623794235, 0.00010700569338417676, 0.0001063781794362062, 0.00010575633028830911, 0.00010514007303097372, 0.00010452933592841607, 0.00010392404839709712, 0.0001033241409820751, 0.00010272954533818712, 0.00010214019420795584, 0.00010155602140093922, 0.00010097696177518989, 0.00010040295121671594, 9.983392662105128e-05, 9.926982587399324e-05, 9.871058783389453e-05, 9.815615231395514e-05, 9.760646006423679e-05, 9.706145275484301e-05, 9.652107295926582e-05, 9.598526413828745e-05, 9.545397062216132e-05, 9.492713759723381e-05, 9.440471108973503e-05, 9.388663794945851e-05, 9.337286583727122e-05, 9.286334320812717e-05, 9.235801929896592e-05, 9.185684411400219e-05, 9.135976841045945e-05, 9.086674368669057e-05, 9.037772216768936e-05, 8.989265679321123e-05, 8.941150120511665e-05, 8.893420973499211e-05, 8.846073739110505e-05, 8.799103984907797e-05, 8.752507343712246e-05, 8.706279512765702e-05, 8.660416252415093e-05], "model_weights": [0.6067833484599398, 0.47413182033039647, 0.42102201733998806, 0.48211700490723775, 0.6329839490877474, 0.19366997282554807, -0.08717177473244464, 0.07159398382478901, 0.1570747101187898, -0.04096777888159506, -0.13421153590926813, -0.1089995359634049, 0.007961454352025077, 0.7866378884471893, 0.045435017861664574, 0.10645303768952243, 