[{"problem": "ToyProblem", "trial": 0, "n_qubits": 2, "ansatz": "2-layer HEA", "cost": "local", "optimizer": "SGD_lr=1", "error_threshold": 0.0016, "noise_model": "Bitflip=0.05", "TTS": 14.024877071380615, "STS": 25, "final_EAD": 0.0008004693072462067, "EAD_history": [0.09888691455359241, 0.07335290821010629, 0.04601468360596348, 0.027574701744227773, 0.01571777906811046, 0.007445005980158323, 0.005570501993403349, 0.0022531443537579777, 0.0008004693072462067], "cost_history": [0.49938229483247537, 0.048708539972437515, 0.04091467076285388, 0.035092824853184434, 0.030136224258531463, 0.025869199775573226, 0.022166256036235454, 0.018935755886897554, 0.016109469583319158, 0.013635497249358475, 0.011473301278320691, 0.009590129073784759, 0.0079584131614312, 0.006553907304287954, 0.005354408749764561, 0.004338959447181545, 0.003487433514170968, 0.002780419433762449, 0.002199304469345853, 0.0017264725581163098, 0.00134553823777106, 0.001041557080047939, 0.0008011744302333645, 0.0006126950890048, 0.00046607373570922705], "model_weights": [0.6266101861163322, 0.62874741433968, 0.016773673543984055, 0.01929487812346813, 0.8782485586471633, 0.8743779564691505, 0.0013001484692653153, -1.00973372887428e-05, 0.0011199726629828508, -0.0006848168903716265, 0.0012417996341816966, 0.0014691288455801086, 0.0013279713757037908, -0.00011107557649233253, 7.339821113470842e-05, 7.426778793994025e-05, 0.003583542798576957, 0.0015077480604797889, 0.0005333842602779496, -0.00040825695017480463], "init_weights": [-0.0017449970063510222, 0.0011186051680172702, -0.00016272908420024963, -3.96443197315289e-05, 0.002066149293907221, 0.00044277471331108896, 0.0013001484692653153, -1.00973372887428e-05, 0.0011199726629828508, -0.0006848168903716265, 0.0012417996341816966, 0.0014691288455801086, 0.0013279713757037908, -0.00011107557649233253, 7.339821113470842e-05, 7.426778793994025e-05, 0.003583542798576957, 0.0015077480604797889, 0.0005333842602779496, -0.00040825695017480463]},{"problem": "ToyProblem", "trial": 1, "n_qubits": 2, "ansatz": "2-layer HEA", "cost": "local", "optimizer": "SGD_lr=1", "error_threshold": 0.0016, "noise_model": "Bitflip=0.05", "TTS": 14.36243200302124, "STS": 25, "final_EAD": 0.0009582191046465488, "EAD_history": [0.10271707437923243, 0.07153994814227208, 0.047758576002852306, 0.029084899863448806, 0.017784313550643343, 0.007828285954876509, 0.004546137333991826, 0.0024449906158353963, 0.0009582191046465488], "cost_history": [0.4998506070594679, 0.048726738007593695, 0.04094670322152433, 0.03512177589451637, 0.03016282596595482, 0.025893919806297516, 0.022189384012405777, 0.018957456641246706, 0.01612982031754695, 0.01365451581732885, 0.011490969200422085, 0.009606410893868156, 0.007973272606296933, 0.006567320103266161, 0.0053663717776157305, 0.004349495964987404, 0.0034965945896920925, 0.0027882820004765385, 0.0022059668128884824, 0.0017320482128256875, 0.0013501492978926222, 0.0010453277955086993, 0.0008042257186089419, 0.0006151403200652106, 0.0004680158915206234], "model_weights": [0.6270971525237676, 0.6275727723482559, 0.01764575391826707, 0.01853279327469605, 0.8770578874236677, 0.8759611470808356, 0.0007342144114598388, 0.0008020539394912975, 0.0002154446815232112, -0.0007861585437401224, 0.0009101223875398741, 0.0014311537500284043, 0.0007207830818578891, 0.0002451494959041807, -0.000517632177063604, 0.00151127153800156, 0.00029845842579448174, -0.0003030643427439561, 0.000416115899029099, -0.0012436483451934417], "init_weights": [-0.0003734484642320191, -0.0010996663216562396, 0.00011989958105545955, -0.00028686086084504987, 0.0018570383354646809, 0.00018938665665020458, 0.0007342144114598388, 0.0008020539394912975, 0.0002154446815232112, -0.0007861585437401224, 0.0009101223875398741, 0.0014311537500284043, 0.0007207830818578891, 0.0002451494959041807, -0.000517632177063604, 0.00151127153800156, 0.00029845842579448174, -0.0003030643427439561, 0.000416115899029099, -0.0012436483451934417]},{"problem": "ToyProblem", "trial": 2, "n_qubits": 2, "ansatz": "2-layer HEA", "cost": "local", "optimizer": "SGD_lr=1", "error_threshold": 0.0016, "noise_model": "Bitflip=0.05", "TTS": 14.034998655319214, "STS": 25, "final_EAD": 0.0006579502421670049, "EAD_history": [0.10286470083212841, 0.07655528017054661, 0.047392060429710316, 0.028652048594439795, 0.015953050059972815, 0.009138974992715402, 0.0037641591680794666, 0.0016859194411436608, 0.0006579502421670049], "cost_history": [0.49895079376168167, 0.04902433648743071, 0.04111770370360279, 0.03525950714340048, 0.030274283972361427, 0.025984126598717128, 0.02226213010788125, 0.01901570494947824, 0.01617596392332643, 0.01369054498983352, 0.011518579424507125, 0.009627071403769338, 0.007988268241601315, 0.006577775578199774, 0.005373265189063781, 0.004353666749991603, 0.0034987497628796715, 0.0027890032010471355, 0.002205719480382118, 0.0017311931812967751, 0.0013489563437887875, 0.0010439902431292336, 0.0008028750812433816, 0.0006138600639137293, 0.0004668536567549175], "model_weights": [0.6281651573156037, 0.6285732336571518, 0.0168678976828867, 0.019149269875750025, 0.8765993025954062, 0.8745713176920864, 0.0005916002044567938, -5.283218162929687e-06, 0.0006883441587076484, -0.0005745338672714984, 0.0007799807881655131, 8.325667647282447e-05, 0.00026324352103890665, -0.001201772341330963, 0.0008643116363780113, -0.00014755935243696315, -2.5441945311887436e-05, 0.0010542947082898256, -0.0021662317313565246, -0.0010657637870078104], "init_weights": [-0.000191680363074096, 0.0010498127109719428, 0.00021026238722079844, 0.002720557788604835, -0.001114451445458124, 0.0001793445716089387, 0.0005916002044567938, -5.283218162929687e-06, 0.0006883441587076484, -0.0005745338672714984, 0.0007799807881655131, 8.325667647282447e-05, 0.00026324352103890665, -0.001201772341330963, 0.0008643116363780113, -0.00014755935243696315, -2.5441945311887436e-05, 0.0010542947082898256, -0.0021662317313565246, -0.0010657637870078104]},{"problem": "ToyProblem", "trial": 3, "n_qubits": 2, "ansatz": "2-layer HEA", "cost": "local", "optimizer": "SGD_lr=1", "error_threshold": 0.0016, "noise_model": "Bitflip=0.05", "TTS": 14.24242091178894, "STS": 25, "final_EAD": 0.0010412859487084673, "EAD_history": [0.0993583103437573, 0.07404507808538581, 0.04703350124744926, 0.02878015081365993, 0.014633776582152598, 0.010535366859264789, 0.0037335913585436176, 0.0016979935252558571, 0.0010412859487084673], "cost_history": [0.4993322366179105, 0.048770803924177264, 0.04095693600485373, 0.035128320164065474, 0.030166401615555283, 0.02589507858072515, 0.02218857910883415, 0.018955077027019873, 0.0161262112895465, 0.01364999020041252, 0.011485812094409964, 0.009600880121164668, 0.00796759662804114, 0.006561694927339545, 0.005360958135696592, 0.004344417721002469, 0.0034919389549344926, 0.002784101715716636, 0.0022022840825355883, 0.0017288599033163377, 0.0013474327776482053, 0.0010430467965027446, 0.0008023357084958604, 0.0006135930411718116, 0.00046676290118891073], "model_weights": [-0.6276007658681043, -0.6277871569146556, -0.018088723281923364, -0.01799985412738104, -0.8763089423149238, -0.8761935911651697, 0.0003847335041812425, -0.0009818824708748013, 0.0007099291369610542, 0.00017680993457417369, 0.0012976818057454697, 0.00121515222579634, -0.0010875002322862702, 0.0003348030603817807, 0.002344844706052126, -0.001910964271571631, -0.000533034395697645, -0.00216030334227942, 0.00038884700005842717, -0.0009546903335716416], "init_weights": [0.0007283916904172076, -0.0002054637180315814, -0.00020367184027286, -0.00026407849025992315, -0.0007133393544031634, -0.0011581557893462512, 0.0003847335041812425, -0.0009818824708748013, 0.0007099291369610542, 0.00017680993457417369, 0.0012976818057454697, 0.00121515222579634, -0.0010875002322862702, 0.0003348030603817807, 0.002344844706052126, -0.001910964271571631, -0.000533034395697645, -0.00216030334227942, 0.00038884700005842717, -0.0009546903335716416]},{"problem": "ToyProblem", "trial": 4, "n_qubits": 2, "ansatz": "2-layer HEA", "cost": "local", "optimizer": "SGD_lr=1", "error_threshold": 0.0016, "noise_model": "Bitflip=0.05", "TTS": 14.10866093635559, "STS": 25, "final_EAD": 0.0009833007365942998, "EAD_history": [0.09932653732638465, 0.07647948660526876, 0.04670536438319448, 0.028519118207555406, 0.014689850195505326, 0.007951658558387534, 0.004412649182759009, 0.0016497474855387477, 0.0009833007365942998], "cost_history": [0.4993976377454826, 0.04875162737933747, 0.04093436911161619, 0.0350992780676066, 0.03013195478460129, 0.025856212649625565, 0.022146250578564175, 0.018910243017791595, 0.016079836156475347, 0.013603034654822654, 0.011439209596648015, 0.009555505399916842, 0.007924231519829239, 0.006520996783904276, 0.005323435488565786, 0.004310416635635583, 0.0034616417132702915, 0.0027575374850276613, 0.0021793494762553656, 0.001709346159473657, 0.001331055841075346, 0.001029476855784195, 0.0007912235112679245, 0.0006045913233256317, 0.0004595422651832437], "model_weights": [-0.6294004856190574, -0.6294375483769905, -0.017564482680145422, -0.018048647174068864, -0.8752896933807714, -0.8749064642813034, 0.00010931908956001162, -0.00012728151040430904, 0.000819694333942961, 0.0006717011393879483, 0.0005455661447515733, -0.0008862559625027357, 0.0004573602506486879, -0.0022506353848343514, -0.0009423626918518847, 9.022346654036231e-05, 0.0006441728070775995, -0.00012104553643692804, 0.000604018259045886, -0.0008394075381806072], "init_weights": [-0.0009935492205694258, -0.0006652408306027768, 0.0005759360220697301, 0.00029030170300540115, -0.0005354927399547491, -0.00031038144308296396, 0.00010931908956001162, -0.00012728151040430904, 0.000819694333942961, 0.0006717011393879483, 0.0005455661447515733, -0.0008862559625027357, 0.0004573602506486879, -0.0022506353848343514, -0.0009423626918518847, 9.022346654036231e-05, 0.0006441728070775995, -0.00012104553643692804, 0.000604018259045886, -0.0008394075381806072]},{"problem": "ToyProblem", "trial": 0, "n_qubits": 2, "ansatz": "2-layer HEA", "cost": "local", "optimizer": "SGD_lr=1", "error_threshold": 0.0016, "noise_model": "Bitflip=0.05", "TTS": 16.75105905532837, "STS": 31, "final_EAD": 0.00015057583899789269, "EAD_history": [0.10346319256143009, 0.022377592290855803, 0.002313071711429365, 0.00015057583899789269], "cost_history": [0.49991604071192486, 0.04894171683951537, 0.041094710145221536, 0.035239997114904276, 0.0302574446887241, 0.025969424732383284, 0.022249192147575814, 0.019004263765395157, 0.01616582482737644, 0.01368156290651501, 0.011510642773705448, 0.00962009035850886, 0.007982166115955924, 0.006572482672156543, 0.005368714689042042, 0.004349792379002071, 0.0034954848742754785, 0.00278628097477418, 0.0022034738539171705, 0.0017293601541883974, 0.0013474753412870966, 0.0010428053021397377, 0.0008019357136045402, 0.0006131217396740385, 0.00046627792020575987, 0.0003528999550023171, 0.0002659362643420149, 0.00019962864896960753, 0.00014933955069784677, 0.00011137983429826415, 8.284689193066574e-05], "model_weights": [0.648037406287902, 0.6473004955664541, 0.009272851864395215, 0.004927710958008508, 0.8934775304339526, 0.8974698132879265, 4.2141398609555596e-05, -0.0004570175554629073, -0.0003391768619588819, 0.00012396093322235437, 0.0008398771578523833, -0.0007621913259696847, 0.0003804575909883658, -0.0014264768112273723, -0.00047622806716784386, -0.0006827863042726953, -0.001502708537933614, -0.0008386343823748227, -0.0013931808093352188, 0.001362617193699311], "init_weights": [-0.0003905420662012101, 0.0004085201811344261, 0.002137686737283101, -0.0008207322393004898, -0.0009639135674081937, -0.0001426499859460172, 4.2141398609555596e-05, -0.0004570175554629073, -0.0003391768619588819, 0.00012396093322235437, 0.0008398771578523833, -0.0007621913259696847, 0.0003804575909883658, -0.0014264768112273723, -0.00047622806716784386, -0.0006827863042726953, -0.001502708537933614, -0.0008386343823748227, -0.0013931808093352188, 0.001362617193699311]},{"problem": "ToyProblem", "trial": 1, "n_qubits": 2, "ansatz": "2-layer HEA", "cost": "local", "optimizer": "SGD_lr=1", "error_threshold": 0.0016, "noise_model": "Bitflip=0.05", "TTS": 16.551976203918457, "STS": 31, "final_EAD": 0.00010969661877530053, "EAD_history": [0.09746166681916382, 0.024016572019368753, 0.002476160876700507, 0.00010969661877530053], "cost_history": [0.499742736857091, 0.04896694609706609, 0.04110243276994546, 0.035243115764271415, 0.030256849557750487, 0.02596581306716339, 0.022243149769737736, 0.018996307719990946, 0.01615642697553321, 0.013671160847533892, 0.01149964217063193, 0.009608861696453141, 0.007971038446935252, 0.006561736600631751, 0.005358576505877011, 0.004340430762245939, 0.0034870109519342107, 0.0027787518728725202, 0.002196899251799056, 0.0017237109440446097, 0.0013426932971720151, 0.0010388126998840952, 0.0007986440503476855, 0.0006104389980574054, 0.00046411412775271277, 0.0003511710457257955, 0.000264566428060109, 0.00019855145058084167, 0.00014849813021960978, 0.0001107264794910634, 8.234222965969318e-05], "model_weights": [-0.6483886240298693, -0.6480350905335952, -0.0074274519132259825, -0.006696963714854236, -0.8945766018395486, -0.8954730238485179, 0.00114282871381624, 0.0009322097932255578, 0.0010637240304682655, -5.5139760949119365e-05, -0.0001279377909349837, -0.002784980872408232, 0.0010859353313527466, -0.0016579789455488374, -0.0012567751249136293, 0.0009779475375970637, 0.0001304656460678561, -0.00014548202417143485, 8.085458643986854e-05, -0.0017121047302613402], "init_weights": [-0.0003671375889936832, -0.0005747282416624996, -0.0006495747651921745, -0.0006952806885802258, 0.0012263801814103048, 0.0003605845557841836, 0.00114282871381624, 0.0009322097932255578, 0.0010637240304682655, -5.5139760949119365e-05, -0.0001279377909349837, -0.002784980872408232, 0.0010859353313527466, -0.0016579789455488374, -0.0012567751249136293, 0.0009779475375970637, 0.0001304656460678561, -0.00014548202417143485, 8.085458643986854e-05, -0.0017121047302613402]},{"problem": "ToyProblem", "trial": 2, "n_qubits": 2, "ansatz": "2-layer HEA", "cost": "local", "optimizer": "SGD_lr=1", "error_threshold": 0.0016, "noise_model": "Bitflip=0.05", "TTS": 16.69140601158142, "STS": 31, "final_EAD": 0.00032298707905453495, "EAD_history": [0.09707888522922005, 0.02164036154039658, 0.0029143917990485007, 0.00032298707905453495], "cost_history": [0.4994507881138776, 0.04877484464518472, 0.04096008280850433, 0.035127403292250614, 0.03016219634350159, 0.025888205488357297, 0.022179570032803353, 0.01894441182358164, 0.016114336851212052, 0.013637327754554673, 0.011472756600000744, 0.009587794641131075, 0.007954804160473616, 0.006549469928442353, 0.005349519638812694, 0.004333925458719412, 0.003482493243461171, 0.0027757471590224014, 0.002195016527903104, 0.0017226356432707979, 0.0013421788051049544, 0.0010386709730232369, 0.0007987359378601178, 0.0006106648637982937, 0.0004644052542355226, 0.0003514821339404839, 0.0002648693363216936, 0.00019883017351740584, 0.0001487449193754986, 0.000110938950174444, 8.25212771499717e-05], "model_weights": [0.6480241254104054, 0.6470102578783009, 0.006701243059911904, 0.007471506033824453, 0.895475726570767, 0.8958908487015046, -0.001167566858492205, 1.012188239008286e-05, 0.0008526219424936962, -0.0015163490756510576, -0.00010808746408587148, -0.00022624370068886278, -0.0007503322953851276, -0.0005007826845755574, 0.001222201694492143, 0.0003436499296266528, -0.0020805445901349306, -0.0007502432939825115, 0.0017207560021908108, 0.0011892303146641594], "init_weights": [0.0005205021920715986, -0.00035627326723193916, -0.0012731739928287767, 0.001305384834497389, -0.0005001690974928382, 0.0017975866909199912, -0.001167566858492205, 1.012188239008286e-05, 0.0008526219424936962, -0.0015163490756510576, -0.00010808746408587148, -0.00022624370068886278, -0.0007503322953851276, -0.0005007826845755574, 0.001222201694492143, 0.0003436499296266528, -0.0020805445901349306, -0.0007502432939825115, 0.0017207560021908108, 0.0011892303146641594]},{"problem": "ToyProblem", "trial": 3, "n_qubits": 2, "ansatz": "2-layer HEA", "cost": "local", "optimizer": "SGD_lr=1", "error_threshold": 0.0016, "noise_model": "Bitflip=0.05", "TTS": 16.953127145767212, "STS": 31, "final_EAD": 0.0002381957936554739, "EAD_history": [0.10048168190920573, 0.023475247473554544, 0.002076394225077114, 0.0002381957936554739], "cost_history": [0.49908734472059846, 0.04892445162422332, 0.041059595668664794, 0.03521715931082975, 0.030244468412043535, 0.025964452345231148, 0.02225071475076934, 0.019010996613391562, 0.01617663393419655, 0.013695425023683927, 0.011526627787329657, 0.009637358423061071, 0.007999973460487364, 0.006590190981843547, 0.005385799842621719, 0.004365849376597786, 0.003510227055679216, 0.002799532974650798, 0.002215158955994556, 0.0017394835918011498, 0.0013561055324966542, 0.0010500550051901203, 0.0008079447432137732, 0.0006180423498386989, 0.0004702633881796814, 0.0003560964090040808, 0.00026847744572044974, 0.00020163309995391288, 0.00015090964992331424, 0.00011260212666114322, 8.379323815677076e-05], "model_weights": [0.6459367116301347, 0.647248122173044, 0.00623118761488704, 0.008098749842392922, 0.8977301002933032, 0.895037949187517, -0.0006563847290812929, 0.0009126400393647641, 9.424130442113066e-05, 0.0003117836647793181, 0.0004370499999703334, -0.0001017672502119595, 0.0007049512330044737, -0.0014223643511332767, 0.0011503394619295489, 0.001499456660083409, 0.0005067727954107319, 0.0003259606332336572, 0.00207771612532319, -0.001713502613152168], "init_weights": [-0.001089451746418932, 0.0003261734335986063, 0.0011799939611527512, 0.0013241260961234893, 0.0010117366487891783, -0.000270153300110726, -0.0006563847290812929, 0.0009126400393647641, 9.424130442113066e-05, 0.0003117836647793181, 0.0004370499999703334, -0.0001017672502119595, 0.0007049512330044737, -0.0014223643511332767, 0.0011503394619295489, 0.001499456660083409, 0.0005067727954107319, 0.0003259606332336572, 0.00207771612532319, -0.001713502613152168]},{"problem": "ToyProblem", "trial": 4, "n_qubits": 2, "ansatz": "2-layer HEA", "cost": "local", "optimizer": "SGD_lr=1", "error_threshold": 0.0016, "noise_model": "Bitflip=0.05", "TTS": 16.71004009246826, "STS": 31, "final_EAD": 0.0002559141899778886, "EAD_history": [0.0980877922291543, 0.02345583942106645, 0.0034327980350155538, 0.0002559141899778886], "cost_history": [0.4988830702006406, 0.048791151291660395, 0.04095074436103724, 0.03511941618327552, 0.03015526685413472, 0.025882126326611743, 0.02217419511716623, 0.01893963663421855, 0.016110085579100986, 0.013633544411864762, 0.01146939859421009, 0.009584828001220513, 0.007952199979860242, 0.006547201791155477, 0.005347561890559127, 0.004332252213503862, 0.0034810780086661497, 0.002774562940894232, 0.0021940362631105437, 0.0017218328013638984, 0.0013415280241608207, 0.0010381486228644987, 0.0007983205444447861, 0.000610337366652447, 0.00046414909993813813, 0.0003512832296333479, 0.00026471589780885374, 0.00019871250464587042, 0.0001486551557632887, 0.00011087079373456321, 8.246974034031851e-05], "model_weights": [0.6479573632554657, 0.6471148319568588, 0.0075360829705058575, 0.006632351031476042, 0.8949191704964092, 0.8964260131478342, -0.0002517456486093713, 0.0017584700157911278, -0.00031957155318937803, -0.00042066662320842507, 0.0013015377032901284, 0.0012444581967297327, 0.0005151106118057356, -0.0005718807009041089, -0.0006405706018353991, -0.0008468393196731826, -0.001070859693954586, -0.00036203575336168464, 0.0009468851424506133, -0.001187024539404271], "init_weights": [0.0003701667504596008, 0.00033334186208603355, -6.82414839884754e-05, 0.0006958906919176767, -9.725368782801622e-05, 0.0018041493613291594, -0.0002517456486093713, 0.0017584700157911278, -0.00031957155318937803, -0.00042066662320842507, 0.0013015377032901284, 0.0012444581967297327, 0.0005151106118057356, -0.0005718807009041089, -0.0006405706018353991, -0.0008468393196731826, -0.001070859693954586, -0.00036203575336168464, 0.0009468851424506133, -0.001187024539404271]},{"problem": "ToyProblem", "trial": 0, "n_qubits": 3, "ansatz": "2-layer HEA", "cost": "local", "optimizer": "SGD_lr=1", "error_threshold": 0.0016, "noise_model": "Bitflip=0.05", "TTS": 27.23915410041809, "STS": 21, "final_EAD": 0.0011008464745672273, "EAD_history": [0.5010974862300733, 0.005330485100386366, 0.0011008464745672273], "cost_history": [0.4996282537551076, 0.280264091629275, 0.2391163617649541, 0.20810448932620496, 0.16925168930323292, 0.1190326780348322, 0.0636083147593432, 0.02909469548676169, 0.016691279226574318, 0.011575816427522811, 0.0090156825661733, 0.007451672930732844, 0.006342838783879756, 0.005482847363474541, 0.004781783831992736, 0.004194170634049865, 0.0036934413916005493, 0.0032621588182172867, 0.002887891185893887, 0.002561265581122907, 0.002274955113334143], "model_weights": [-0.563298140950214, -0.48239456744456466, -0.5475787074701435, -0.21278717219269144, -0.021085395677718784, 0.1130798595803075, -0.04372117895533692, -0.8061166384147661, -0.15150761410926003, -1.0144056683828864, -0.9768867565954068, -9.422327170736542e-05, 0.0005311355872029953, 0.0009529545375654626, -0.0008076662018905858, 0.0008496315461752487, -0.0007372539662068417, -0.0003926475616673833, 0.0011985398062822365, -0.00017303695462478398, 0.0007129276731066566, -0.00022131927137550842, 0.00126077535139697, -9.513273845358091e-05, -0.0015640456462917395, 0.00024856576690989265, -0.0016446509903075368, -0.0005803694539136486, -0.0008289187643982137, 0.0001227561789012492], "init_weights": [0.0012737039446248889, -0.0020678565230886846, -0.000759472871415461, -0.00011517154280295479, -0.0016200463302146336, -0.0002787545410892846, 0.001677429272509038, -0.0004190542112451498, 0.0006159671205225232, 8.275391187130473e-05, -0.0006221764841576604, -9.422327170736542e-05, 0.0005311355872029953, 0.0009529545375654626, -0.0008076662018905858, 0.0008496315461752487, -0.0007372539662068417, -0.0003926475616673833, 0.0011985398062822365, -0.00017303695462478398, 0.0007129276731066566, -0.00022131927137550842, 0.00126077535139697, -9.513273845358091e-05, -0.0015640456462917395, 0.00024856576690989265, -0.0016446509903075368, -0.0005803694539136486, -0.0008289187643982137, 0.0001227561789012492]},{"problem": "ToyProblem", "trial": 1, "n_qubits": 3, "ansatz": "2-layer HEA", "cost": "local", "optimizer": "SGD_lr=1", "error_threshold": 0.0016, "noise_model": "Bitflip=0.05", "TTS": 26.88121199607849, "STS": 21, "final_EAD": 0.0012702064848214673, "EAD_history": [0.5059480036331029, 0.006508819412847839, 0.0012702064848214673], "cost_history": [0.4998486078999372, 0.2802670442152926, 0.23892639573393792, 0.20785072542580402, 0.16889437383591627, 0.11855585571096505, 0.06318422447760358, 0.02895129451721412, 0.016664797634246442, 0.011587838302701436, 0.009037556322131213, 0.0074735146350149995, 0.006361853382940819, 0.005498709828180015, 0.004794891795329659, 0.00420504445671499, 0.0037025426879236933, 0.003269854282200446, 0.002894461624312117, 0.002566923994551107, 0.0022798640527991743], "model_weights": [-0.5648797690934768, -0.48063768442148036, -0.5464763644497301, -0.21560229119660024, -0.019813816046552885, 0.11267729964118718, -0.045255399998694164, -0.8018382494437112, -0.1504575202350968, -1.0176538280988834, -0.9765881706799133, -0.0005857633265138893, -0.0011234065097829502, 0.0005143939139811199, -0.0002818366863848968, -0.0016851136883377258, -0.0015815966994490258, 0.00013029513528898303, -0.0005026000770497369, -0.00048791292356449275, 0.0006045504900760076, 0.0015898170522217808, 0.0006208213943000762, 0.002331262428266989, 0.00014194808021222003, -0.0005728003485483329, -0.0006117909000364623, -0.0003221770578870446, -0.0009394567200799581, -0.00034024577771134], "init_weights": [-0.0007810893456751646, -9.568651073566697e-05, -0.0013109674544039753, -0.0003068162241404733, -1.3511107938974378e-05, 0.0010220933915261305, 0.0008208456099333266, 0.0014797383539895425, 0.00031297712863789535, -0.0010697692205198794, -0.0009666738744774047, -0.0005857633265138893, -0.0011234065097829502, 0.0005143939139811199, -0.0002818366863848968, -0.0016851136883377258, -0.0015815966994490258, 0.00013029513528898303, -0.0005026000770497369, -0.00048791292356449275, 0.0006045504900760076, 0.0015898170522217808, 0.0006208213943000762, 0.002331262428266989, 0.00014194808021222003, -0.0005728003485483329, -0.0006117909000364623, -0.0003221770578870446, -0.0009394567200799581, -0.00034024577771134]},{"problem": "ToyProblem", "trial": 2, "n_qubits": 3, "ansatz": "2-layer HEA", "cost": "local", "optimizer": "SGD_lr=1", "error_threshold": 0.0016, "noise_model": "Bitflip=0.05", "TTS": 26.930595874786377, "STS": 21, "final_EAD": 0.0008942433719661352, "EAD_history": [0.5091040332363082, 0.005236329090634771, 0.0008942433719661352], "cost_history": [0.4999852245367756, 0.28031863085029185, 0.23906761748228222, 0.20809690864948782, 0.16929649237476224, 0.11914632919721918, 0.06377610485630941, 0.02921014670429961, 0.01674846819157072, 0.011605624359612321, 0.00903272648911152, 0.007462499397372757, 0.006350593471608601, 0.0054891238176353885, 0.004787410418369165, 0.004199572803161522, 0.0036988256171286427, 0.0032676116092640872, 0.0028934337025834367, 0.0025668848575830516, 0.002280621497778912], "model_weights": [-0.5630700383300157, -0.4814121171407419, -0.5463794735924751, -0.21453487575896404, -0.020572854725240224, 0.11325905928332751, -0.045064648214951715, -0.804659882720381, -0.15092798453763076, -1.0163789837070853, -0.9768719075372658, 0.0009273364899610059, 0.0011705186764520551, -0.00045600715873656477, 0.0012300026761061088, -0.00024989802961335585, -0.0011831137183517264, -0.0003629282451895528, 0.00015222722272284603, -0.0010550110265133872, 0.0014946644869986469, 0.0012486839158226866, -0.00014356137183412174, 1.3282671224313484e-05, -0.0018460078138862236, -0.0004911608371388656, -0.0012584569529777497, 0.0002189145841937107, -0.0015980099784866238, 8.375162012274062e-05], "init_weights": [0.0008796323367443445, -0.0007475485930440668, -0.00038500832440312247, -0.00038311535730114425, 0.0004960988207987907, -0.00012617091629086598, -0.0002826970934183828, -0.0009933372660227632, 0.00032552484102801795, 0.0009936685226699233, 0.00013482408245623208, 0.0009273364899610059, 0.0011705186764520551, -0.00045600715873656477, 0.0012300026761061088, -0.00024989802961335585, -0.0011831137183517264, -0.0003629282451895528, 0.00015222722272284603, -0.0010550110265133872, 0.0014946644869986469, 0.0012486839158226866, -0.00014356137183412174, 1.3282671224313484e-05, -0.0018460078138862236, -0.0004911608371388656, -0.0012584569529777497, 0.0002189145841937107, -0.0015980099784866238, 8.375162012274062e-05]},{"problem": "ToyProblem", "trial": 3, "n_qubits": 3, "ansatz": "2-layer HEA", "cost": "local", "optimizer": "SGD_lr=1", "error_threshold": 0.0016, "noise_model": "Bitflip=0.05", "TTS": 27.00864887237549, "STS": 21, "final_EAD": 0.0014791040909832372, "EAD_history": [0.5051025318868453, 0.0058098089619142215, 0.0014791040909832372], "cost_history": [0.49905266351233113, 0.2800758295639736, 0.23882049518275994, 0.20773254212097603, 0.16874798601095548, 0.11837731377263294, 0.06303033857335416, 0.028889039721119225, 0.016634102829960196, 0.011565317441693646, 0.009017928126008712, 0.007455770909240045, 0.006345762371879449, 0.005484133317819162, 0.004781678957931135, 0.004193040214423904, 0.0036916016335724056, 0.0032598475664216142, 0.0028852788131234486, 0.002558471700927323, 0.0022720639057381975], "model_weights": [-0.5651141985253971, -0.4818412186020495, -0.5465126158733932, -0.2150150465660473, -0.01951174736935401, 0.1125338800636404, -0.044652828534034635, -0.8022504963428722, -0.15063549451853633, -1.0164436073777428, -0.9771052178662586, -0.00011231348391128365, 0.0001390881173053736, 0.0009036697107539613, -0.0004875268767250419, 0.0015960323707845125, -0.002834107553409598, 0.00032694471037450403, 0.0001491639435243138, -0.0013105369115646883, 0.0020729907432304674, -0.001452441770427028, -0.0017484722627353895, 0.0007180052757244766, 0.0009852490922410775, -0.000455220897658963, -0.0002808305344178759, 0.0004184691891876038, -0.0008857822388890195, -4.778712949366735e-05], "init_weights": [-0.0020949309106046278, -0.0016575838769216325, -0.00029250328799162214, -0.0015035023631930378, 0.0001709604858919055, 0.000665806055224067, 0.0012562635403529222, -0.0006437944868481773, 2.3471551324470102e-05, -0.0010221627650899656, -0.0005894297733101707, -0.00011231348391128365, 0.0001390881173053736, 0.0009036697107539613, -0.0004875268767250419, 0.0015960323707845125, -0.002834107553409598, 0.00032694471037450403, 0.0001491639435243138, -0.0013105369115646883, 0.0020729907432304674, -0.001452441770427028, -0.0017484722627353895, 0.0007180052757244766, 0.0009852490922410775, -0.000455220897658963, -0.0002808305344178759, 0.0004184691891876038, -0.0008857822388890195, -4.778712949366735e-05]},{"problem": "ToyProblem", "trial": 4, "n_qubits": 3, "ansatz": "2-layer HEA", "cost": "local", "optimizer": "SGD_lr=1", "error_threshold": 0.0016, "noise_model": "Bitflip=0.05", "TTS": 78.63531303405762, "STS": 61, "final_EAD": 0.0006668269558576601, "EAD_history": [0.5032865145133291, 0.07341486812743976, 0.023901199564619717, 0.00950323158625415, 0.0027208380558937325, 0.0020839628133647067, 0.0006668269558576601], "cost_history": [0.4998757442058882, 0.193048602475683, 0.07222741542030686, 0.04806570557110368, 0.03709899052281729, 0.030576274598140996, 0.026074795532199435, 0.022666073293835243, 0.01993321632639289, 0.01766345974504696, 0.01573543262513255, 0.01407296333785063, 0.012624385098502888, 0.011352491927404285, 0.010229273618803214, 0.009232940724389238, 0.008346119766348414, 0.007554686639123009, 0.006846971619750675, 0.006213194996016802, 0.005645054414856576, 0.005135417118859342, 0.004678087555628596, 0.004267630655524157, 0.00389923693174149, 0.0035686192621104396, 0.0032719337008786376, 0.003005718440088845, 0.0027668463650292185, 0.0025524876767839544, 0.0023600798722470118, 0.002187303028205023, 0.0020320588628330305, 0.0018924524669963194, 0.0017667759259957228, 0.0016534933040818767, 0.0015512266519152051, 0.0014587428327170193, 0.001374941056623502, 0.0012988410739465106, 0.0012295720147459943, 0.0011663618810140441, 0.001108527704412443, 0.0010554663811704335, 0.001006646189774807, 0.000961598988835688, 0.0009199130837077019, 0.0008812267421087205, 0.0008452223318356489, 0.000811621047960398, 0.0007801781927551654, 0.0007506789689424864, 0.0007229347455610657, 0.0006967797555579858, 0.0006720681849888832, 0.0006486716151624661, 0.0006264767810719718, 0.0006053836117930755, 0.0005853035210767188, 0.000566157919030752, 0.0005478769184176224], "model_weights": [0.5823546286425858, 0.49205380181934105, 0.5750747717132623, 0.2435895565936418, 0.0012486838500908484, -0.17757375055339786, 0.05977678617395856, 0.7499253797036924, 0.09906426948808543, 1.0844284768474182, 0.9220725408473085, 0.000527336051388552, -0.0017426404926178583, 0.00027177207253859827, 0.0009047184214830796, 0.0001372023775941892, -0.0015710159513885149, -0.0008897928366682511, -0.0001917740323498421, 0.002506805814543832, 0.0013649860441546438, 0.0010609780065884498, -0.00024253139576332544, -0.0002905751760138224, 0.000134402103679756, 0.0015877630244620048, -0.0003656967045952697, 0.0005073488125653437, -0.0003857191930375114, -0.0009788733992930503], "init_weights": [-0.00020508658591011225, -7.697914776337539e-06, 0.0005643686253854352, 0.0009880595319081528, -0.0004042107912427274, -0.0005650861163262415, -8.962030522292977e-05, 0.00030017499627042895, -0.00026183434211840247, 0.0009284751549120386, -0.000502367036449672, 0.000527336051388552, -0.0017426404926178583, 0.00027177207253859827, 0.0009047184214830796, 0.0001372023775941892, -0.0015710159513885149, -0.0008897928366682511, -0.0001917740323498421, 0.002506805814543832, 0.0013649860441546438, 0.0010609780065884498, -0.00024253139576332544, -0.0002905751760138224, 0.000134402103679756, 0.0015877630244620048, -0.0003656967045952697, 0.0005073488125653437, -0.0003857191930375114, -0.0009788733992930503]},{"problem": "ToyProblem", "trial": 0, "n_qubits": 4, "ansatz": "2-layer HEA", "cost": "local", "optimizer": "SGD_lr=1", "error_threshold": 0.0016, "noise_model": "Bitflip=0.05", "TTS": 362.13464093208313, "STS": 141, "final_EAD": 0.0014190790220587077, "EAD_history": [1.0352046260255245, 0.1576908158937185, 0.06265524925653446, 0.034759283065876105, 0.02060956080141332, 0.008525695015287401, 0.0042984672293506915, 0.0034027521544012763, 0.002214651519874256, 0.0020504506275952033, 0.0016403710365851523, 0.0016996908267320142, 0.0016519893526687427, 0.002122917857517121, 0.0014190790220587077], "cost_history": [0.4999065926648643, 0.26575232172561547, 0.12760972194300713, 0.0716709234979816, 0.04993039618173262, 0.03888741677944263, 0.03189124106028296, 0.026904435872845966, 0.023121127088146343, 0.020144577617824733, 0.017746031830935427, 0.01577896908226495, 0.014142890172649358, 0.01276565380851935, 0.011593827186003103, 0.010586941121245641, 0.009713839649198863, 0.008950240884759098, 0.008277041139716834, 0.007679097615237163, 0.0071443319873433775, 0.006663056794162403, 0.0062274612493533055, 0.005831214095332771, 0.005469154221998285, 0.005137048224328422, 0.004831399682912296, 0.004549298792854206, 0.004288303676111271, 0.004046346678040769, 0.003821660411307215, 0.003612719421618893, 0.003418194208872183, 0.003236915009999064, 0.0030678432814926215, 0.0029100492423919655, 0.002762694175922009, 0.0026250164578169866, 0.0024963204951246043, 0.002375967931783296, 0.0022633706148987853, 0.002157984925241496, 0.0020593071625361614, 0.001966869745029576, 0.0018802380371900074, 0.0017990076621536844, 0.001722802188986794, 0.0016512711109341605, 0.00158408805105964, 0.0015209491473130443, 0.001461571581063248, 0.0014056922222734913, 0.0013530663714542146, 0.0013034665837270976, 0.0012566815642293672, 0.0012125151269670176, 0.0011707852112909922, 0.0011313229517005419, 0.0010939717977119234, 0.0010585866812723999, 0.0010250332296760645, 0.000993187022257258, 0.0009629328893060451, 0.0009341642517667337, 0.0009067825003049035, 0.000880696412342008, 0.0008558216056347989, 0.0008320800269530637, 0.0008093994743801902, 0.0007877131517375902, 0.0007669592536109215, 0.0007470805794573265, 0.0007280241752645189, 0.0007097410012465444, 0.0006921856240809654, 0.0006753159322229196, 0.000659092872861089, 0.0006434802091315195, 0.0006284442962481429, 0.0006139538752659712, 0.0005999798832399539, 0.0005864952786161504, 0.0005734748807377232, 0.0005608952224092079, 0.0005487344145427286, 0.0005369720219378094, 0.0005255889493316901, 0.0005145673369028048, 0.0005038904644685815, 0.0004935426636624718, 0.00048350923744827634, 0.00047377638634832353, 0.0004643311408348283, 0.00045516129935985195, 0.000446255371545079, 0.00043760252609775785, 0.00042919254303813714, 0.000421015769876687, 0.0004130630813933833, 0.0004053258427125228, 0.0003977958753830224, 0.0003904654262077978, 0.0003833271385770831, 0.00037637402609735915, 0.00036959944830694536, 0.0003629970883051725, 0.0003565609321241614, 0.0003502852496973796, 0.0003441645772834234, 0.0003381937012238989, 0.0003323676429186073, 0.0003266816449153942, 0.00032113115802318015, 0.00031571182935730135, 0.000310419491243219, 0.0003052501509046568, 0.0003001999808747158, 0.00029526531006579537, 0.0002904426154518025, 0.0002857285143059718, 0.00028111975695521707, 0.00027661322000754884, 0.0002722059000174748, 0.0002678949075541892, 0.00026367746163974415, 0.00025955088453427644, 0.0002555125968379812, 0.00025156011288546276, 0.00024769103641675283, 0.0002439030564983513, 0.00024019394368007818, 0.0002365615463715831, 0.00023300378741825112, 0.00022951866087139727, 0.0002261042289298798, 0.0002227586190488018, 0.00021948002119964727, 0.0002162666852769668, 0.00021311691863468152, 0.00021002908375133966, 0.00020700159601383383], "model_weights": [0.5807782174290896, 0.4358587611403444, 0.4358586678848157, 0.5801913088605162, 0.25804763416412185, -0.03165151473573328, -0.03233623981597627, 0.2581334092506112, -0.12322666198796346, -0.12266394573413014, 0.7468872708149417, 0.09797833034071826, 0.0974826139646973, 0.7474155663708962, 1.1450191729374108, 1.1456296029248378, 0.0009770078611210816, -0.0006296397938830586, 0.00013744600186388532, 0.0022534805184098923, 0.0017471478983734458, 0.0007483655157636385, 0.0007288364446926736, 0.0022616133109304663, -0.0006527874026696078, 0.0004752797633522922, 0.0022430781856081165, 0.0014117127701350092, 7.310559672092269e-05, 0.0007272948757463105, 0.00016967846630344986, 0.00032741362077419217, 0.0013128061759448786, 2.5498812423942335e-05, -0.0003183281620909443, 0.0006868875666333228, -0.0015987448848512136, -0.001055138722832661, 0.00015002798339421782, -0.001118542619109963], "init_weights": [0.0012047449307890556, -0.0005984664547763693, 0.0016939086112929458, -0.00033804114164221084, -0.00045786772124059425, 0.00014687164483609711, 0.0003403085783178304, -0.0006718021418465743, 0.00010399117609609557, 0.0016900258769926876, -0.00047404245548035334, -0.0013869788417260485, -0.0007435008753044782, -0.0003757747544139543, -0.0007475585833638203, 0.001361443066981981, 0.0009770078611210816, -0.0006296397938830586, 0.00013744600186388532, 0.0022534805184098923, 0.0017471478983734458, 0.0007483655157636385, 0.0007288364446926736, 0.0022616133109304663, -0.0006527874026696078, 0.0004752797633522922, 0.0022430781856081165, 0.0014117127701350092, 7.310559672092269e-05, 0.0007272948757463105, 0.00016967846630344986, 0.00032741362077419217, 0.0013128061759448786, 2.5498812423942335e-05, -0.0003183281620909443, 0.0006868875666333228, -0.0015987448848512136, -0.001055138722832661, 0.00015002798339421782, -0.001118542619109963]},{"problem": "ToyProblem", "trial": 1, "n_qubits": 4, "ansatz": "2-layer HEA", "cost": "local", "optimizer": "SGD_lr=1", "error_threshold": 0.0016, "noise_model": "Bitflip=0.05", "TTS": 235.77521204948425, "STS": 91, "final_EAD": 0.0015206177162102753, "EAD_history": [1.0236153358979136, 0.15582656439016163, 0.06939561030578367, 0.03151900301591165, 0.01641967182260042, 0.010361903574566785, 0.004632895936671327, 0.003221695279729726, 0.0017865231264072587, 0.0015206177162102753], "cost_history": [0.49995265329806066, 0.26578901388351694, 0.12756605262299214, 0.07158359496985228, 0.04984521351140858, 0.038811381567753045, 0.03182560471749568, 0.026849143584326274, 0.023075709254452847, 0.020108413943716985, 0.017718432680918272, 0.015759203918723652, 0.014130204208906316, 0.012759283870557803, 0.011593018030527202, 0.010590960934051319, 0.009721993328726253, 0.008961880252613685, 0.008291571802474085, 0.007695982643456112, 0.007163092848892605, 0.006683272105025673, 0.00624876392595719, 0.005853287446506261, 0.005491727437100635, 0.00515989161938446, 0.004854319973559729, 0.004572134579995613, 0.004310921261320655, 0.00406863627184767, 0.0038435327575125355, 0.0036341028328938374, 0.0034390319907470768, 0.0032571632397885297, 0.003087468903699875, 0.002929028441008452, 0.0027810109854908838, 0.002642661578095784, 0.0025132902779677058, 0.002392263512923598, 0.0022789971672937948, 0.0021729510143852493, 0.0020736241874620975, 0.0019805514516349487, 0.0018933000929727828, 0.0018114672835026213, 0.0017346778138370156, 0.0016625821109476635, 0.0015948544785607255, 0.001531191513054364, 0.0014713106595352077, 0.0014149488817876144, 0.0013618614266061035, 0.0013118206681374533, 0.0012646150216982233, 0.001220047919335443, 0.0011779368414639446, 0.0011381124003794763, 0.0011004174724970617, 0.0010647063768735032, 0.0010308440980515976, 0.0009987055515716659, 0.0009681748906758547, 0.0009391448528241475, 0.0009115161446894282, 0.0008851968642872299, 0.000860101958895132, 0.0008361527173733063, 0.0008132762954783934, 0.0007914052727316379, 0.0007704772393813397, 0.000750434411991463, 0.0007312232761825799, 0.0007127942550560484, 0.0006951014018591883, 0.0006781021154600997, 0.0006617568772447902, 0.0006460290080789188, 0.000630884444036417, 0.0006162915296235583, 0.000602220827305211, 0.0005886449421759754, 0.0005755383606872444, 0.0005628773023937939, 0.0005506395837432398, 0.0005388044929919289, 0.0005273526753815094, 0.0005162660277737152, 0.0005055276019851895, 0.0004951215161292932, 0.0004850328733023157], "model_weights": [-0.5751562090070705, -0.4346607093715791, -0.434873250990437, -0.5760127551642268, -0.27987036552587524, 0.003229169915448203, 0.004362962540377692, -0.2803758114265959, 0.1649153176890934, 0.16397527533180814, -0.7284151375712129, -0.13668863335551382, -0.13473562989468346, -0.7271756951104807, -1.1019730628121667, -1.103522160092683, -3.439210410801232e-05, -0.0004504458099998366, -0.00024048347641577515, -0.0002907331882035788, -0.0013146102516046673, -0.0002785506742394493, 0.0010247144031407757, -0.000281662008671977, 0.001194659783181889, -0.00011305010736783303, 0.00048532024021990194, -0.0006937031133738893, 0.0005739394493377085, 0.0005181598613740323, 0.000556118530711842, 1.5861502997629789e-06, 0.0010924316331039597, -0.0018889130049429142, 0.0014756535292886983, 0.0012594827606522282, 0.0005199827028670164, -0.0005628864632604646, 0.0009425338311560868, 0.0016702161002333654], "init_weights": [0.0010126077002344683, -0.0006969192484557256, -0.0005986806443009186, -0.0010881275171715783, -0.000370218120525517, 0.0005008401157704063, 0.00253728244702441, -0.0014321801164489233, -0.00041450747629135764, -7.752291440965017e-05, 0.001763961445952926, -0.0011240338086224775, -0.00048438382050939547, 0.00029699643391002103, -6.321035427368463e-06, -0.00019757264197987383, -3.439210410801232e-05, -0.0004504458099998366, -0.00024048347641577515, -0.0002907331882035788, -0.0013146102516046673, -0.0002785506742394493, 0.0010247144031407757, -0.000281662008671977, 0.001194659783181889, -0.00011305010736783303, 0.00048532024021990194, -0.0006937031133738893, 0.0005739394493377085, 0.0005181598613740323, 0.000556118530711842, 1.5861502997629789e-06, 0.0010924316331039597, -0.0018889130049429142, 0.0014756535292886983, 0.0012594827606522282, 0.0005199827028670164, -0.0005628864632604646, 0.0009425338311560868, 0.0016702161002333654]},{"problem": "ToyProblem", "trial": 2, "n_qubits": 4, "ansatz": "2-layer HEA", "cost": "local", "optimizer": "SGD_lr=1", "error_threshold": 0.0016, "noise_model": "Bitflip=0.05", "TTS": 289.48579621315, "STS": 111, "final_EAD": 0.0012944056417201865, "EAD_history": [1.0243722125915287, 0.15617033751081402, 0.0683754181153849, 0.03486357819088069, 0.018372234074396514, 0.006814032046643892, 0.004341279934268246, 0.004346694860745961, 0.0033502755067825254, 0.0017531610744035875, 0.0017747719171763022, 0.0012944056417201865], "cost_history": [0.4995369828044457, 0.2653717168795904, 0.12724025075086426, 0.071423870244126, 0.049765455419487015, 0.038769516403448445, 0.031804071242661436, 0.026838599519292294, 0.02307058511370491, 0.020105265374103565, 0.017715137271402837, 0.01575450291951558, 0.014123416447323622, 0.012750116488235208, 0.011581436250220067, 0.010577096243505335, 0.00970607806655055, 0.008944201111629302, 0.008272437258176668, 0.007675700761462068, 0.00714195682767621, 0.006661551523844844, 0.00622670012017934, 0.005831091786114406, 0.005469581569203963, 0.00513794896730152, 0.004832707972122152, 0.00455095727543009, 0.004290262019809754, 0.0040485604288330035, 0.003824090104890543, 0.003615329887971641, 0.003420954023211409, 0.0032397960544228166, 0.0030708203899896813, 0.002913099908414485, 0.0027657983067773673, 0.0026281561640370543, 0.0024994799060213957, 0.002379133030723235, 0.002266529089620606, 0.0021611260298939894, 0.0020624215891286712, 0.001969949502728996, 0.0018832763384539764, 0.0018019988150542177, 0.001725741495353983, 0.00165415477011005, 0.0015869130691571476, 0.0015237132519326235, 0.0014642731414268861, 0.0014083301747482846, 0.0013556401504013493, 0.0013059760575973023, 0.001259126976794478, 0.0012148970435357231, 0.001173104469742503, 0.0011335806181315133, 0.0010961691264790296, 0.0010607250791914713, 0.0010271142241295994, 0.0009952122329466295, 0.0009649040033985479, 0.0009360830021635236, 0.000908650646783693, 0.0008825157253156135, 0.0008575938522897286, 0.0008338069595325015, 0.0008110828203922171, 0.0007893546058842515, 0.0007685604712429073, 0.0007486431713761288, 0.0007295497037060339, 0.0007112309768960712, 0.0006936415039808241, 0.000676739118445624, 0.000660484711839715, 0.0006448419915429104, 0.0006297772573596871, 0.0006152591956665732, 0.0006012586898845318, 0.0005877486461216552, 0.0005747038328757226, 0.0005621007337531236, 0.00054991741222149, 0.0005381333874679428, 0.000526729520495206, 0.0005156879096488987, 0.0005049917948148908, 0.0004946254695825103, 0.0004845742007280607, 0.00047482415440325276, 0.00046536232847643744, 0.0004561764905064436, 0.00044725512087295805, 0.0004385873606239654, 0.00043016296363956874, 0.00042197225273787886, 0.0004140060793891287, 0.00040625578671887874, 0.00039871317552264696, 0.00039137047302795214, 0.00038422030416590536, 0.0003772556651345238, 0.0003704698990579791, 0.00036385667355515183, 0.0003574099600590075, 0.00035112401473097465, 0.0003449933608361544, 0.00033901277245235173, 0.0003331772594024618], "model_weights": [0.5768632919408028, 0.4361810802017584, 0.4362186431122159, 0.5774946575008125, 0.2681251598615238, -0.015392322388309223, -0.016734683228751854, 0.26944252150029774, -0.14659839587959936, -0.14572249155522046, 0.7398445668241377, 0.11832973239331386, 0.11774294734516405, 0.7380052965932735, 1.1234736648734938, 1.1242320143826963, -0.001993013534432287, 0.00038170454439122276, -0.0020105425311206806, 0.0006453169770522461, -0.0019538021896570268, 0.0007408815534947155, 0.001551522733411926, 0.0005064094809372461, 0.0002757212175910231, -0.00025117413987480917, 0.000694381443591443, -0.0007014189913710238, 0.00034668951162519806, -0.0010089924825073334, 0.00046643168516364046, 0.0016759372079838968, 0.000578386449039324, 0.00121098874098626, 0.0006429345652571487, 0.0007610856202277265, -0.0002904421376760006, -0.0003540709363627268, -0.000267073673033902, 0.0008672740987739413], "init_weights": [-0.0016569892869348686, 0.0017059548592800607, 0.0008179442640519649, -0.0002008632706791291, -0.0006653713383450888, 0.0015788522394893788, -0.001902550499928208, 5.962452201976539e-06, 0.0007273459884506393, -0.0008573252860491825, -0.0005986091118623003, -0.0009601906203995802, 0.0011241427412939011, 0.0009996072976503525, 0.0009898815382695671, 0.00259635543924216, -0.001993013534432287, 0.00038170454439122276, -0.0020105425311206806, 0.0006453169770522461, -0.0019538021896570268, 0.0007408815534947155, 0.001551522733411926, 0.0005064094809372461, 0.0002757212175910231, -0.00025117413987480917, 0.000694381443591443, -0.0007014189913710238, 0.00034668951162519806, -0.0010089924825073334, 0.00046643168516364046, 0.0016759372079838968, 0.000578386449039324, 0.00121098874098626, 0.0006429345652571487, 0.0007610856202277265, -0.0002904421376760006, -0.0003540709363627268, -0.000267073673033902, 0.0008672740987739413]},{"problem": "ToyProblem", "trial": 3, "n_qubits": 4, "ansatz": "2-layer HEA", "cost": "local", "optimizer": "SGD_lr=1", "error_threshold": 0.0016, "noise_model": "Bitflip=0.05", "TTS": 334.8620660305023, "STS": 121, "final_EAD": 0.0010118593010945691, "EAD_history": [1.0160049002693243, 0.1502709668502188, 0.06829322487950293, 0.029728845695013346, 0.015971192740630177, 0.009575616297518774, 0.004543202019191623, 0.0028119097758029146, 0.002723301309397673, 0.0018484068059090215, 0.0016475339317550948, 0.002028312458492026, 0.0010118593010945691], "cost_history": [0.49971924933447753, 0.2656146513885246, 0.12751182727190058, 0.07157646090545183, 0.0498576667790927, 0.03883191866395297, 0.031848396347130215, 0.026870895785846782, 0.023094529170831324, 0.020123260245293262, 0.01772881209120808, 0.015764987823483456, 0.014131508727238895, 0.012756386241825346, 0.01158629581898063, 0.010580847008504257, 0.009708942621513839, 0.00894634573228742, 0.00827398777851207, 0.007676753879909737, 0.007142588194247679, 0.006661821532478407, 0.006226658052189804, 0.005830778763892597, 0.005469032650840533, 0.005137194622370944, 0.004831775114024495, 0.004549869978509258, 0.00428904201483532, 0.0040472274448385415, 0.003822662106413799, 0.0036138232427116446, 0.003419383624781225, 0.0032381754172736144, 0.003069161728064651, 0.002911414205101104, 0.002764095380892395, 0.0026264447346105446, 0.00249776765728138, 0.002377426677801664, 0.0022648344449238134, 0.0021594480697604834, 0.002060764520221303, 0.0019683168275520524, 0.0018816709193863468, 0.0018004229363596802, 0.0017241969226933773, 0.0016526428071745314, 0.0015854346111336959, 0.0015222688355959746, 0.0014628629917341485, 0.001406954247879566, 0.001354298173254942, 0.0013046675637947147, 0.0012578513392912938, 0.0012136535039701246, 0.001171892164677224, 0.001132398602361473, 0.0010950163935913304, 0.0010596005795685537, 0.0010260168805930614, 0.0009941409542391089, 0.0009638576956867984, 0.0009350605787609712, 0.0009076510362576728, 0.0008815378781606986, 0.0008566367463165303, 0.0008328696041275951, 0.0008101642597859726, 0.0007884539215518571, 0.0007676767835586018, 0.0007477756406240599, 0.0007286975305464405, 0.0007103934023690583, 0.0006928178091286097, 0.0006759286236205364, 0.0006596867757570068, 0.0006440560101325654, 0.0006290026624643508, 0.0006144954536216884, 0.0006005053000202598, 0.0005870051392128373, 0.0005739697695637536, 0.0005613757029625521, 0.0005492010295873873, 0.0005374252937893065, 0.0005260293802240024, 0.0005149954094236242, 0.0005043066420455933, 0.0004939473910954839, 0.0004839029414675511, 0.0004741594761987211, 0.0004647040088706089, 0.00045552432165041346, 0.00044660890848202683, 0.00043794692299775617, 0.00042952813074303986, 0.0004213428653406237, 0.00041338198826162964, 0.0004056368518831621, 0.0003980992655568394, 0.000390761464416467, 0.00038361608069947817, 0.00037665611735404614, 0.0003698749237375787, 0.00036326617322707255, 0.0003568238425732395, 0.0003505421928491903, 0.00034441575185728546, 0.00033843929786914195, 0.0003326078445824998, 0.00032691662719647185, 0.0003213610895054786, 0.00031593687193104403, 0.00031063980040924033, 0.00030546587606578024, 0.0003004112656100899, 0.00029547229239551553, 0.0002906454280862669, 0.0002859272848833583, 0.000281314608268024], "model_weights": [-0.5790177148444174, -0.43702050606460396, -0.4364610381384509, -0.5784327012563755, -0.26483540929571875, 0.02172162885867868, 0.02239476440598436, -0.26450554157680073, 0.13807559147707876, 0.13713066445825303, -0.7414743426377317, -0.11007804763344604, -0.11060355237598626, -0.7423650247009146, -1.1317691746800902, -1.131767032414789, 0.0006704371764115851, 0.0016298377162531625, -0.0003617381003485896, -0.0003730324967334684, 0.0002475842835248807, 0.0012902948612693158, 0.00034332109483320574, -0.00034529166159677727, 0.00047416014750956126, -0.0009038906884452075, 0.00022794882903764418, 0.00025286731631454605, 2.9739060228840305e-05, -0.00052439295182785, -0.000935946088295574, 0.0007537777594657027, -0.0010844851480654818, -0.0012360323279800387, -0.0006620084156970662, 0.0008113488200741409, 0.0005162480682292824, 0.0006953953605963953, -0.0002653140892032372, 0.00045739941302975703], "init_weights": [0.00011542718548634436, -0.0013839737443998446, -0.001461910351971684, 0.0006957880832238411, -1.359868011851466e-05, -0.0001851293235240771, 0.0003384784255003897, 0.0006719463202966316, 0.000754225717012121, -0.0016540386033378558, 0.0010258284640759596, 0.0014279153971474287, -0.0006833737334145314, -0.0001235781388790386, 0.0004061253476782637, -0.0021761560199499022, 0.0006704371764115851, 0.0016298377162531625, -0.0003617381003485896, -0.0003730324967334684, 0.0002475842835248807, 0.0012902948612693158, 0.00034332109483320574, -0.00034529166159677727, 0.00047416014750956126, -0.0009038906884452075, 0.00022794882903764418, 0.00025286731631454605, 2.9739060228840305e-05, -0.00052439295182785, -0.000935946088295574, 0.0007537777594657027, -0.0010844851480654818, -0.0012360323279800387, -0.0006620084156970662, 0.0008113488200741409, 0.0005162480682292824, 0.0006953953605963953, -0.0002653140892032372, 0.00045739941302975703]},{"problem": "ToyProblem", "trial": 4, "n_qubits": 4, "ansatz": "2-layer HEA", "cost": "local", "optimizer": "SGD_lr=1", "error_threshold": 0.0016, "noise_model": "Bitflip=0.05", "TTS": 313.48566913604736, "STS": 111, "final_EAD": 0.0015254396629948105, "EAD_history": [1.0267506432797116, 0.15718501883519762, 0.06638825132727232, 0.0336998733659385, 0.018023386047266242, 0.009304502938134774, 0.00653261633237719, 0.0040305647890349836, 0.002722638004192347, 0.0034126207277700763, 0.0016469989713852964, 0.0015254396629948105], "cost_history": [0.49998798599382893, 0.26570575225745063, 0.12742727793413322, 0.07157974225338709, 0.04988540829758925, 0.03886358536263884, 0.03187932807484084, 0.026900172000651923, 0.023122154031363695, 0.020149419034119265, 0.01775367810151046, 0.015788685831087723, 0.014154120590729291, 0.012777964540798659, 0.011606876033413926, 0.010600456313566875, 0.009727605559070651, 0.008964087505486995, 0.008290835891855586, 0.007692738699020707, 0.007157742846140347, 0.006676181439991435, 0.006240260299290701, 0.0058436614178110635, 0.005481234116929634, 0.005148753073243639, 0.004842728011675901, 0.004560253693610072, 0.004298891538639937, 0.004056576184390537, 0.003831541751569967, 0.003622263693026373, 0.0034274129647854368, 0.0032458199297343837, 0.003076445936111283, 0.0029183609354560547, 0.0027707258417737912, 0.002632778603063657, 0.002503823171775388, 0.0023832207328448596, 0.0022703826852300546, 0.0021647649821502912, 0.0020658635219633625, 0.001973210350279031, 0.001886370488053235, 0.001804939242966097, 0.0017285398946965125, 0.0016568216706558947, 0.0015894579488893168, 0.0015261446403886936, 0.001466598714991163, 0.0014105568441418748, 0.0013577741406936017, 0.0013080229811088806, 0.0012610918992921882, 0.0012167845441425351, 0.0011749186949900348, 0.0011353253305811384, 0.0010978477483316595, 0.001062340731292133, 0.001028669760757217, 0.0009967102727644894, 0.0009663469569088368, 0.0009374730960065025, 0.0009099899451818771, 0.000883806148955113, 0.0008588371949005968, 0.0008350049024141715, 0.0008122369451106781, 0.0007904664053393629, 0.0007696313592987503, 0.0007496744912214304, 0.0007305427350956517, 0.0007121869424140392, 0.0006945615744456957, 0.0006776244175711876, 0.0006613363202466194, 0.0006456609502101807, 0.0006305645705953489, 0.0006160158336586674, 0.0006019855909020766, 0.0005884467184089082, 0.0005753739562908144, 0.0005627437611891439, 0.0005505341708447187, 0.0005387246798010947, 0.0005272961253757757, 0.000516230583077093, 0.0005055112707153531, 0.0004951224604956561, 0.00048504939843896366, 0.00047527823052390117, 0.000465795934990354, 0.0004565902602799987, 0.00044764966814087037, 0.0004389632814577604, 0.0004305208363959423, 0.0004223126384981235, 0.00041432952238473764, 0.0004065628147496003, 0.00039900430036893253, 0.0003916461908560209, 0.00038448109592698065, 0.00037750199696040543, 0.0003707022226511758, 0.0003640754265751833, 0.000357615566503211, 0.00035131688531170324, 0.00034517389335220194, 0.00033918135215599277, 0.0003333342593604405], "model_weights": [0.578202123249157, 0.43749253445696773, 0.4367641532589814, 0.5778147880321235, 0.26728907383912665, -0.016527508128366244, -0.015400363314821593, 0.267934831643561, -0.14534050337973478, -0.14663978859950252, 0.7394682655219312, 0.1184379180438197, 0.11729248304830371, 0.7390797521474591, 1.1220041524888646, 1.1237605184464807, 0.0005411777124061411, -0.0005915367355916404, 0.0004284893590523584, 0.000576670171430039, -0.00027415091454863997, -0.00041650884920666593, 0.0019561145841010146, -0.0013858507374154465, -0.00026277317902574686, -8.152045905980003e-05, -0.001335531301495725, 0.0021671023017952474, 0.0008524514083416262, 0.0005221842786508413, -0.0015009755214793587, -0.000535013750818055, -0.001104180616129719, -0.0010218793905537832, -0.0012324726224383646, -0.0004504949472513191, 0.0001234389193896435, 9.514843011698676e-05, 2.778856306999527e-05, 0.00013720731956047092], "init_weights": [0.00046471359121882754, 0.0011711026335612397, 0.00010460445110605892, 0.0005997040931749966, -0.0003391247797153402, -0.0006093594625666607, 0.0007622492705893511, 0.00020889276206631486, 0.0006732499885401729, -0.0013156542258428027, 0.0008373045923739237, -8.139999159713551e-05, -0.0007558384185469308, -0.00014241068859257203, -0.00045932419130242144, -0.001022598860680524, 0.0005411777124061411, -0.0005915367355916404, 0.0004284893590523584, 0.000576670171430039, -0.00027415091454863997, -0.00041650884920666593, 0.0019561145841010146, -0.0013858507374154465, -0.00026277317902574686, -8.152045905980003e-05, -0.001335531301495725, 0.0021671023017952474, 0.0008524514083416262, 0.0005221842786508413, -0.0015009755214793587, -0.000535013750818055, -0.001104180616129719, -0.0010218793905537832, -0.0012324726224383646, -0.0004504949472513191, 0.0001234389193896435, 9.514843011698676e-05, 2.778856306999527e-05, 0.00013720731956047092]},{"problem": "ToyProblem", "trial": 0, "n_qubits": 5, "ansatz": "2-layer HEA", "cost": "local", "optimizer": "SGD_lr=1", "error_threshold": 0.0016, "noise_model": "Bitflip=0.05", "TTS": 1599.3538401126862, "STS": 231, "final_EAD": 0.0009370744337841763, "EAD_history": [1.88220853611333, 0.31056643710906645, 0.1355422263309778, 0.06906162893333169, 0.03417856096814651, 0.01999446203334311, 0.012475690140902619, 0.007461229029734462, 0.006595304199406386, 0.006725086076387917, 0.004951255466228322, 0.0026232325409647973, 0.0042533048127704216, 0.002772565490815135, 0.003692571961420204, 0.001810943903110024, 0.0029749053253788904, 0.0026221313124954937, 0.0027730568829239673, 0.0030461755576864087, 0.0018704632735767842, 0.004552158201640701, 0.0022777337132098446, 0.0009370744337841763], "cost_history": [0.49985564566978424, 0.3034189814042712, 0.18208169355797188, 0.11634002362249651, 0.08003910015829435, 0.0601908808549807, 0.04804830074426025, 0.03979441465757344, 0.03376851698558886, 0.02914887315418352, 0.025481840949130086, 0.02249514191422025, 0.02001430707521057, 0.017921578955769624, 0.01613409887517664, 0.01459156944385337, 0.013248888522267244, 0.012071543529246165, 0.01103261585352655, 0.010110765739467842, 0.009288837083654744, 0.008552867215408877, 0.007891368903740259, 0.0072947999596969515, 0.006755164955293214, 0.006265711781567429, 0.0058206974456441185, 0.0054152051832137005, 0.005045000120641241, 0.0047064142545859, 0.004396253980483877, 0.004111725145473533, 0.0038503718535508047, 0.0036100261609269824, 0.003388766468574611, 0.0031848829157022918, 0.00299684845021847, 0.002823294533790044, 0.00266299065377118, 0.0025148269793653366, 0.0023777996273615654, 0.0022509981028672743, 0.0021335945593518035, 0.002024834585096058, 0.0019240292735034359, 0.0018305483754917917, 0.001743814365448848, 0.0016632972796095657, 0.001588510208363314, 0.0015190053429139927, 0.0014543704925232825, 0.001394226001904142, 0.001338222009547252, 0.0012860359972589053, 0.0012373705892043674, 0.001191951565536642, 0.0011495260613871294, 0.001109860926821138, 0.0010727412273865977, 0.0010379688682549126, 0.001005361327763965, 0.0009747504884923264, 0.0009459815559135221, 0.0009189120562552722, 0.00089341090645495, 0.0008693575501699247, 0.000846641154623462, 0.0008251598637522561, 0.0008048201036738312, 0.0007855359369247084, 0.0007672284622706749, 0.0007498252571834785, 0.0007332598603027041, 0.0007174712913985415, 0.0007024036065054196, 0.0006880054860358698, 0.0006742298538092717, 0.0006610335250199495, 0.000648376881285273, 0.0006362235709954089, 0.0006245402332722416, 0.0006132962439325262, 0.0006024634819272734, 0.0005920161148110781, 0.000581930401867492, 0.0005721845135986947, 0.000562758366353111, 0.0005536334709468904, 0.0005447927941904518, 0.0005362206323190066, 0.0005279024953694922, 0.0005198250016318906, 0.0005119757813394354, 0.0005043433888461957, 0.0004969172225731122, 0.0004896874520693983, 0.00048264495157918086, 0.0004757812395584926, 0.00046908842361420566, 0.0004625591504025528, 0.00045618656003904023, 0.0004499642446229579, 0.0004438862105095587, 0.00043794684398995587, 0.0004321408800697646, 0.0004264633740692636, 0.0004209096757845643, 0.00041547540597203225, 0.0004101564349504039, 0.00040494886311776, 0.00039984900320977346, 0.0003948533641391916, 0.000389958636266341, 0.00038516167797136847, 0.00038045950340409584, 0.00037584927130551726, 0.000371328274799132, 0.0003668939320587983, 0.0003625437777814988, 0.00035827545537781, 0.0003540867098241751, 0.0003499753811105344, 0.00034593939822696873, 0.0003419767736463908, 0.0003380855982497155, 0.0003342640366610916, 0.0003305103229483408, 0.00032682275666079397, 0.00032319969917327107, 0.0003196395703054522, 0.0003161408451972103, 0.0003127020514138712, 0.0003093217662609171, 0.000305998614291092, 0.00030273126498953085, 0.00029951843061559735, 0.0002963588641934911, 0.000293251357637081, 0.00029019473999691847, 0.0002871878758217705, 0.00028422966362223745, 0.00028131903443079365, 0.0002784549504488143, 0.0002756364037737602, 0.0002728624152026349, 0.00027013203310322087, 0.0002674443323463782, 0.0002647984133017367, 0.0002621934008840143, 0.00025962844365190474, 0.0002571027129515402, 0.00025461540210608424, 0.00025216572564268347, 0.00024975291856216275, 0.00024737623563797495, 0.0002450349507511773, 0.0002427283562568272, 0.00024045576237757826, 0.0002382164966240885, 0.0002360099032434615, 0.00023383534268744954, 0.00023169219110558137, 0.00022957983986010566, 0.0002274976950581431, 0.00022544517710515466, 0.00022342172027511875, 0.00022142677229630703, 0.0002194597939561005, 0.00021752025871796254, 0.00021560765235234536, 0.00021372147258663654, 0.0002118612287584365, 0.00021002644149203942, 0.00020821664237719029, 0.0002064313736652168, 0.00020467018797332148, 0.0002029326479984217, 0.0002012183262435352, 0.00019952680474877305, 0.00019785767483726513, 0.00019621053686347256, 0.00019458499997460077, 0.00019298068187600936, 0.0001913972086075022, 0.00018983421432322567, 0.00018829134108250267, 0.00018676823864344216, 0.00018526456426570803, 0.00018377998251678518, 0.00018231416508884823, 0.00018086679061396493, 0.0001794375444927332, 0.00017802611872130836, 0.0001766322117295327, 0.00017525552821878732, 0.00017389577900722708, 0.0001725526808804001, 0.00017122595644253336, 0.0001699153339771442, 0.0001686205473073188, 0.00016734133566209675, 0.0001660774435467416, 0.00016482862061489856, 0.00016359462154841298, 0.0001623752059340955, 0.00016117013815009074, 0.0001599791872531342, 0.00015880212686653072, 0.00015763873507496085, 0.00015648879432100804, 0.00015535209130229655, 0.00015422841687473543, 0.00015311756595637327, 0.00015201933743269613, 0.00015093353406980814, 0.00014985996242172783, 0.0001487984327473435, 0.00014774875892620276, 0.00014671075837674463, 0.00014568425197636348, 0.00014466906398596935, 0.00014366502197316056, 0.00014267195673944855, 0.0001416897022490926, 0.0001407180955589893, 0.00013975697675122634, 0.0001388061888667469, 0.00013786557784134512, 0.00013693499244271656, 0.00013601428420817463, 0.00013510330738752963], "model_weights": [0.6042187341620543, 0.4776781056890041, 0.4245350322251646, 0.48704445042481137, 0.6320351315434104, 0.20193310007763302, -0.07325529628770423, 0.08833186798224787, 0.1700368686138214, -0.06244082101296409, -0.1507115696877282, -0.12987675345963173, 0.015336462378826335, 0.7809562457813823, 0.061152880513857096, 0.12341156066462536, 0.10867669345982237, 1.1310629034120612, 1.0694066590361775, 0.9332466277546981, 0.923125795308427, -0.0008660706384428644, -0.0014346550289681952, -0.0012051815960871, 0.00035170858472375526, 0.001991068776795236, 4.47192693741584e-06, 0.0006072099833353872, -0.00016558724715641374, -0.0014138461302425503, -0.0001766507641328997, 0.001239709153751889, 0.0018973849473016683, -0.0017523129932405046, -0.0011906998880095176, -0.0007480131384479414, -0.0002807360496607867, 0.0010379661506491737, 0.0008485603921809892, 0.00038430272802026933, -0.000734875427322065, -0.0001995695111771818, 0.0012048164378186542, 0.0014728455712586747, -0.0002604037327111806, 0.000858476358373706, 0.00038688685638763374, -0.000599053182815227, 0.0009272497646930056, -0.000654807274082286], "init_weights": [0.0011289449943024763, 0.0012537194229722873, 0.0011368465685014616, 0.0007638214311165409, -0.0002149847253548268, 0.001704826273022764, -8.01599064535951e-05, 0.0003172124646656781, -0.0007457222655213503, -0.0008890365454126117, -0.0010759087166265482, -0.0010888791941983968, -0.0006900035368985319, 0.0005512366766183477, -0.0011847340076323297, 0.00012413264067265362, 0.0019334228821392165, 0.00011054523911110249, -0.0006689296493949531, -0.0008605323044079517, -8.226509327873524e-05, -0.0008660706384428644, -0.0014346550289681952, -0.0012051815960871, 0.00035170858472375526, 0.001991068776795236, 4.47192693741584e-06, 0.0006072099833353872, -0.00016558724715641374, -0.0014138461302425503, -0.0001766507641328997, 0.001239709153751889, 0.0018973849473016683, -0.0017523129932405046, -0.0011906998880095176, -0.0007480131384479414, -0.0002807360496607867, 0.0010379661506491737, 0.0008485603921809892, 0.00038430272802026933, -0.000734875427322065, -0.0001995695111771818, 0.0012048164378186542, 0.0014728455712586747, -0.0002604037327111806, 0.000858476358373706, 0.00038688685638763374, -0.000599053182815227, 0.0009272497646930056, -0.000654807274082286]},{"problem": "ToyProblem", "trial": 1, "n_qubits": 5, "ansatz": "2-layer HEA", "cost": "local", "optimizer": "SGD_lr=1", "error_threshold": 0.0016, "noise_model": "Bitflip=0.05", "TTS": 719.2706439495087, "STS": 91, "final_EAD": 0.0015703590713574403, "EAD_history": [1.8876744665384162, 0.286462346598166, 0.014242460458066734, 0.007533056767961141, 0.0030794061251373855, 0.002573909654104186, 0.0038182965351905127, 0.0023563334721138614, 0.0017636755792699679, 0.0015703590713574403], "cost_history": [0.49978402168576713, 0.3071724567562346, 0.2170038270341152, 0.18994124642096388, 0.17454998412233852, 0.1623022436667485, 0.15115830019835302, 0.1401538468128134, 0.12859217833197628, 0.11581864924380636, 0.10116586103860808, 0.08410548233040172, 0.06485971002693541, 0.04555803586655416, 0.030140800638793208, 0.020551974724723976, 0.015108474579998699, 0.01184446556092672, 0.00973298713949211, 0.008273694778104634, 0.007207409513863838, 0.006391746638633566, 0.005744215132283459, 0.005214632208553616, 0.004771086617311404, 0.004392462238818173, 0.004064278833668722, 0.003776283122400248, 0.0035210018538345267, 0.0032928438816568484, 0.0030875264172179895, 0.002901698626145255, 0.002732688678200479, 0.002578329942113766, 0.0024368390612674595, 0.0023067287407169124, 0.0021867442041390572, 0.002075816082836357, 0.0019730249074306205, 0.001877573925994469, 0.0017887679909203702, 0.0017059969351792548, 0.0016287223172636311, 0.0015564667283551326, 0.001488805073640076, 0.0014253573933156738, 0.0013657828982912568, 0.001309774974522726, 0.001257056967556902, 0.0012073786013444, 0.0011605129171555206, 0.0011162536423546254, 0.0010744129170753847, 0.0010348193208679635, 0.0009973161523611496, 0.0009617599235102747, 0.0009280190368400887, 0.0008959726194759932, 0.0008655094921191653, 0.0008365272546616564, 0.0008089314729965991, 0.0007826349539599153, 0.0007575570972631063, 0.0007336233149277671, 0.0007107645100519755, 0.0006889166078929976, 0.0006680201331965563, 0.0006480198285071515, 0.0006288643088857571, 0.0006105057490427557, 0.0005928995993954578, 0.0005760043279869342, 0.000559781185566377, 0.0005441939914773153, 0.0005292089382316068, 0.0005147944129339499, 0.0005009208338965787, 0.00048756050099052484, 0.00047468745841128257, 0.0004622773687235071, 0.0004503073971111604, 0.0004387561049249422, 0.00042760335167751906, 0.0004168302047419248, 0.0004064188560732318, 0.00039635254534126085, 0.0003866154889322071, 0.0003771928143080361, 0.0003680704992893302, 0.00035923531584380886, 0.0003506747780014918], "model_weights": [-0.6000735710020105, -0.4485992745190238, -0.38156459873848897, -0.4654097951088753, -0.6133499625111616, -0.19529628166455823, 0.09184730467534884, -0.059061865782346075, -0.1463032605726207, 0.024106307947744578, 0.10200224717775885, 0.0752799186776186, 0.0007420921528896394, -0.7902302372746164, -0.06035693126185649, -0.09908435872576671, -0.08585386305210799, -1.152953860253177, -1.1261382062559504, -0.9540392584638936, -0.9567155469846447, 0.001030424999386036, -0.00025280734693887766, 6.741566354142175e-05, -0.00026527326945995354, 0.0005626683122301505, -0.0001176037401775153, 0.002094226549055551, -0.0012395525995290027, -0.00043735983408635154, -0.0018268839307429884, 0.001071108153200098, -2.33608290907344e-05, -0.001344669024963328, 0.0009400436534771493, -0.00038469087438235426, -0.00011130242857478615, 0.00011735652209352463, -0.00120355914983145, -0.000296729075005514, 0.0007415076083998353, 0.00015524978629438091, 0.0017982092581731739, -0.0009249012153000843, -0.0004958095566372823, 0.0017912523340342529, 0.0005893646348367444, -0.00033863952590944545, 0.0010763668538436885, -0.0008105818238587831], "init_weights": [0.0009929818138259478, 0.0007262200082727409, -0.0006112360629754246, 0.00015592837493420996, 0.000247278527986517, 7.506160005924962e-05, 0.0010200726647384287, -0.003317352910752396, 0.00016696159247746236, -0.0008313487612381042, -0.000946328044822957, -0.00045402135983527647, -0.0007330632941809074, 0.0012503264264577371, -0.0006845555640610012, -0.0017965199460033198, 0.0006033226051182988, 0.0001761836296810159, 0.0016216800809745505, -0.00020572046130990147, 0.00038429294826904445, 0.001030424999386036, -0.00025280734693887766, 6.741566354142175e-05, -0.00026527326945995354, 0.0005626683122301505, -0.0001176037401775153, 0.002094226549055551, -0.0012395525995290027, -0.00043735983408635154, -0.0018268839307429884, 0.001071108153200098, -2.33608290907344e-05, -0.001344669024963328, 0.0009400436534771493, -0.00038469087438235426, -0.00011130242857478615, 0.00011735652209352463, -0.00120355914983145, -0.000296729075005514, 0.0007415076083998353, 0.00015524978629438091, 0.0017982092581731739, -0.0009249012153000843, -0.0004958095566372823, 0.0017912523340342529, 0.0005893646348367444, -0.00033863952590944545, 0.0010763668538436885, -0.0008105818238587831]},{"problem": "ToyProblem", "trial": 2, "n_qubits": 5, "ansatz": "2-layer HEA", "cost": "local", "optimizer": "SGD_lr=1", "error_threshold": 0.0016, "noise_model": "Bitflip=0.05", "TTS": 7384.374253034592, "STS": 101, "final_EAD": 0.001520375420172188, "EAD_history": [1.8610910290856508, 0.29320589335677094, 0.018499391517181215, 0.005710931772904777, 0.004998818234458345, 0.0026557313962002446, 0.0042985844227293344, 0.001967771691077752, 0.0024776548398540675, 0.001728990887632858, 0.001520375420172188], "cost_history": [0.4998972188865318, 0.3072212519110558, 0.21696335658556587, 0.18992533435712555, 0.17453976578094743, 0.1622800793130541, 0.15111785002482375, 0.14009259446665173, 0.12850743482215166, 0.1157057742819313, 0.10101799577950121, 0.08391646943793085, 0.06463485496059751, 0.045331018290249325, 0.02995981533063058, 0.02042594001463177, 0.015017318253862488, 0.011773955957132487, 0.009676072419167403, 0.00822665693777136, 0.0071680453946490474, 0.006358590160152333, 0.005716196816665464, 0.005190922331518244, 0.004751016842105493, 0.004375482161146804, 0.0040499290948477484, 0.0037641771019033543, 0.0035108122743386927, 0.003284292519848131, 0.00308037595005467, 0.0028957460407321722, 0.002727759877302338, 0.002574275290462391, 0.0024335296861365263, 0.002304053444747378, 0.002184606879379214, 0.002074133537610545, 0.001971725034785543, 0.0018765941558100963, 0.001788053978294346, 0.0017055014461684892, 0.0016284042798473397, 0.0015562904220718377, 0.001488739435857367, 0.0014253754238229832, 0.0013658611469614668, 0.0013098930993307722, 0.0012571973522929047, 0.001207526024131822, 0.001160654262276739, 0.0011163776491127653, 0.001074509960387382, 0.001034881219122652, 0.000997335998761617, 0.0009617319376992173, 0.0009279384340876717, 0.0008958354951152936, 0.0008653127192562726, 0.0008362683934696191, 0.0008086086901533118, 0.0007822469509741192, 0.0007571030466342887, 0.0007331028032014353, 0.0007101774869791022, 0.0006882633409944772, 0.0006673011671275986, 0.0006472359486953128, 0.0006280165089778134, 0.000609595201760238, 0.0005919276304315879, 0.0005749723926379846, 0.0005586908478208419, 0.0005430469053012699, 0.0005280068308466945, 0.0005135390698786657, 0.0004996140857102538, 0.00048620421133799274, 0.00047328351354020137, 0.0004608276680958534, 0.0004488138451171908, 0.00043722060356365944, 0.00042602779411826663, 0.00041521646967751513, 0.000404768802787725, 0.0003946680094322197, 0.00038489827860915815, 0.00037544470722650214, 0.00036629323985593043, 0.0003574306129471294, 0.00034884430313780745, 0.0003405224793225359, 0.00033245395817671497, 0.00032462816286960017, 0.00031703508470565245, 0.000309665247460289, 0.0003025096742224065, 0.00029555985652551797, 0.0002888077256052446, 0.0002822456256298955, 0.0002758662887358265], "model_weights": [-0.6010134246700936, -0.44774469971622577, -0.3815988388233785, -0.46711979226976236, -0.6148392467018683, -0.19215011220169168, 0.09491382370027389, -0.04636015701131885, -0.1418595109734526, 0.020202251215630827, 0.09247551481831323, 0.06677022519171064, 0.0076193846573630285, -0.7923242973533076, -0.05183849166978032, -0.09007867123123489, -0.08271562889805474, -1.1614288781195137, -1.1381649362877317, -0.9527522454325177, -0.9610860942647746, -0.0007515460342212231, -0.00015542439676996406, 0.00040543871553171167, 0.00013614565581303477, -0.00019134310855543763, 1.9270162693570926e-05, 0.0006415205090793121, -0.0017699174140171465, 0.000164216069467379, 0.001035746372486661, -0.0007879072275799216, -0.001589386135556676, 0.00018233471609974768, -0.0008147088716168151, -0.0007727777372686133, 0.0019768569712469357, -0.0008106181304464115, 0.0003660672008928017, -0.0019246339249498591, 0.0018815504537383826, 0.0007517054526241753, -0.001379401026460387, -0.0009016964026660259, -0.0008064327942005281, -0.0006884897270548684, 0.00041444863877769777, -0.0006362709504496055, 0.0001562413623662304, -0.0001411296706878445], "init_weights": [0.0010410817829561599, -0.001338293740056677, 0.0007185633466770677, -0.0001208651773949622, 0.0007603861726622862, 0.0012032328104486978, -0.0019992531945922792, 0.0005744005023538817, -0.0016376373847303942, -0.00025641020132945977, -0.0008081380348461963, -8.383190387116955e-05, 0.00019887782341910894, 0.0013061769101955993, 1.9463837074040576e-05, -0.0011366713367418327, 0.00019944704875059078, -0.002208752459681669, 0.0010882411147315244, 0.0011694001996639463, 0.00028273207602513703, -0.0007515460342212231, -0.00015542439676996406, 0.00040543871553171167, 0.00013614565581303477, -0.00019134310855543763, 1.9270162693570926e-05, 0.0006415205090793121, -0.0017699174140171465, 0.000164216069467379, 0.001035746372486661, -0.0007879072275799216, -0.001589386135556676, 0.00018233471609974768, -0.0008147088716168151, -0.0007727777372686133, 0.0019768569712469357, -0.0008106181304464115, 0.0003660672008928017, -0.0019246339249498591, 0.0018815504537383826, 0.0007517054526241753, -0.001379401026460387, -0.0009016964026660259, -0.0008064327942005281, -0.0006884897270548684, 0.00041444863877769777, -0.0006362709504496055, 0.0001562413623662304, -0.0001411296706878445]},{"problem": "ToyProblem", "trial": 3, "n_qubits": 5, "ansatz": "2-layer HEA", "cost": "local", "optimizer": "SGD_lr=1", "error_threshold": 0.0016, "noise_model": "Bitflip=0.05", "TTS": 4514.58403301239, "STS": 401, "final_EAD": 0.0014300856594659725, "EAD_history": [1.860698320162678, 0.31881314348338075, 0.1524156248902949, 0.06870434107962825, 0.037738638988892306, 0.022536297582036364, 0.010444711026270499, 0.007851192067766254, 0.004913681505784896, 0.003518466299303398, 0.004993101565188049, 0.0030935249739882714, 0.003640593105189267, 0.0032201049339450555, 0.0036887649984412266, 0.0038183225756138997, 0.002867975140013999, 0.0024040136484393022, 0.003105345950353328, 0.0028932965098262915, 0.0017848508342024484, 0.003510872968754127, 0.0019161699839408649, 0.0019832973455060133, 0.002319586139348317, 0.002324308119077082, 0.0033486031942191897, 0.0024830744178156146, 0.0025617486117958796, 0.002394597416142298, 0.0026814271490413185, 0.0018972824928953505, 0.002284513072110481, 0.002657718752624393, 0.0020081168369496566, 0.001908916319467347, 0.0017437316643782589, 0.0021564831437613716, 0.0017725411341459707, 0.0019102600328404725, 0.0014300856594659725], "cost_history": [0.49891896075746667, 0.3027503058162329, 0.18197506153153975, 0.11634960040569625, 0.08003984295409883, 0.06017925211438868, 0.04803293701125527, 0.039779475835603206, 0.03375527985702237, 0.02913750274961141, 0.025472159021547203, 0.022486909147733325, 0.02000731399755007, 0.017915666094477645, 0.016129152702611504, 0.014587511722855662, 0.01324566542404948, 0.012069116538520552, 0.011030954830152317, 0.010109843933603091, 0.009288627747842504, 0.008553341458067742, 0.007892494478507539, 0.007296540743405633, 0.006757480920029979, 0.00626855930973419, 0.005824029871549508, 0.0054189734719388705, 0.0050491536162927675, 0.004710901446922433, 0.004401023252285419, 0.004116725473700622, 0.0038555534458508123, 0.003615341015831497, 0.0033941688530822467, 0.0031903297581241663, 0.003002299649368767, 0.0028287131879877747, 0.0026683432148496, 0.0025200833380399357, 0.0023829331370526785, 0.00225598554941836, 0.0021384160841795286, 0.002029473569180096, 0.0019284721893226275, 0.0018347846135982615, 0.0017478360418892724, 0.0016670990298300326, 0.0015920889726776521, 0.0015223601480113258, 0.0014575022329131881, 0.0013971372246244784, 0.0013409167049200366, 0.001288519397961374, 0.0012396489794611054, 0.001194032101785758, 0.0011514166054004682, 0.0011115698918983674, 0.0010742774379392528, 0.001039341432839458, 0.0010065795253902388, 0.0009758236678603649, 0.0009469190470760003, 0.0009197230940815593, 0.0008941045652055557, 0.0008699426884059003, 0.0008471263696532283, 0.0008255534548023413, 0.0008051300429579022, 0.0007857698478083708, 0.000767393603754718, 0.0007499285139537792, 0.0007333077376461272, 0.0007174699143189245, 0.0007023587224289085, 0.0006879224705437781, 0.0006741137188794322, 0.0006608889293188147, 0.0006482081420928765, 0.000636034677390096, 0.0006243348602558152, 0.0006130777672044285, 0.0006022349930659976, 0.0005917804366475932, 0.0005816901038733779, 0.0005719419271357773, 0.0005625155996636377, 0.00055339242377761, 0.0005445551719734931, 0.0005359879598444972, 0.0005276761299048971, 0.0005196061454505463, 0.0005117654936409033, 0.0005041425970547242, 0.0004967267330067693, 0.0004895079599911423, 0.00048247705063186874, 0.00047562543059953555, 0.00046894512297102064, 0.00046242869756296656, 0.00045606922480262435, 0.00044986023373894124, 0.0004437956738201909, 0.0004378698801107417, 0.00043207754162971623, 0.0004264136725354861, 0.0004208735858980406, 0.0004154528698206428, 0.000410147365696667, 0.0004049531484129898, 0.000399866508311586, 0.0003948839347506228, 0.0003900021011247201, 0.00038521785119960406, 0.0003805281866438581, 0.00037593025565035854, 0.000371421342541034, 0.0003669988582671868, 0.000362660331722664, 0.0003584034017940496, 0.00035422581008026643, 0.0003501253942188032, 0.00034610008176527707, 0.00034214788457370693, 0.00033826689363225526, 0.00033445527431280597, 0.00033071126199873957, 0.00032703315805276967, 0.0003234193260975293, 0.00031986818858120714, 0.00031637822360025547, 0.000312947961957577, 0.00030957598443798195, 0.0003062609192773236, 0.0003030014398121561, 0.0002997962622927619, 0.0002966441438463918, 0.0002935438805782842, 0.00029049430579558555, 0.0002874942883520082, 0.0002845427310915749, 0.0002816385693950041, 0.0002787807698113598, 0.00027596832877718747, 0.00027320027140598224, 0.00027047565034998833, 0.00026779354472816763, 0.00026515305911151144, 0.0002625533225648069, 0.00025999348773908526, 0.00025747273001314186, 0.00025499024667702264, 0.00025254525615869827, 0.00025013699728709815, 0.0002477647285929474, 0.00024542772764135634, 0.00024312529039466346, 0.00024085673060897372, 0.0002386213792510694, 0.00023641858394785054, 0.00023424770845431597, 0.00023210813214641357, 0.0002299992495378711, 0.00022792046981240377, 0.00022587121637579477, 0.00022385092642907, 0.0002218590505562723, 0.00021989505232683504, 0.00021795840791632992, 0.000216048605737984, 0.00021416514609240433, 0.00021230754082540715, 0.00021047531300139033, 0.00020866799658769697, 0.00020688513614824933, 0.00020512628655205978, 0.00020339101268701532, 0.00020167888918792842, 0.00019998950016919537, 0.00019832243897127677, 0.00019667730791095295, 0.00019505371804323657, 0.00019345128893033525, 0.00019186964841599874, 0.00019030843240974704, 0.00018876728467581705, 0.00018724585663104643, 0.00018574380714653227, 0.00018426080235761644, 0.00018279651547808973, 0.00018135062662089085, 0.00017992282262452308, 0.00017851279688324562, 0.00017712024918414837, 0.00017574488554833456, 0.00017438641807610011, 0.00017304456479810826, 0.00017171904952872907, 0.00017040960172703956, 0.000169115956356658, 0.00016783785375618088, 0.00016657503950723296, 0.00016532726431056632, 0.00016409428386165992, 0.00016287585873486776, 0.0001616717542650692, 0.0001604817404394776, 0.00015930559178328751, 0.00015814308725758952, 0.00015699401015545345, 0.00015585814800006537, 0.00015473529244847128, 0.00015362523919582038, 0.00015252778788366061, 0.00015144274200856733, 0.00015036990883643409, 0.00014930909931404335, 0.00014826012798996313, 0.0001472228129310027, 0.00014619697564388634, 0.00014518244099953614, 0.00014417903715657765, 0.000143186595490008, 0.00014220495051986415, 0.00014123393984194488, 0.0001402734040613085, 0.00013932318672399413, 0.00013838313425729165, 0.00013745309590346144, 0.0001365329236602264, 0.00013562247222304036, 0.000134721598925025, 0.00013383016368256895, 0.00013294802893804025, 0.00013207505960749488, 0.00013121112303005056, 0.00013035608891320827, 0.00012950982928605637, 0.00012867221844931054, 0.00012784313292824034, 0.0001270224514262619, 0.00012621005478058445, 0.00012540582591674676, 0.00012460964980642864, 0.00012382141342598407, 0.0001230410057141973, 0.00012226831753342493, 0.00012150324162896187, 0.00012074567259295899, 0.0001199955068262315, 0.00011925264250017831, 0.00011851697952430795, 0.00011778841950854657, 0.00011706686573176306, 0.00011635222310651949, 0.00011564439814848448, 0.00011494329894301547, 0.00011424883511584882, 0.00011356091780184707, 0.00011287945961496737, 0.00011220437462095001, 0.00011153557830850813, 0.00011087298755962927, 0.0001102165206265937, 0.00010956609710172094, 0.00010892163789399945, 0.00010828306520221931, 0.00010765030249226815, 0.0001070232744701527, 0.00010640190706184827, 0.00010578612738659787, 0.00010517586373764987, 0.00010457104555738894, 0.00010397160341785172, 0.00010337746899763411, 0.00010278857506323957, 0.0001022048554467081, 0.0001016262450275196, 0.00010105267971233234, 0.00010048409641572054, 9.992043304296594e-05, 9.936162846990726e-05, 9.880762252645336e-05, 9.82583559787642e-05, 9.771377051276398e-05, 9.7173808715878e-05, 9.663841406204465e-05, 9.610753089633883e-05, 9.558110441609813e-05, 9.5059080659321e-05, 9.454140648734732e-05, 9.402802957075851e-05, 9.351889837544425e-05, 9.301396214683733e-05, 9.251317089742361e-05, 9.201647539375246e-05, 9.152382714056051e-05, 9.103517837111275e-05, 9.055048203165939e-05, 9.006969176972301e-05, 8.959276192282983e-05, 8.911964750524248e-05, 8.865030419702435e-05, 8.818468833138304e-05, 8.772275688451181e-05, 8.726446746437633e-05, 8.680977829855774e-05, 8.635864822575945e-05, 8.591103668287303e-05, 8.546690369665155e-05, 8.502620987305143e-05, 8.458891638701838e-05, 8.415498497355012e-05, 8.372437791676068e-05, 8.32970580428305e-05, 8.28729887086821e-05, 8.245213379498573e-05, 8.203445769516815e-05, 8.16199253088623e-05, 8.120850203269248e-05, 8.080015375233618e-05, 8.039484683247666e-05, 7.999254811202894e-05, 7.959322489442533e-05, 7.919684493917778e-05, 7.88033764566598e-05, 7.841278809839203e-05, 7.802504895176865e-05, 7.764012853134217e-05, 7.725799677305023e-05, 7.687862402622203e-05, 7.650198104813821e-05, 7.612803899664788e-05, 7.575676942345178e-05, 7.538814426838458e-05, 7.502213585297568e-05, 7.465871687384329e-05, 7.429786039797603e-05, 7.393953985518342e-05, 7.358372903265575e-05, 7.323040207107834e-05, 7.287953345636033e-05, 7.25310980163596e-05, 7.21850709135552e-05, 7.184142764177226e-05, 7.150014401907656e-05, 7.11611961842773e-05, 7.08245605909319e-05, 7.049021400246103e-05, 7.015813348837385e-05, 6.982829641727362e-05, 6.950068045491475e-05, 6.917526355781911e-05, 6.885202396922363e-05, 6.853094021425088e-05, 6.821199109707798e-05, 6.789515569444182e-05, 6.758041335380716e-05, 6.726774368692734e-05, 6.69571265672908e-05, 6.664854212573568e-05, 6.63419707470636e-05, 6.603739306471068e-05, 6.573478995886006e-05, 6.543414255100188e-05, 6.513543220143525e-05, 6.483864050588206e-05, 6.454374929043549e-05, 6.425074060972813e-05, 6.395959674265761e-05, 6.367030018922248e-05, 6.33828336674136e-05, 6.309718010949483e-05, 6.281332265972717e-05, 6.253124466998328e-05, 6.225092969791568e-05, 6.197236150340402e-05, 6.169552404466927e-05, 6.142040147738559e-05, 6.114697814990633e-05, 6.087523860137667e-05, 6.060516755873602e-05, 6.0336749934442047e-05, 6.006997082258492e-05, 5.9804815497443986e-05, 5.954126941071225e-05, 5.9279318188110164e-05, 5.901894762772031e-05, 5.8760143697378364e-05, 5.850289253162e-05, 5.8247180430626155e-05, 5.7992993856004205e-05, 5.7740319429733233e-05, 5.74891439324432e-05, 5.723945429964017e-05, 5.699123761992997e-05, 5.674448113374142e-05, 5.649917223016221e-05, 5.6255298445606616e-05, 5.601284746142854e-05, 5.577180710159002e-05], "model_weights": [0.6078945677919428, 0.4685425969403613, 0.4156428810158973, 0.47832308329107465, 0.63349663497559, 0.1923136485629131, -0.0993058435625497, 0.05556829572789665, 0.14493319107681754, -0.02525389031401672, -0.11798330031460884, -0.08998230570322163, -0.0004904719029531042, 0.7868137099774739, 0.02919898086326468, 0.09569613665616705, 0.08663335748669451, 1.1667384972123827, 1.1102501480798928, 0.9539729746622945, 0.9358357877329148, 0.00024894896897926426, 0.0008000297717281617, 0.0002785744532298497, -0.0006565991241049067, 0.0008525243054610919, -0.00030839741550359797, 0.0009558213556240953, 0.0008246372159848801, -0.0008219305005324595, -0.0009262103442580887, -0.0004943292416844586, 0.00013608005675887309, 0.0014577045360292572, -0.0012869500545292561, -0.0002517647460794044, 0.001858759633601128, -0.00063618258046824, -1.1110778196443795e-05, -1.539090898050347e-05, 0.0017130240309588542, -0.0005296409778771828, 0.00017687906993320125, 0.001857569760620216, 0.001720832378926702, -0.0006048872779244741, 0.00029366321808654616, 0.00030294483138906494, 0.001108175580020825, 0.002659033459347783], "init_weights": [-0.0008623542271917899, 0.0013110309711778527, 4.7320807177887587e-05, 0.00013947430799872085, 0.000486208005974996, 0.0002849581008737906, -0.0012217043886263198, 0.0002822349364768875, 0.003201959637958576, -0.0007337294329589, -0.00019752540995383213, 0.0022668095894916823, 0.0001618178519237432, 0.0006118446102396794, 0.0009441587500580748, 0.0009826993692026247, 0.0006937779339544482, 0.000974595436943812, -0.00029238080762873544, 0.002760226955086591, -0.0010308996741154185, 0.00024894896897926426, 0.0008000297717281617, 0.0002785744532298497, -0.0006565991241049067, 0.0008525243054610919, -0.00030839741550359797, 0.0009558213556240953, 0.0008246372159848801, -0.0008219305005324595, -0.0009262103442580887, -0.0004943292416844586, 0.00013608005675887309, 0.0014577045360292572, -0.0012869500545292561, -0.0002517647460794044, 0.001858759633601128, -0.00063618258046824, -1.1110778196443795e-05, -1.539090898050347e-05, 0.0017130240309588542, -0.0005296409778771828, 0.00017687906993320125, 0.001857569760620216, 0.001720832378926702, -0.0006048872779244741, 0.00029366321808654616, 0.00030294483138906494, 0.001108175580020825, 0.002659033459347783]},{"problem": "ToyProblem", "trial": 4, "n_qubits": 5, "ansatz": "2-layer HEA", "cost": "local", "optimizer": "SGD_lr=1", "error_threshold": 0.0016, "noise_model": "Bitflip=0.05", "TTS": 1052.3814458847046, "STS": 111, "final_EAD": 0.0015449185925635238, "EAD_history": [1.8633204197267974, 0.28615398812573833, 0.01695498429901165, 0.006220407846964941, 0.004310939434063195, 0.0038935710638369216, 0.001958736738635267, 0.003069921588472303, 0.0018624227640777551, 0.0021086228053732916, 0.002380158451499344, 0.0015449185925635238], "cost_history": [0.4998777519299549, 0.3071025520663216, 0.21672134120246983, 0.18975218434742425, 0.1744332341072174, 0.1622191892906798, 0.15108788512866, 0.1400842748604088, 0.12851516516861983, 0.1157265272471027, 0.101050577624554, 0.08396043585950885, 0.06468774721480408, 0.04538389401064524, 0.029999432619161326, 0.020447953337444646, 0.015026313684241954, 0.011774769934473128, 0.009671939695801768, 0.008219612895004058, 0.007159360224365641, 0.006349060765083403, 0.0057063262465056885, 0.005181028407361954, 0.004741298727689913, 0.004366062023972439, 0.004040878736467246, 0.0037555352889550586, 0.0035025961723257892, 0.003276505306122446, 0.0030730119087096774, 0.002888793976618176, 0.002721205397945181, 0.0025681023211899245, 0.0024277214643837475, 0.002298593160528606, 0.0021794780759451515, 0.002069320350387871, 0.0019672123221980975, 0.0018723675587334343, 0.0017840999333185725, 0.001701807169827485, 0.001624957735448962, 0.0015530802769304075, 0.0014857550141085807, 0.0014226066581689012, 0.0013632985314698254, 0.001307527644549833, 0.0012550205433936035, 0.0012055297823840294, 0.0011588309099592742, 0.0011147198777541334, 0.001073010802182528, 0.0010335340212945798, 0.0009961344006136352, 0.0009606698501131161, 0.0009270100212115384, 0.0008950351580030436, 0.0008646350812421821, 0.0008357082870772969, 0.0008081611453458204, 0.0007819071845974745, 0.0007568664528894153, 0.0007329649450301678, 0.0007101340882342266, 0.0006883102793087681, 0.0006674344673813781, 0.0006474517770062582, 0.000628311167154394, 0.0006099651221475044, 0.0005923693711108458, 0.0005754826329257834, 0.0005592663840376377, 0.0005436846467745671, 0.0005287037961176355, 0.0005142923830956936, 0.0005004209731770959, 0.00048706199821518803, 0.0004741896206714724, 0.00046177960895410486, 0.0004498092228533146, 0.000438257108162865, 0.00042710319963484844, 0.00041632863156554345, 0.00040591565530273543, 0.00039584756311222824, 0.00038610861782434336, 0.0003766839877973882, 0.0003675596867380726, 0.0003587225179773057, 0.0003501600228414392, 0.00034186043278283673, 0.0003338126249580742, 0.00032600608100269435, 0.00031843084872196226, 0.00031107750648962096, 0.0003039371301371552, 0.00029700126213849654, 0.00029026188292502475, 0.00028371138415961283, 0.0002773425438301613, 0.0002711485030201799, 0.00026512274424139726, 0.0002592590712054421, 0.000253551589936285, 0.00024799469111824735, 0.00024258303360535916, 0.0002373115289901473, 0.00023217532717456635, 0.00022716980286019428, 0.0002222905429054567], "model_weights": [-0.6026829209690032, -0.44845504135410613, -0.38083401051317334, -0.4658117146021872, -0.6150739458610257, -0.19055060010929875, 0.09882778799424806, -0.03917139783543473, -0.1353109529131852, 0.016391855274143156, 0.08573424891583309, 0.059783695703397734, 0.011243508529410667, -0.7923156373843084, -0.047990722083108686, -0.07948741597924704, -0.07822127055647012, -1.1646775532037457, -1.1499078644980805, -0.958659081725211, -0.9640275758195588, -0.0011447902041717486, -0.000965565225784122, 0.00048124666225820277, 5.615483782520397e-05, -0.0018541789586987234, -0.0001723105537289411, 0.00048115916909749804, -0.0015833265265926182, -0.00019741011715163837, 0.0027741223446375697, 0.0005253425394416395, 0.00190720051153823, -0.0005390576158986252, -8.324446595066358e-05, -0.0017451626674976762, 0.000907701759372055, -0.0002228271627481357, 0.0006489048230783295, 0.001458467994714759, 0.0012897694147860723, 0.0013200352088434811, -0.0023741686020738555, 0.0002795230356638612, 0.0021462930017638556, 0.0009961897246916042, -0.0015005316048446193, -0.0002116332822577271, -0.0012051951672521926, 0.00021996066617007557], "init_weights": [-0.0008709361420037443, -0.00044098300335342083, 0.0009106802165779637, 0.0014645807105052083, -6.750552988139965e-07, -0.0008635419042409075, -0.001375195253328383, 0.0009573554520374727, -0.00032985857701353253, -0.0012772166311316824, 5.276501174854327e-05, -7.001730050209603e-06, 8.075890890990681e-05, 0.0009946491331642735, 0.0008640452506953725, -0.00029301577577649766, 7.708341834296858e-05, 0.0007536602511096649, -0.0011651358400873485, -0.00021499508262317848, -0.0005395160061442828, -0.0011447902041717486, -0.000965565225784122, 0.00048124666225820277, 5.615483782520397e-05, -0.0018541789586987234, -0.0001723105537289411, 0.00048115916909749804, -0.0015833265265926182, -0.00019741011715163837, 0.0027741223446375697, 0.0005253425394416395, 0.00190720051153823, -0.0005390576158986252, -8.324446595066358e-05, -0.0017451626674976762, 0.000907701759372055, -0.0002228271627481357, 0.0006489048230783295, 0.001458467994714759, 0.0012897694147860723, 0.0013200352088434811, -0.0023741686020738555, 0.0002795230356638612, 0.0021462930017638556, 0.0009961897246916042, -0.0015005316048446193, -0.0002116332822577271, -0.0012051951672521926, 0.00021996066617007557]},{"problem": "ToyProblem", "trial": 0, "n_qubits": 6, "ansatz": "2-layer HEA", "cost": "local", "optimizer": "SGD_lr=1", "error_threshold": 0.0016, "noise_model": "Bitflip=0.05", "TTS": 28273.6603372097, "STS": 673, "final_EAD": 0.00511313057994235, "EAD_history": [3.1461482974868966, 0.592271071674089, 0.27841006725434525, 0.16126581539945478, 0.09768986988790358, 0.04993571166503277, 0.037068917022686255, 0.020559900262415547, 0.01637321765087079, 0.014467160425829118, 0.010506282650008487, 0.012896217000930046, 0.009400629285492438, 0.006233048574756644, 0.00797074982028664, 0.006601109874389898, 0.005826123289047908, 0.007725087803353, 0.006361920317406578, 0.004207557632344921, 0.005459978428119517, 0.007455608871900118, 0.006446410159762021, 0.0046908291169727575, 0.004990786157663872, 0.005011755170329159, 0.006346948453658278, 0.005431721644432764, 0.004239512185969431, 0.005135351074366718, 0.00521202075340106, 0.00651544094814913, 0.00723950278713832, 0.0050214266126091325, 0.0064812512743142444, 0.0039150745882293135, 0.005292508720998551, 0.0040808118127648955, 0.006225491187541466, 0.0054927546047960326, 0.00450606907335176, 0.006387596300542889, 0.005384212730194133, 0.004986482188457426, 0.004168643656037338, 0.005395726877108505, 0.0034328073990650336, 0.004400357092371161, 0.005959646358761863, 0.004976845009111212, 0.004473812028041253, 0.004811484407673379, 0.004973713829254804, 0.00539851378791412, 0.004797030237737199, 0.006715431304211324, 0.00512572649045017, 0.004480210272415692, 0.00526535134134865, 0.0034217580613042195, 0.004543750752976083, 0.004648945595377635, 0.004903199410444345, 0.004717495442171317, 0.0026088160371482115, 0.004206777032652366, 0.0029943347837199075, 0.00511313057994235], "cost_history": [0.4998540040904641, 0.3292793776182299, 0.21983067857388194, 0.1589326070276394, 0.11561245614475074, 0.08485517479325544, 0.06470702724792388, 0.05155990694453483, 0.042545118580901875, 0.03601347638151914, 0.03106348499012651, 0.027180704027114866, 0.024053337300181554, 0.02148155661449147, 0.019331074081543997, 0.017508025727395182, 0.01594463813083863, 0.01459064371554375, 0.013407914772619212, 0.012366981735467686, 0.011444699397056834, 0.01062263774724359, 0.009885944813929237, 0.009222525617926025, 0.008622438103563779, 0.008077441277676678, 0.007580652211715555, 0.007126282264490025, 0.006709431856060766, 0.006325929125076124, 0.005972201894188123, 0.005645175207719899, 0.005342188707752549, 0.005060929546987447, 0.004799377575183172, 0.00455576029829069, 0.004328515675477873, 0.004116261244056896, 0.003917768384321174, 0.003731940782623344, 0.003557796341042696, 0.0033944519298270692, 0.003241110494586419, 0.0030970501216449065, 0.0029616147375473023, 0.00283420617676583, 0.002714277398300602, 0.002601326669607551, 0.0024948925669314725, 0.002394549666173862, 0.002299904818956866, 0.0022105939255054885, 0.002126279129961106, 0.0020466463754164055, 0.0019714032656685254, 0.0019002771888267933, 0.0018330136647519146, 0.0017693748840597046, 0.0017091384112843389, 0.0016520960289189701, 0.0015980527025417635, 0.0015468256502106925, 0.0014982435018285334, 0.0014521455363386004, 0.0014083809864363084, 0.0013668084020559967, 0.0013272950652033488, 0.0012897164498515967, 0.0012539557215722752, 0.001219903272389966, 0.001187456287037536, 0.0011565183373822285, 0.0011269990022644838, 0.0010988135104332275, 0.0010718824045773956, 0.0010461312247672105, 0.0010214902098402145, 0.0009978940154779514, 0.0009752814478838912, 0.0009535952120920954, 0.0009327816740686279, 0.0009127906358489257, 0.0008935751230184086, 0.0008750911839224829, 0.0008572977000241844, 0.0008401562068809931, 0.0008236307252340036, 0.0008076876017357182, 0.0007922953588702653, 0.0007774245536248392, 0.000763047644502246, 0.0007491388664776499, 0.0007356741135015055, 0.0007226308281890748, 0.0007099878983230501, 0.0006977255598250576, 0.0006858253058599217, 0.0006742698017361826, 0.0006630428052998294, 0.000652129092510223, 0.0006415143879011653, 0.0006311852996608303, 0.0006211292590446726, 0.0006113344638727369, 0.0006017898258657839, 0.0005924849215749872, 0.0005834099466951459, 0.0005745556735351487, 0.0005659134114539, 0.0005574749700593129, 0.0005492326250038371, 0.0005411790861843402, 0.0005333074682075112, 0.0005256112629468679, 0.0005180843140663027, 0.0005107207933597313, 0.0005035151787916581, 0.0004964622341131486, 0.0004895569899451835, 0.0004827947262231458, 0.0004761709559074623, 0.00046968140986741735, 0.00046332202285309654, 0.00045708892048068606, 0.0004509784071501377, 0.0004449869548330265, 0.00043911119266532017, 0.0004333478972814442, 0.00042769398384212565, 0.00042214649769706236, 0.0004167026066423385, 0.00041135959372318176, 0.00040611485054092844, 0.0004009658710326658, 0.0003959102456830288, 0.0003909456561340674, 0.00038606987017175687, 0.00038128073705140375, 0.0003765761831439618, 0.000371954207874281, 0.00036741287993263816, 0.00036295033373912045, 0.00035856476613949084, 0.00035425443331771334, 0.0003500176479105943, 0.0003458527763025576, 0.0003417582360999427, 0.00033773249375601555, 0.0003337740623494678, 0.00032988149949841894, 0.00032605340539887395, 0.00032228842098414034, 0.00031858522619254703, 0.00031494253833702635, 0.00031135911056701104, 0.0003078337304221468, 0.0003043652184640533, 0.0003009524269860231, 0.000297594238793053, 0.00029428956604776735, 0.0002910373491782914, 0.0002878365558423579, 0.0002846861799449263, 0.00028158524070975854, 0.0002785327817915184, 0.0002755278704354436, 0.00027256959667742997, 0.0002696570725824743, 0.00026678943151808854, 0.0002639658274626866, 0.00026118543434455743, 0.0002584474454108143, 0.00025575107262543195, 0.0002530955460908757, 0.00025048011349854127, 0.00024790403959756846, 0.00024536660569030033, 0.00024286710914633858, 0.00024040486293419594, 0.00023797919517676291, 0.00023558944871854282, 