,{"problem": "ToyProblem", "trial": 0, "n_qubits": 2, "ansatz": "2-layer HEA", "cost": "local", "optimizer": "SGD_lr=1", "error_threshold": 0.0016, "noise_model": "Bitflip=0.05", "TTS": 14.024877071380615, "STS": 25, "final_EAD": 0.0008004693072462067, "EAD_history": [0.09888691455359241, 0.07335290821010629, 0.04601468360596348, 0.027574701744227773, 0.01571777906811046, 0.007445005980158323, 0.005570501993403349, 0.0022531443537579777, 0.0008004693072462067], "cost_history": [0.49938229483247537, 0.048708539972437515, 0.04091467076285388, 0.035092824853184434, 0.030136224258531463, 0.025869199775573226, 0.022166256036235454, 0.018935755886897554, 0.016109469583319158, 0.013635497249358475, 0.011473301278320691, 0.009590129073784759, 0.0079584131614312, 0.006553907304287954, 0.005354408749764561, 0.004338959447181545, 0.003487433514170968, 0.002780419433762449, 0.002199304469345853, 0.0017264725581163098, 0.00134553823777106, 0.001041557080047939, 0.0008011744302333645, 0.0006126950890048, 0.00046607373570922705], "model_weights": [0.6266101861163322, 0.62874741433968, 0.016773673543984055, 0.01929487812346813, 0.8782485586471633, 0.8743779564691505, 0.0013001484692653153, -1.00973372887428e-05, 0.0011199726629828508, -0.0006848168903716265, 0.0012417996341816966, 0.0014691288455801086, 0.0013279713757037908, -0.00011107557649233253, 7.339821113470842e-05, 7.426778793994025e-05, 0.003583542798576957, 0.0015077480604797889, 0.0005333842602779496, -0.00040825695017480463], "init_weights": [-0.0017449970063510222, 0.0011186051680172702, -0.00016272908420024963, -3.96443197315289e-05, 0.002066149293907221, 0.00044277471331108896, 0.0013001484692653153, -1.00973372887428e-05, 0.0011199726629828508, -0.0006848168903716265, 0.0012417996341816966, 0.0014691288455801086, 0.0013279713757037908, -0.00011107557649233253, 7.339821113470842e-05, 7.426778793994025e-05, 0.003583542798576957, 0.0015077480604797889, 0.0005333842602779496, -0.00040825695017480463]},{"problem": "ToyProblem", "trial": 1, "n_qubits": 2, "ansatz": "2-layer HEA", "cost": "local", "optimizer": "SGD_lr=1", "error_threshold": 0.0016, "noise_model": "Bitflip=0.05", "TTS": 14.36243200302124, "STS": 25, "final_EAD": 0.0009582191046465488, "EAD_history": [0.10271707437923243, 0.07153994814227208, 0.047758576002852306, 0.029084899863448806, 0.017784313550643343, 0.007828285954876509, 0.004546137333991826, 0.0024449906158353963, 0.0009582191046465488], "cost_history": [0.4998506070594679, 0.048726738007593695, 0.04094670322152433, 0.03512177589451637, 0.03016282596595482, 0.025893919806297516, 0.022189384012405777, 0.018957456641246706, 0.01612982031754695, 0.01365451581732885, 0.011490969200422085, 0.009606410893868156, 0.007973272606296933, 0.006567320103266161, 0.0053663717776157305, 0.004349495964987404, 0.0034965945896920925, 0.0027882820004765385, 0.0022059668128884824, 0.0017320482128256875, 0.0013501492978926222, 0.0010453277955086993, 0.0008042257186089419, 0.0006151403200652106, 0.0004680158915206234], "model_weights": [0.6270971525237676, 0.6275727723482559, 0.01764575391826707, 0.01853279327469605, 0.8770578874236677, 0.8759611470808356, 0.0007342144114598388, 0.0008020539394912975, 0.0002154446815232112, -0.0007861585437401224, 0.0009101223875398741, 0.0014311537500284043, 0.0007207830818578891, 0.0002451494959041807, -0.000517632177063604, 0.00151127153800156, 0.00029845842579448174, -0.0003030643427439561, 0.000416115899029099, -0.0012436483451934417], "init_weights": [-0.0003734484642320191, -0.0010996663216562396, 0.00011989958105545955, -0.00028686086084504987, 0.0018570383354646809, 0.00018938665665020458, 0.0007342144114598388, 0.0008020539394912975, 0.0002154446815232112, -0.0007861585437401224, 0.0009101223875398741, 0.0014311537500284043, 0.0007207830818578891, 0.0002451494959041807, -0.000517632177063604, 0.00151127153800156, 0.00029845842579448174, -0.0003030643427439561, 0.000416115899029099, -0.0012436483451934417]},{"problem": "ToyProblem", "trial": 2, "n_qubits": 2, "ansatz": "2-layer HEA", "cost": "local", "optimizer": "SGD_lr=1", "error_threshold": 0.0016, "noise_model": "Bitflip=0.05", "TTS": 14.034998655319214, "STS": 25, "final_EAD": 0.0006579502421670049, "EAD_history": [0.10286470083212841, 0.07655528017054661, 0.047392060429710316, 0.028652048594439795, 0.015953050059972815, 0.009138974992715402, 0.0037641591680794666, 0.0016859194411436608, 0.0006579502421670049], "cost_history": [0.49895079376168167, 0.04902433648743071, 0.04111770370360279, 0.03525950714340048, 0.030274283972361427, 0.025984126598717128, 0.02226213010788125, 0.01901570494947824, 0.01617596392332643, 0.01369054498983352, 0.011518579424507125, 0.009627071403769338, 0.007988268241601315, 0.006577775578199774, 0.005373265189063781, 0.004353666749991603, 0.0034987497628796715, 0.0027890032010471355, 0.002205719480382118, 0.0017311931812967751, 0.0013489563437887875, 0.0010439902431292336, 0.0008028750812433816, 0.0006138600639137293, 0.0004668536567549175], "model_weights": [0.6281651573156037, 0.6285732336571518, 0.0168678976828867, 0.019149269875750025, 0.8765993025954062, 0.8745713176920864, 0.0005916002044567938, -5.283218162929687e-06, 0.0006883441587076484, -0.0005745338672714984, 0.0007799807881655131, 8.325667647282447e-05, 0.00026324352103890665, -0.001201772341330963, 0.0008643116363780113, -0.00014755935243696315, -2.5441945311887436e-05, 0.0010542947082898256, -0.0021662317313565246, -0.0010657637870078104], "init_weights": [-0.000191680363074096, 0.0010498127109719428, 0.00021026238722079844, 0.002720557788604835, -0.001114451445458124, 0.0001793445716089387, 0.0005916002044567938, -5.283218162929687e-06, 0.0006883441587076484, -0.0005745338672714984, 0.0007799807881655131, 8.325667647282447e-05, 0.00026324352103890665, -0.001201772341330963, 0.0008643116363780113, -0.00014755935243696315, -2.5441945311887436e-05, 0.0010542947082898256, -0.0021662317313565246, -0.0010657637870078104]},{"problem": "ToyProblem", "trial": 3, "n_qubits": 2, "ansatz": "2-layer HEA", "cost": "local", "optimizer": "SGD_lr=1", "error_threshold": 0.0016, "noise_model": "Bitflip=0.05", "TTS": 14.24242091178894, "STS": 25, "final_EAD": 0.0010412859487084673, "EAD_history": [0.0993583103437573, 0.07404507808538581, 0.04703350124744926, 0.02878015081365993, 0.014633776582152598, 0.010535366859264789, 0.0037335913585436176, 0.0016979935252558571, 0.0010412859487084673], "cost_history": [0.4993322366179105, 0.048770803924177264, 0.04095693600485373, 0.035128320164065474, 0.030166401615555283, 0.02589507858072515, 0.02218857910883415, 0.018955077027019873, 0.0161262112895465, 0.01364999020041252, 0.011485812094409964, 0.009600880121164668, 0.00796759662804114, 0.006561694927339545, 0.005360958135696592, 0.004344417721002469, 0.0034919389549344926, 0.002784101715716636, 0.0022022840825355883, 0.0017288599033163377, 0.0013474327776482053, 0.0010430467965027446, 0.0008023357084958604, 0.0006135930411718116, 0.00046676290118891073], "model_weights": [-0.6276007658681043, -0.6277871569146556, -0.018088723281923364, -0.01799985412738104, -0.8763089423149238, -0.8761935911651697, 0.0003847335041812425, -0.0009818824708748013, 0.0007099291369610542, 0.00017680993457417369, 0.0012976818057454697, 0.00121515222579634, -0.0010875002322862702, 0.0003348030603817807, 0.002344844706052126, -0.001910964271571631, -0.000533034395697645, -0.00216030334227942, 0.00038884700005842717, -0.0009546903335716416], "init_weights": [0.0007283916904172076, -0.0002054637180315814, -0.00020367184027286, -0.00026407849025992315, -0.0007133393544031634, -0.0011581557893462512, 0.0003847335041812425, -0.0009818824708748013, 0.0007099291369610542, 0.00017680993457417369, 0.0012976818057454697, 0.00121515222579634, -0.0010875002322862702, 0.0003348030603817807, 0.002344844706052126, -0.001910964271571631, -0.000533034395697645, -0.00216030334227942, 0.00038884700005842717, -0.0009546903335716416]},{"problem": "ToyProblem", "trial": 4, "n_qubits": 2, "ansatz": "2-layer HEA", "cost": "local", "optimizer": "SGD_lr=1", "error_threshold": 0.0016, "noise_model": "Bitflip=0.05", "TTS": 14.10866093635559, "STS": 25, "final_EAD": 0.0009833007365942998, "EAD_history": [0.09932653732638465, 0.07647948660526876, 0.04670536438319448, 0.028519118207555406, 0.014689850195505326, 0.007951658558387534, 0.004412649182759009, 0.0016497474855387477, 0.0009833007365942998], "cost_history": [0.4993976377454826, 0.04875162737933747, 0.04093436911161619, 0.0350992780676066, 0.03013195478460129, 0.025856212649625565, 0.022146250578564175, 0.018910243017791595, 0.016079836156475347, 0.013603034654822654, 0.011439209596648015, 0.009555505399916842, 0.007924231519829239, 0.006520996783904276, 0.005323435488565786, 0.004310416635635583, 0.0034616417132702915, 0.0027575374850276613, 0.0021793494762553656, 0.001709346159473657, 0.001331055841075346, 0.001029476855784195, 0.0007912235112679245, 0.0006045913233256317, 0.0004595422651832437], "model_weights": [-0.6294004856190574, -0.6294375483769905, -0.017564482680145422, -0.018048647174068864, -0.8752896933807714, -0.8749064642813034, 0.00010931908956001162, -0.00012728151040430904, 0.000819694333942961, 0.0006717011393879483, 0.0005455661447515733, -0.0008862559625027357, 0.0004573602506486879, -0.0022506353848343514, -0.0009423626918518847, 9.022346654036231e-05, 0.0006441728070775995, -0.00012104553643692804, 0.000604018259045886, -0.0008394075381806072], "init_weights": [-0.0009935492205694258, -0.0006652408306027768, 0.0005759360220697301, 0.00029030170300540115, -0.0005354927399547491, -0.00031038144308296396, 0.00010931908956001162, -0.00012728151040430904, 0.000819694333942961, 0.0006717011393879483, 0.0005455661447515733, -0.0008862559625027357, 0.0004573602506486879, -0.0022506353848343514, -0.0009423626918518847, 9.022346654036231e-05, 0.0006441728070775995, -0.00012104553643692804, 0.000604018259045886, -0.0008394075381806072]}