,{"problem": "ToyProblem", "trial": 0, "n_qubits": 2, "ansatz": "2-layer HEA", "cost": "local", "optimizer": "SGD_lr=1", "error_threshold": 0.0016, "noise_model": "Bitflip=0.05", "TTS": 14.024877071380615, "STS": 25, "final_EAD": 0.0008004693072462067, "EAD_history": [0.09888691455359241, 0.07335290821010629, 0.04601468360596348, 0.027574701744227773, 0.01571777906811046, 0.007445005980158323, 0.005570501993403349, 0.0022531443537579777, 0.0008004693072462067], "cost_history": [0.49938229483247537, 0.048708539972437515, 0.04091467076285388, 0.035092824853184434, 0.030136224258531463, 0.025869199775573226, 0.022166256036235454, 0.018935755886897554, 0.016109469583319158, 0.013635497249358475, 0.011473301278320691, 0.009590129073784759, 0.0079584131614312, 0.006553907304287954, 0.005354408749764561, 0.004338959447181545, 0.003487433514170968, 0.002780419433762449, 0.002199304469345853, 0.0017264725581163098, 0.00134553823777106, 0.001041557080047939, 0.0008011744302333645, 0.0006126950890048, 0.00046607373570922705], "model_weights": [0.6266101861163322, 0.62874741433968, 0.016773673543984055, 0.01929487812346813, 0.8782485586471633, 0.8743779564691505, 0.0013001484692653153, -1.00973372887428e-05, 0.0011199726629828508, -0.0006848168903716265, 0.0012417996341816966, 0.0014691288455801086, 0.0013279713757037908, -0.00011107557649233253, 7.339821113470842e-05, 7.426778793994025e-05, 0.003583542798576957, 0.0015077480604797889, 0.0005333842602779496, -0.00040825695017480463], "init_weights": [-0.0017449970063510222, 0.0011186051680172702, -0.00016272908420024963, -3.96443197315289e-05, 0.002066149293907221, 0.00044277471331108896, 0.0013001484692653153, -1.00973372887428e-05, 0.0011199726629828508, -0.0006848168903716265, 0.0012417996341816966, 0.0014691288455801086, 0.0013279713757037908, -0.00011107557649233253, 7.339821113470842e-05, 7.426778793994025e-05, 0.003583542798576957, 0.0015077480604797889, 0.0005333842602779496, -0.00040825695017480463]},{"problem": "ToyProblem", "trial": 1, "n_qubits": 2, "ansatz": "2-layer HEA", "cost": "local", "optimizer": "SGD_lr=1", "error_threshold": 0.0016, "noise_model": "Bitflip=0.05", "TTS": 14.36243200302124, "STS": 25, "final_EAD": 0.0009582191046465488, "EAD_history": [0.10271707437923243, 0.07153994814227208, 0.047758576002852306, 0.029084899863448806, 0.017784313550643343, 0.007828285954876509, 0.004546137333991826, 0.0024449906158353963, 0.0009582191046465488], "cost_history": [0.4998506070594679, 0.048726738007593695, 0.04094670322152433, 0.03512177589451637, 0.03016282596595482, 0.025893919806297516, 0.022189384012405777, 0.018957456641246706, 0.01612982031754695, 0.01365451581732885, 0.011490969200422085, 0.009606410893868156, 0.007973272606296933, 0.006567320103266161, 0.0053663717776157305, 0.004349495964987404, 0.0034965945896920925, 0.0027882820004765385, 0.0022059668128884824, 0.0017320482128256875, 0.0013501492978926222, 0.0010453277955086993, 0.0008042257186089419, 0.0006151403200652106, 0.0004680158915206234], "model_weights": [0.6270971525237676, 0.6275727723482559, 0.01764575391826707, 0.01853279327469605, 0.8770578874236677, 0.8759611470808356, 0.0007342144114598388, 0.0008020539394912975, 0.0002154446815232112, -0.0007861585437401224, 0.0009101223875398741, 0.0014311537500284043, 0.0007207830818578891, 0.0002451494959041807, -0.000517632177063604, 0.00151127153800156, 0.00029845842579448174, -0.0003030643427439561, 0.000416115899029099, -0.0012436483451934417], "init_weights": [-0.0003734484642320191, -0.0010996663216562396, 0.00011989958105545955, -0.00028686086084504987, 0.0018570383354646809, 0.00018938665665020458, 0.0007342144114598388, 0.0008020539394912975, 0.0002154446815232112, -0.0007861585437401224, 0.0009101223875398741, 0.0014311537500284043, 0.0007207830818578891, 0.0002451494959041807, -0.000517632177063604, 0.00151127153800156, 0.00029845842579448174, -0.0003030643427439561, 0.000416115899029099, -0.0012436483451934417]},{"problem": "ToyProblem", "trial": 2, "n_qubits": 2, "ansatz": "2-layer HEA", "cost": "local", "optimizer": "SGD_lr=1", "error_threshold": 0.0016, "noise_model": "Bitflip=0.05", "TTS": 14.034998655319214, "STS": 25, "final_EAD": 0.0006579502421670049, "EAD_history": [0.10286470083212841, 0.07655528017054661, 0.047392060429710316, 0.028652048594439795, 0.015953050059972815, 0.009138974992715402, 0.0037641591680794666, 0.0016859194411436608, 0.0006579502421670049], "cost_history": [0.49895079376168167, 0.04902433648743071, 0.04111770370360279, 0.03525950714340048, 0.030274283972361427, 0.025984126598717128, 0.02226213010788125, 0.01901570494947824, 0.01617596392332643, 0.01369054498983352, 0.011518579424507125, 0.009627071403769338, 0.007988268241601315, 0.006577775578199774, 0.005373265189063781, 0.004353666749991603, 0.0034987497628796715, 0.0027890032010471355, 0.002205719480382118, 0.0017311931812967751, 0.0013489563437887875, 0.0010439902431292336, 0.0008028750812433816, 0.0006138600639137293, 0.0004668536567549175], "model_weights": [0.6281651573156037, 0.6285732336571518, 0.0168678976828867, 0.019149269875750025, 0.8765993025954062, 0.8745713176920864, 0.0005916002044567938, -5.283218162929687e-06, 0.0006883441587076484, -0.0005745338672714984, 0.0007799807881655131, 8.325667647282447e-05, 0.00026324352103890665, -0.001201772341330963, 0.0008643116363780113, -0.00014755935243696315, -2.5441945311887436e-05, 0.0010542947082898256, -0.0021662317313565246, -0.0010657637870078104], "init_weights": [-0.000191680363074096, 0.0010498127109719428, 0.00021026238722079844, 0.002720557788604835, -0.001114451445458124, 0.0001793445716089387, 0.0005916002044567938, -5.283218162929687e-06, 0.0006883441587076484, -0.0005745338672714984, 0.0007799807881655131, 8.325667647282447e-05, 0.00026324352103890665, -0.001201772341330963, 0.0008643116363780113, -0.00014755935243696315, -2.5441945311887436e-05, 0.0010542947082898256, -0.0021662317313565246, -0.0010657637870078104]},{"problem": "ToyProblem", "trial": 3, "n_qubits": 2, "ansatz": "2-layer HEA", "cost": "local", "optimizer": "SGD_lr=1", "error_threshold": 0.0016, "noise_model": "Bitflip=0.05", "TTS": 14.24242091178894, "STS": 25, "final_EAD": 0.0010412859487084673, "EAD_history": [0.0993583103437573, 0.07404507808538581, 0.04703350124744926, 0.02878015081365993, 0.014633776582152598, 0.010535366859264789, 0.0037335913585436176, 0.0016979935252558571, 0.0010412859487084673], "cost_history": [0.4993322366179105, 0.048770803924177264, 0.04095693600485373, 0.035128320164065474, 0.030166401615555283, 0.02589507858072515, 0.02218857910883415, 0.018955077027019873, 0.0161262112895465, 0.01364999020041252, 0.011485812094409964, 0.009600880121164668, 0.00796759662804114, 0.006561694927339545, 0.005360958135696592, 0.004344417721002469, 0.0034919389549344926, 0.002784101715716636, 0.0022022840825355883, 0.0017288599033163377, 0.0013474327776482053, 0.0010430467965027446, 0.0008023357084958604, 0.0006135930411718116, 0.00046676290118891073], "model_weights": [-0.6276007658681043, -0.6277871569146556, -0.018088723281923364, -0.01799985412738104, -0.8763089423149238, -0.8761935911651697, 0.0003847335041812425, -0.0009818824708748013, 0.0007099291369610542, 0.00017680993457417369, 0.0012976818057454697, 0.00121515222579634, -0.0010875002322862702, 0.0003348030603817807, 0.002344844706052126, -0.001910964271571631, -0.000533034395697645, -0.00216030334227942, 0.00038884700005842717, -0.0009546903335716416], "init_weights": [0.0007283916904172076, -0.0002054637180315814, -0.00020367184027286, -0.00026407849025992315, -0.0007133393544031634, -0.0011581557893462512, 0.0003847335041812425, -0.0009818824708748013, 0.0007099291369610542, 0.00017680993457417369, 0.0012976818057454697, 0.00121515222579634, -0.0010875002322862702, 0.0003348030603817807, 0.002344844706052126, -0.001910964271571631, -0.000533034395697645, -0.00216030334227942, 0.00038884700005842717, -0.0009546903335716416]},{"problem": "ToyProblem", "trial": 4, "n_qubits": 2, "ansatz": "2-layer HEA", "cost": "local", "optimizer": "SGD_lr=1", "error_threshold": 0.0016, "noise_model": "Bitflip=0.05", "TTS": 14.10866093635559, "STS": 25, "final_EAD": 0.0009833007365942998, "EAD_history": [0.09932653732638465, 0.07647948660526876, 0.04670536438319448, 0.028519118207555406, 0.014689850195505326, 0.007951658558387534, 0.004412649182759009, 0.0016497474855387477, 0.0009833007365942998], "cost_history": [0.4993976377454826, 0.04875162737933747, 0.04093436911161619, 0.0350992780676066, 0.03013195478460129, 0.025856212649625565, 0.022146250578564175, 0.018910243017791595, 0.016079836156475347, 0.013603034654822654, 0.011439209596648015, 0.009555505399916842, 0.007924231519829239, 0.006520996783904276, 0.005323435488565786, 0.004310416635635583, 0.0034616417132702915, 0.0027575374850276613, 0.0021793494762553656, 0.001709346159473657, 0.001331055841075346, 0.001029476855784195, 0.0007912235112679245, 0.0006045913233256317, 0.0004595422651832437], "model_weights": [-0.6294004856190574, -0.6294375483769905, -0.017564482680145422, -0.018048647174068864, -0.8752896933807714, -0.8749064642813034, 0.00010931908956001162, -0.00012728151040430904, 0.000819694333942961, 0.0006717011393879483, 0.0005455661447515733, -0.0008862559625027357, 0.0004573602506486879, -0.0022506353848343514, -0.0009423626918518847, 9.022346654036231e-05, 0.0006441728070775995, -0.00012104553643692804, 0.000604018259045886, -0.0008394075381806072], "init_weights": [-0.0009935492205694258, -0.0006652408306027768, 0.0005759360220697301, 0.00029030170300540115, -0.0005354927399547491, -0.00031038144308296396, 0.00010931908956001162, -0.00012728151040430904, 0.000819694333942961, 0.0006717011393879483, 0.0005455661447515733, -0.0008862559625027357, 0.0004573602506486879, -0.0022506353848343514, -0.0009423626918518847, 9.022346654036231e-05, 0.0006441728070775995, -0.00012104553643692804, 0.000604018259045886, -0.0008394075381806072]},{"problem": "ToyProblem", "trial": 0, "n_qubits": 2, "ansatz": "2-layer HEA", "cost": "local", "optimizer": "SGD_lr=1", "error_threshold": 0.0016, "noise_model": "Bitflip=0.05", "TTS": 16.75105905532837, "STS": 31, "final_EAD": 0.00015057583899789269, "EAD_history": [0.10346319256143009, 0.022377592290855803, 0.002313071711429365, 0.00015057583899789269], "cost_history": [0.49991604071192486, 0.04894171683951537, 0.041094710145221536, 0.035239997114904276, 0.0302574446887241, 0.025969424732383284, 0.022249192147575814, 0.019004263765395157, 0.01616582482737644, 0.01368156290651501, 0.011510642773705448, 0.00962009035850886, 0.007982166115955924, 0.006572482672156543, 0.005368714689042042, 0.004349792379002071, 0.0034954848742754785, 0.00278628097477418, 0.0022034738539171705, 0.0017293601541883974, 0.0013474753412870966, 0.0010428053021397377, 0.0008019357136045402, 0.0006131217396740385, 0.00046627792020575987, 0.0003528999550023171, 0.0002659362643420149, 0.00019962864896960753, 0.00014933955069784677, 0.00011137983429826415, 8.284689193066574e-05], "model_weights": [0.648037406287902, 0.6473004955664541, 0.009272851864395215, 0.004927710958008508, 0.8934775304339526, 0.8974698132879265, 4.2141398609555596e-05, -0.0004570175554629073, -0.0003391768619588819, 0.00012396093322235437, 0.0008398771578523833, -0.0007621913259696847, 0.0003804575909883658, -0.0014264768112273723, -0.00047622806716784386, -0.0006827863042726953, -0.001502708537933614, -0.0008386343823748227, -0.0013931808093352188, 0.001362617193699311], "init_weights": [-0.0003905420662012101, 0.0004085201811344261, 0.002137686737283101, -0.0008207322393004898, -0.0009639135674081937, -0.0001426499859460172, 4.2141398609555596e-05, -0.0004570175554629073, -0.0003391768619588819, 0.00012396093322235437, 0.0008398771578523833, -0.0007621913259696847, 0.0003804575909883658, -0.0014264768112273723, -0.00047622806716784386, -0.0006827863042726953, -0.001502708537933614, -0.0008386343823748227, -0.0013931808093352188, 0.001362617193699311]},{"problem": "ToyProblem", "trial": 1, "n_qubits": 2, "ansatz": "2-layer HEA", "cost": "local", "optimizer": "SGD_lr=1", "error_threshold": 0.0016, "noise_model": "Bitflip=0.05", "TTS": 16.551976203918457, "STS": 31, "final_EAD": 0.00010969661877530053, "EAD_history": [0.09746166681916382, 0.024016572019368753, 0.002476160876700507, 0.00010969661877530053], "cost_history": [0.499742736857091, 0.04896694609706609, 0.04110243276994546, 0.035243115764271415, 0.030256849557750487, 0.02596581306716339, 0.022243149769737736, 0.018996307719990946, 0.01615642697553321, 0.013671160847533892, 0.01149964217063193, 0.009608861696453141, 0.007971038446935252, 0.006561736600631751, 0.005358576505877011, 0.004340430762245939, 0.0034870109519342107, 0.0027787518728725202, 0.002196899251799056, 0.0017237109440446097, 0.0013426932971720151, 0.0010388126998840952, 0.0007986440503476855, 0.0006104389980574054, 0.00046411412775271277, 0.0003511710457257955, 0.000264566428060109, 0.00019855145058084167, 0.00014849813021960978, 0.0001107264794910634, 8.234222965969318e-05], "model_weights": [-0.6483886240298693, -0.6480350905335952, -0.0074274519132259825, -0.006696963714854236, -0.8945766018395486, -0.8954730238485179, 0.00114282871381624, 0.0009322097932255578, 0.0010637240304682655, -5.5139760949119365e-05, -0.0001279377909349837, -0.002784980872408232, 0.0010859353313527466, -0.0016579789455488374, -0.0012567751249136293, 0.0009779475375970637, 0.0001304656460678561, -0.00014548202417143485, 8.085458643986854e-05, -0.0017121047302613402], "init_weights": [-0.0003671375889936832, -0.0005747282416624996, -0.0006495747651921745, -0.0006952806885802258, 0.0012263801814103048, 0.0003605845557841836, 0.00114282871381624, 0.0009322097932255578, 0.0010637240304682655, -5.5139760949119365e-05, -0.0001279377909349837, -0.002784980872408232, 0.0010859353313527466, -0.0016579789455488374, -0.0012567751249136293, 0.0009779475375970637, 0.0001304656460678561, -0.00014548202417143485, 8.085458643986854e-05, -0.0017121047302613402]},{"problem": "ToyProblem", "trial": 2, "n_qubits": 2, "ansatz": "2-layer HEA", "cost": "local", "optimizer": "SGD_lr=1", "error_threshold": 0.0016, "noise_model": "Bitflip=0.05", "TTS": 16.69140601158142, "STS": 31, "final_EAD": 0.00032298707905453495, "EAD_history": [0.09707888522922005, 0.02164036154039658, 0.0029143917990485007, 0.00032298707905453495], "cost_history": [0.4994507881138776, 0.04877484464518472, 0.04096008280850433, 0.035127403292250614, 0.03016219634350159, 0.025888205488357297, 0.022179570032803353, 0.01894441182358164, 0.016114336851212052, 0.013637327754554673, 0.011472756600000744, 0.009587794641131075, 0.007954804160473616, 0.006549469928442353, 0.005349519638812694, 0.004333925458719412, 0.003482493243461171, 0.0027757471590224014, 0.002195016527903104, 0.0017226356432707979, 0.0013421788051049544, 0.0010386709730232369, 0.0007987359378601178, 0.0006106648637982937, 0.0004644052542355226, 0.0003514821339404839, 0.0002648693363216936, 0.00019883017351740584, 0.0001487449193754986, 0.000110938950174444, 8.25212771499717e-05], "model_weights": [0.6480241254104054, 0.6470102578783009, 0.006701243059911904, 0.007471506033824453, 0.895475726570767, 0.8958908487015046, -0.001167566858492205, 1.012188239008286e-05, 0.0008526219424936962, -0.0015163490756510576, -0.00010808746408587148, -0.00022624370068886278, -0.0007503322953851276, -0.0005007826845755574, 0.001222201694492143, 0.0003436499296266528, -0.0020805445901349306, -0.0007502432939825115, 0.0017207560021908108, 0.0011892303146641594], "init_weights": [0.0005205021920715986, -0.00035627326723193916, -0.0012731739928287767, 0.001305384834497389, -0.0005001690974928382, 0.0017975866909199912, -0.001167566858492205, 1.012188239008286e-05, 0.0008526219424936962, -0.0015163490756510576, -0.00010808746408587148, -0.00022624370068886278, -0.0007503322953851276, -0.0005007826845755574, 0.001222201694492143, 0.0003436499296266528, -0.0020805445901349306, -0.0007502432939825115, 0.0017207560021908108, 0.0011892303146641594]},{"problem": "ToyProblem", "trial": 3, "n_qubits": 2, "ansatz": "2-layer HEA", "cost": "local", "optimizer": "SGD_lr=1", "error_threshold": 0.0016, "noise_model": "Bitflip=0.05", "TTS": 16.953127145767212, "STS": 31, "final_EAD": 0.0002381957936554739, "EAD_history": [0.10048168190920573, 0.023475247473554544, 0.002076394225077114, 0.0002381957936554739], "cost_history": [0.49908734472059846, 0.04892445162422332, 0.041059595668664794, 0.03521715931082975, 0.030244468412043535, 0.025964452345231148, 0.02225071475076934, 0.019010996613391562, 0.01617663393419655, 0.013695425023683927, 0.011526627787329657, 0.009637358423061071, 0.007999973460487364, 0.006590190981843547, 0.005385799842621719, 0.004365849376597786, 0.003510227055679216, 0.002799532974650798, 0.002215158955994556, 0.0017394835918011498, 0.0013561055324966542, 0.0010500550051901203, 0.0008079447432137732, 0.0006180423498386989, 0.0004702633881796814, 0.0003560964090040808, 0.00026847744572044974, 0.00020163309995391288, 0.00015090964992331424, 0.00011260212666114322, 8.379323815677076e-05], "model_weights": [0.6459367116301347, 0.647248122173044, 0.00623118761488704, 0.008098749842392922, 0.8977301002933032, 0.895037949187517, -0.0006563847290812929, 0.0009126400393647641, 9.424130442113066e-05, 0.0003117836647793181, 0.0004370499999703334, -0.0001017672502119595, 0.0007049512330044737, -0.0014223643511332767, 0.0011503394619295489, 0.001499456660083409, 0.0005067727954107319, 0.0003259606332336572, 0.00207771612532319, -0.001713502613152168], "init_weights": [-0.001089451746418932, 0.0003261734335986063, 0.0011799939611527512, 0.0013241260961234893, 0.0010117366487891783, -0.000270153300110726, -0.0006563847290812929, 0.0009126400393647641, 9.424130442113066e-05, 0.0003117836647793181, 0.0004370499999703334, -0.0001017672502119595, 0.0007049512330044737, -0.0014223643511332767, 0.0011503394619295489, 0.001499456660083409, 0.0005067727954107319, 0.0003259606332336572, 0.00207771612532319, -0.001713502613152168]},{"problem": "ToyProblem", "trial": 4, "n_qubits": 2, "ansatz": "2-layer HEA", "cost": "local", "optimizer": "SGD_lr=1", "error_threshold": 0.0016, "noise_model": "Bitflip=0.05", "TTS": 16.71004009246826, "STS": 31, "final_EAD": 0.0002559141899778886, "EAD_history": [0.0980877922291543, 0.02345583942106645, 0.0034327980350155538, 0.0002559141899778886], "cost_history": [0.4988830702006406, 0.048791151291660395, 0.04095074436103724, 0.03511941618327552, 0.03015526685413472, 0.025882126326611743, 0.02217419511716623, 0.01893963663421855, 0.016110085579100986, 0.013633544411864762, 0.01146939859421009, 0.009584828001220513, 0.007952199979860242, 0.006547201791155477, 0.005347561890559127, 0.004332252213503862, 0.0034810780086661497, 0.002774562940894232, 0.0021940362631105437, 0.0017218328013638984, 0.0013415280241608207, 0.0010381486228644987, 0.0007983205444447861, 0.000610337366652447, 0.00046414909993813813, 0.0003512832296333479, 0.00026471589780885374, 0.00019871250464587042, 0.0001486551557632887, 0.00011087079373456321, 8.246974034031851e-05], "model_weights": [0.6479573632554657, 0.6471148319568588, 0.0075360829705058575, 0.006632351031476042, 0.8949191704964092, 0.8964260131478342, -0.0002517456486093713, 0.0017584700157911278, -0.00031957155318937803, -0.00042066662320842507, 0.0013015377032901284, 0.0012444581967297327, 0.0005151106118057356, -0.0005718807009041089, -0.0006405706018353991, -0.0008468393196731826, -0.001070859693954586, -0.00036203575336168464, 0.0009468851424506133, -0.001187024539404271], "init_weights": [0.0003701667504596008, 0.00033334186208603355, -6.82414839884754e-05, 0.0006958906919176767, -9.725368782801622e-05, 0.0018041493613291594, -0.0002517456486093713, 0.0017584700157911278, -0.00031957155318937803, -0.00042066662320842507, 0.0013015377032901284, 0.0012444581967297327, 0.0005151106118057356, -0.0005718807009041089, -0.0006405706018353991, -0.0008468393196731826, -0.001070859693954586, -0.00036203575336168464, 0.0009468851424506133, -0.001187024539404271]},{"problem": "ToyProblem", "trial": 0, "n_qubits": 3, "ansatz": "2-layer HEA", "cost": "local", "optimizer": "SGD_lr=1", "error_threshold": 0.0016, "noise_model": "Bitflip=0.05", "TTS": 27.23915410041809, "STS": 21, "final_EAD": 0.0011008464745672273, "EAD_history": [0.5010974862300733, 0.005330485100386366, 0.0011008464745672273], "cost_history": [0.4996282537551076, 0.280264091629275, 0.2391163617649541, 0.20810448932620496, 0.16925168930323292, 0.1190326780348322, 0.0636083147593432, 0.02909469548676169, 0.016691279226574318, 0.011575816427522811, 0.0090156825661733, 0.007451672930732844, 0.006342838783879756, 0.005482847363474541, 0.004781783831992736, 0.004194170634049865, 0.0036934413916005493, 0.0032621588182172867, 0.002887891185893887, 0.002561265581122907, 0.002274955113334143], "model_weights": [-0.563298140950214, -0.48239456744456466, -0.5475787074701435, -0.21278717219269144, -0.021085395677718784, 0.1130798595803075, -0.04372117895533692, -0.8061166384147661, -0.15150761410926003, -1.0144056683828864, -0.9768867565954068, -9.422327170736542e-05, 0.0005311355872029953, 0.0009529545375654626, -0.0008076662018905858, 0.0008496315461752487, -0.0007372539662068417, -0.0003926475616673833, 0.0011985398062822365, -0.00017303695462478398, 0.0007129276731066566, -0.00022131927137550842, 0.00126077535139697, -9.513273845358091e-05, -0.0015640456462917395, 0.00024856576690989265, -0.0016446509903075368, -0.0005803694539136486, -0.0008289187643982137, 0.0001227561789012492], "init_weights": [0.0012737039446248889, -0.0020678565230886846, -0.000759472871415461, -0.00011517154280295479, -0.0016200463302146336, -0.0002787545410892846, 0.001677429272509038, -0.0004190542112451498, 0.0006159671205225232, 8.275391187130473e-05, -0.0006221764841576604, -9.422327170736542e-05, 0.0005311355872029953, 0.0009529545375654626, -0.0008076662018905858, 0.0008496315461752487, -0.0007372539662068417, -0.0003926475616673833, 0.0011985398062822365, -0.00017303695462478398, 0.0007129276731066566, -0.00022131927137550842, 0.00126077535139697, -9.513273845358091e-05, -0.0015640456462917395, 0.00024856576690989265, -0.0016446509903075368, -0.0005803694539136486, -0.0008289187643982137, 0.0001227561789012492]},{"problem": "ToyProblem", "trial": 1, "n_qubits": 3, "ansatz": "2-layer HEA", "cost": "local", "optimizer": "SGD_lr=1", "error_threshold": 0.0016, "noise_model": "Bitflip=0.05", "TTS": 26.88121199607849, "STS": 21, "final_EAD": 0.0012702064848214673, "EAD_history": [0.5059480036331029, 0.006508819412847839, 0.0012702064848214673], "cost_history": [0.4998486078999372, 0.2802670442152926, 0.23892639573393792, 0.20785072542580402, 0.16889437383591627, 0.11855585571096505, 0.06318422447760358, 0.02895129451721412, 0.016664797634246442, 0.011587838302701436, 0.009037556322131213, 0.0074735146350149995, 0.006361853382940819, 0.005498709828180015, 0.004794891795329659, 0.00420504445671499, 0.0037025426879236933, 0.003269854282200446, 0.002894461624312117, 0.002566923994551107, 0.0022798640527991743], "model_weights": [-0.5648797690934768, -0.48063768442148036, -0.5464763644497301, -0.21560229119660024, -0.019813816046552885, 0.11267729964118718, -0.045255399998694164, -0.8018382494437112, -0.1504575202350968, -1.0176538280988834, -0.9765881706799133, -0.0005857633265138893, -0.0011234065097829502, 0.0005143939139811199, -0.0002818366863848968, -0.0016851136883377258, -0.0015815966994490258, 0.00013029513528898303, -0.0005026000770497369, -0.00048791292356449275, 0.0006045504900760076, 0.0015898170522217808, 0.0006208213943000762, 0.002331262428266989, 0.00014194808021222003, -0.0005728003485483329, -0.0006117909000364623, -0.0003221770578870446, -0.0009394567200799581, -0.00034024577771134], "init_weights": [-0.0007810893456751646, -9.568651073566697e-05, -0.0013109674544039753, -0.0003068162241404733, -1.3511107938974378e-05, 0.0010220933915261305, 0.0008208456099333266, 0.0014797383539895425, 0.00031297712863789535, -0.0010697692205198794, -0.0009666738744774047, -0.0005857633265138893, -0.0011234065097829502, 0.0005143939139811199, -0.0002818366863848968, -0.0016851136883377258, -0.0015815966994490258, 0.00013029513528898303, -0.0005026000770497369, -0.00048791292356449275, 0.0006045504900760076, 0.0015898170522217808, 0.0006208213943000762, 0.002331262428266989, 0.00014194808021222003, -0.0005728003485483329, -0.0006117909000364623, -0.0003221770578870446, -0.0009394567200799581, -0.00034024577771134]},{"problem": "ToyProblem", "trial": 2, "n_qubits": 3, "ansatz": "2-layer HEA", "cost": "local", "optimizer": "SGD_lr=1", "error_threshold": 0.0016, "noise_model": "Bitflip=0.05", "TTS": 26.930595874786377, "STS": 21, "final_EAD": 0.0008942433719661352, "EAD_history": [0.5091040332363082, 0.005236329090634771, 0.0008942433719661352], "cost_history": [0.4999852245367756, 0.28031863085029185, 0.23906761748228222, 0.20809690864948782, 0.16929649237476224, 0.11914632919721918, 0.06377610485630941, 0.02921014670429961, 0.01674846819157072, 0.011605624359612321, 0.00903272648911152, 0.007462499397372757, 0.006350593471608601, 0.0054891238176353885, 0.004787410418369165, 0.004199572803161522, 0.0036988256171286427, 0.0032676116092640872, 0.0028934337025834367, 0.0025668848575830516, 0.002280621497778912], "model_weights": [-0.5630700383300157, -0.4814121171407419, -0.5463794735924751, -0.21453487575896404, -0.020572854725240224, 0.11325905928332751, -0.045064648214951715, -0.804659882720381, -0.15092798453763076, -1.0163789837070853, -0.9768719075372658, 0.0009273364899610059, 0.0011705186764520551, -0.00045600715873656477, 0.0012300026761061088, -0.00024989802961335585, -0.0011831137183517264, -0.0003629282451895528, 0.00015222722272284603, -0.0010550110265133872, 0.0014946644869986469, 0.0012486839158226866, -0.00014356137183412174, 1.3282671224313484e-05, -0.0018460078138862236, -0.0004911608371388656, -0.0012584569529777497, 0.0002189145841937107, -0.0015980099784866238, 8.375162012274062e-05], "init_weights": [0.0008796323367443445, -0.0007475485930440668, -0.00038500832440312247, -0.00038311535730114425, 0.0004960988207987907, -0.00012617091629086598, -0.0002826970934183828, -0.0009933372660227632, 0.00032552484102801795, 0.0009936685226699233, 0.00013482408245623208, 0.0009273364899610059, 0.0011705186764520551, -0.00045600715873656477, 0.0012300026761061088, -0.00024989802961335585, -0.0011831137183517264, -0.0003629282451895528, 0.00015222722272284603, -0.0010550110265133872, 0.0014946644869986469, 0.0012486839158226866, -0.00014356137183412174, 1.3282671224313484e-05, -0.0018460078138862236, -0.0004911608371388656, -0.0012584569529777497, 0.0002189145841937107, -0.0015980099784866238, 8.375162012274062e-05]},{"problem": "ToyProblem", "trial": 3, "n_qubits": 3, "ansatz": "2-layer HEA", "cost": "local", "optimizer": "SGD_lr=1", "error_threshold": 0.0016, "noise_model": "Bitflip=0.05", "TTS": 27.00864887237549, "STS": 21, "final_EAD": 0.0014791040909832372, "EAD_history": [0.5051025318868453, 0.0058098089619142215, 0.0014791040909832372], "cost_history": [0.49905266351233113, 0.2800758295639736, 0.23882049518275994, 0.20773254212097603, 0.16874798601095548, 0.11837731377263294, 0.06303033857335416, 0.028889039721119225, 0.016634102829960196, 0.011565317441693646, 0.009017928126008712, 0.007455770909240045, 0.006345762371879449, 0.005484133317819162, 0.004781678957931135, 0.004193040214423904, 0.0036916016335724056, 0.0032598475664216142, 0.0028852788131234486, 0.002558471700927323, 0.0022720639057381975], "model_weights": [-0.5651141985253971, -0.4818412186020495, -0.5465126158733932, -0.2150150465660473, -0.01951174736935401, 0.1125338800636404, -0.044652828534034635, -0.8022504963428722, -0.15063549451853633, -1.0164436073777428, -0.9771052178662586, -0.00011231348391128365, 0.0001390881173053736, 0.0009036697107539613, -0.0004875268767250419, 0.0015960323707845125, -0.002834107553409598, 0.00032694471037450403, 0.0001491639435243138, -0.0013105369115646883, 0.0020729907432304674, -0.001452441770427028, -0.0017484722627353895, 0.0007180052757244766, 0.0009852490922410775, -0.000455220897658963, -0.0002808305344178759, 0.0004184691891876038, -0.0008857822388890195, -4.778712949366735e-05], "init_weights": [-0.0020949309106046278, -0.0016575838769216325, -0.00029250328799162214, -0.0015035023631930378, 0.0001709604858919055, 0.000665806055224067, 0.0012562635403529222, -0.0006437944868481773, 2.3471551324470102e-05, -0.0010221627650899656, -0.0005894297733101707, -0.00011231348391128365, 0.0001390881173053736, 0.0009036697107539613, -0.0004875268767250419, 0.0015960323707845125, -0.002834107553409598, 0.00032694471037450403, 0.0001491639435243138, -0.0013105369115646883, 0.0020729907432304674, -0.001452441770427028, -0.0017484722627353895, 0.0007180052757244766, 0.0009852490922410775, -0.000455220897658963, -0.0002808305344178759, 0.0004184691891876038, -0.0008857822388890195, -4.778712949366735e-05]},{"problem": "ToyProblem", "trial": 4, "n_qubits": 3, "ansatz": "2-layer HEA", "cost": "local", "optimizer": "SGD_lr=1", "error_threshold": 0.0016, "noise_model": "Bitflip=0.05", "TTS": 78.63531303405762, "STS": 61, "final_EAD": 0.0006668269558576601, "EAD_history": [0.5032865145133291, 0.07341486812743976, 0.023901199564619717, 0.00950323158625415, 0.0027208380558937325, 0.0020839628133647067, 0.0006668269558576601], "cost_history": [0.4998757442058882, 0.193048602475683, 0.07222741542030686, 0.04806570557110368, 0.03709899052281729, 0.030576274598140996, 0.026074795532199435, 0.022666073293835243, 0.01993321632639289, 0.01766345974504696, 0.01573543262513255, 0.01407296333785063, 0.012624385098502888, 0.011352491927404285, 0.010229273618803214, 0.009232940724389238, 0.008346119766348414, 0.007554686639123009, 0.006846971619750675, 0.006213194996016802, 0.005645054414856576, 0.005135417118859342, 0.004678087555628596, 0.004267630655524157, 0.00389923693174149, 0.0035686192621104396, 0.0032719337008786376, 0.003005718440088845, 0.0027668463650292185, 0.0025524876767839544, 0.0023600798722470118, 0.002187303028205023, 0.0020320588628330305, 0.0018924524669963194, 0.0017667759259957228, 0.0016534933040818767, 0.0015512266519152051, 0.0014587428327170193, 0.001374941056623502, 0.0012988410739465106, 0.0012295720147459943, 0.0011663618810140441, 0.001108527704412443, 0.0010554663811704335, 0.001006646189774807, 0.000961598988835688, 0.0009199130837077019, 0.0008812267421087205, 0.0008452223318356489, 0.000811621047960398, 0.0007801781927551654, 0.0007506789689424864, 0.0007229347455610657, 0.0006967797555579858, 0.0006720681849888832, 0.0006486716151624661, 0.0006264767810719718, 0.0006053836117930755, 0.0005853035210767188, 0.000566157919030752, 0.0005478769184176224], "model_weights": [0.5823546286425858, 0.49205380181934105, 0.5750747717132623, 0.2435895565936418, 0.0012486838500908484, -0.17757375055339786, 0.05977678617395856, 0.7499253797036924, 0.09906426948808543, 1.0844284768474182, 0.9220725408473085, 0.000527336051388552, -0.0017426404926178583, 0.00027177207253859827, 0.0009047184214830796, 0.0001372023775941892, -0.0015710159513885149, -0.0008897928366682511, -0.0001917740323498421, 0.002506805814543832, 0.0013649860441546438, 0.0010609780065884498, -0.00024253139576332544, -0.0002905751760138224, 0.000134402103679756, 0.0015877630244620048, -0.0003656967045952697, 0.0005073488125653437, -0.0003857191930375114, -0.0009788733992930503], "init_weights": [-0.00020508658591011225, -7.697914776337539e-06, 0.0005643686253854352, 0.0009880595319081528, -0.0004042107912427274, -0.0005650861163262415, -8.962030522292977e-05, 0.00030017499627042895, -0.00026183434211840247, 0.0009284751549120386, -0.000502367036449672, 0.000527336051388552, -0.0017426404926178583, 0.00027177207253859827, 0.0009047184214830796, 0.0001372023775941892, -0.0015710159513885149, -0.0008897928366682511, -0.0001917740323498421, 0.002506805814543832, 0.0013649860441546438, 0.0010609780065884498, -0.00024253139576332544, -0.0002905751760138224, 0.000134402103679756, 0.0015877630244620048, -0.0003656967045952697, 0.0005073488125653437, -0.0003857191930375114, -0.0009788733992930503]}